{"weights": [[[0.07773993909358978, -0.05298685282468796, -0.03691815957427025, 0.11558875441551208, 0.08224125951528549, 0.05117855593562126, 0.07017597556114197, 0.08023182302713394, 0.061054714024066925, 0.09274272620677948, -0.04818499833345413, 0.05349665880203247, 0.07072316855192184, 0.08861741423606873, -0.04932509735226631, 0.06923097372055054, 0.03874700516462326, 0.04252592474222183, 0.060799844563007355, 0.1071128100156784, 0.09684925526380539, 0.019280685111880302, -0.015131373889744282, -0.03297816589474678, 0.048794087022542953, 0.04576221853494644, 0.09361273050308228, -0.02941468544304371, 0.06627488136291504, 0.029652101919054985, -0.038533106446266174, -0.03686092793941498, -0.04364711791276932, 0.09710358083248138, -0.028241712599992752, 0.03732272982597351, 0.018351895734667778, 0.047996148467063904, 0.009786081500351429, -0.019739622250199318, 0.027193913236260414, 0.047678567469120026, 0.10272511839866638, 0.11043478548526764, 0.10906562209129333, 0.06835886836051941, 0.010162869468331337, 0.06051747873425484, 0.0015434663509950042, 0.039170004427433014, -0.034782178699970245, 0.10120236873626709, 0.014738203026354313, -0.05010739713907242, 0.10796394944190979, 0.07643667608499527, -0.003876127302646637, -0.04887012764811516, -0.038705985993146896, 0.06600452214479446, 0.00577194569632411, -0.0068292939104139805, -0.05057865381240845, -0.00025671374169178307, 0.05941092595458031, 0.0020926424767822027, 0.07900141924619675, 0.09295997768640518, 0.04156467691063881, 0.037774428725242615, 0.09337868541479111, 0.03730909153819084, 0.11278174072504044, 0.10895317047834396, -0.034743133932352066, 0.07389121502637863, 0.11564084887504578, 0.07950641959905624, 0.05313402786850929, -0.031214185059070587, 0.06074418127536774, -0.048637863248586655, 0.02604038082063198, 0.08905366063117981, 0.01287569385021925, 0.06195272505283356, -0.051407232880592346, 0.0828847587108612, 0.07585585117340088, -0.04121541976928711, 0.1033434346318245, 0.04835182800889015, 0.11681868880987167, 0.08010704070329666, -0.03984985500574112, 0.032642971724271774, 0.07587176561355591, 0.06501652300357819, 0.01851119101047516, 0.02722482569515705, -0.024814680218696594, -0.047361914068460464, 0.08382600545883179, -0.04288119822740555, 0.0920967385172844, -0.009118875488638878, 0.10741033405065536, 0.03584838658571243, 0.0935043916106224, 0.016661573201417923, 0.012229717336595058, -0.007751979865133762, 0.11420750617980957, 0.09279709309339523, 0.10435900092124939, 0.006018899846822023, 0.034069012850522995, 0.08144497871398926, -0.010934185236692429, -0.029179679229855537, 0.11061374098062515, 0.0521879643201828, -0.023734215646982193, -0.0371219627559185, 0.10196572542190552, 0.044828396290540695, 0.04341099411249161, 0.0956047922372818, 0.029923029243946075, 0.07055787742137909, 0.014672503806650639, 0.07236544042825699, 0.07070014625787735, -0.03954276815056801, 0.014911308884620667, 0.045067980885505676, 0.010198316536843777, 0.030300069600343704, -0.03480014204978943, -0.04796871170401573, -0.004269781988114119, -0.02794591337442398, 0.03393618389964104, 0.04622458294034004, 0.105007104575634, 0.03112833760678768, 0.03461170941591263, 0.048942841589450836, 0.024504898115992546, -0.02236425317823887, 0.04861816018819809, -0.041483212262392044, -0.0286362674087286, -0.014566837809979916, 0.011678670533001423, 0.03648129850625992, -0.050834834575653076, 0.10343631356954575, 0.017824895679950714, 0.03418806567788124, -0.011285456828773022, 0.054730769246816635, 0.046027421951293945, 0.031722865998744965, 0.04917321726679802, -0.029525546357035637, 0.10554105043411255, 0.07711241394281387, 0.024259695783257484, 0.032911013811826706, 0.06356018781661987, 0.09394936263561249, 0.03202730417251587, -0.04163959622383118, 0.06537137180566788, 0.045547161251306534, 0.05446743592619896, -0.032133787870407104, 0.0840093269944191, 0.11383578181266785, 0.07100221514701843, 0.0704200491309166, -0.012722250074148178, -0.05322252959012985, 0.05377477779984474, 0.03815733641386032, 0.05710335075855255, 0.04517490789294243, -0.03642061725258827, -0.01704014278948307, 0.08411611616611481, 0.01960994116961956, 0.10195140540599823, -0.05085686221718788, -0.006937805097550154, -0.018452709540724754, -0.0014704861678183079, 0.0872727707028389, -0.051577284932136536, 0.10422713309526443, -0.04905562102794647, 0.019622812047600746, 0.0031510349363088608, 0.002960832789540291, 0.04328189790248871, 0.08117465674877167, 0.08587632328271866, -0.020715966820716858, -0.026752937585115433, 0.018251152709126472, -0.023740898817777634, -0.025695376098155975, -0.02259090356528759, 0.11299517750740051, 0.05237363278865814, 0.06647730618715286, 0.09413395822048187, 0.036380473524332047, 0.06510788202285767, -0.04800291359424591, 0.01942601054906845, 0.031226808205246925, 0.10680590569972992, 0.04424631968140602, 0.026828555390238762, -0.04883754998445511, 0.07500965893268585, 0.048161350190639496, 0.10073576867580414, -0.05119471624493599, 0.1056145578622818, -0.039996955543756485, -0.025135548785328865, 0.04392107203602791, -0.010796472430229187, 0.04282578080892563, 0.0012387201422825456, 0.08948791027069092, -0.03980827331542969, 0.09050270915031433, 0.10843544453382492, 0.06747384369373322, 0.11673402786254883, 0.02080352045595646, 0.09333259612321854, -0.007525784429162741, -0.04016556590795517, 0.022727200761437416, 0.008327588438987732, -0.04437217116355896, 0.08932844549417496, 0.007119225338101387, 0.0938258245587349, 0.0031035696156322956, 0.037019163370132446, 0.05218321084976196, 0.09204060584306717, 0.04081030562520027, 0.10245607793331146, -0.014589286409318447, 0.024707231670618057, -0.009946659207344055, -0.05410553142428398, 0.06645069271326065, 0.018452724441885948, -0.03729890659451485, -0.022948037832975388, 0.01645042933523655, 0.11116967350244522, 0.0259704552590847, -0.05411209538578987, 0.07034272700548172, 0.10407256335020065, 0.0026451749727129936, 0.08956381678581238, -0.010832340456545353, 0.025704680010676384, 0.04345513880252838, 0.11152002960443497, 0.09733198583126068, 0.013879538513720036, 0.1062278226017952, 0.08053179085254669, -0.004747549071907997, -0.04664740338921547, 0.11066249758005142, 0.011627418920397758, 0.03948444873094559, 0.023815037682652473, 0.11093397438526154, 0.07634212076663971, 0.03215423598885536, 0.0736657902598381, -0.01660384051501751, -0.02590198628604412, 0.02366974763572216, 0.05717093124985695, 0.07935851812362671, -0.03120172955095768, 0.07643025368452072, 0.08538495004177094, 0.07182054221630096, 0.10302944481372833, 0.09729944914579391, 0.05965137481689453, -0.02760162390768528, -0.004379223100841045, 0.006448905449360609, 0.024676501750946045, 0.09492775797843933, 0.05910734459757805, -0.02954212576150894, -0.037582725286483765, 0.09841209650039673, 0.029759416356682777, -0.047255948185920715, 0.05179249122738838, -0.02970189042389393, 0.10243083536624908, 0.061452798545360565, -0.011549955233931541, -0.03130754455924034, -0.03952706977725029, 0.07111720740795135, -0.03514054790139198, 0.08702083677053452, 0.06900832056999207, 0.050482377409935, -0.0009731865138746798, -0.042508795857429504, -0.009143667295575142, -0.016031095758080482, 0.03969912603497505, -0.006452642381191254, 0.008523406460881233, 0.01721304841339588, 0.01802477054297924, 0.020470019429922104, 0.06699591130018234, 0.04605155438184738, 0.019600864499807358, -0.03936207666993141, -0.05059651657938957, 0.009327385574579239, 0.055226992815732956, 0.09811373800039291, 0.028231943026185036, 0.07410081475973129, 0.10243269801139832, 0.0811239555478096, -0.003229153109714389, -0.009455341845750809, -0.015405111946165562, -0.01623963750898838, -0.004727702587842941, 0.1127052828669548, -0.02627643384039402, -0.03367548808455467, 0.002726991195231676, -0.04532850906252861, 0.03270040079951286, 0.09165846556425095, 0.06985177844762802, -0.04027045518159866, 0.06255185604095459, 0.024580679833889008, 0.09248710423707962, 0.1124582290649414, 0.0731903538107872, 0.01768147386610508, -0.046193357557058334, -0.025490419939160347, -0.03860151395201683, 0.06324885040521622, -0.027305247262120247, -0.051170285791158676, -0.015115555375814438, 0.11062023043632507, 0.09756551682949066, -0.01138615608215332, 0.10212955623865128, -0.03637811541557312, -0.04154321551322937, 0.029306255280971527, 0.03542114049196243, 0.040931086987257004, 0.04600464925169945, 0.0732598677277565, 0.07001355290412903, 0.02783159352838993, -0.026441553607583046, 0.09283725172281265, -0.0010068973060697317, 0.1046464741230011, -0.04124772548675537, 0.0432916060090065, -0.0031811760272830725, 0.08675990253686905, -0.01779158040881157, 0.11192825436592102, -0.04670218750834465, -0.021052246913313866, 0.08754994720220566, -0.038777273148298264, 0.04059789329767227, -0.03188726678490639, 0.01326768472790718, -0.0060922917909920216, 0.010457051917910576, -0.019168667495250702, 0.09853040426969528, 0.032753266394138336, -0.030865082517266273, -0.023753365501761436, 0.033999159932136536, 0.053237803280353546, 0.04161101579666138, -0.03563912585377693, 0.09481143951416016, 0.06548549979925156, 0.1032821536064148, -0.00027187884552404284, -0.01609988510608673, -0.023404942825436592, -0.01833035610616207, -0.036368679255247116, 0.05611434578895569, -0.04371364042162895, 0.0027850233018398285, 0.017771761864423752, 0.015394593589007854, 0.020527388900518417, 0.10562792420387268, 0.0829080119729042, 0.043520256876945496, -0.010358358733355999, 0.03378995880484581, -0.007230627350509167, 0.10571958869695663, 0.09781824052333832, -0.053768090903759, 0.0679454356431961, 0.047667358070611954, -0.007165826391428709, 0.07499413192272186, 0.10029273480176926, 0.09710150957107544, 0.10688071697950363, 0.04996354877948761, -0.04761239141225815, 0.024880165234208107, 0.05642647296190262, 0.10546964406967163, 0.025295203551650047, -0.03688964992761612, 0.09718509018421173, 0.028979377821087837, 0.016524355858564377, 0.0658700242638588, 0.08456514775753021, 0.03795773535966873, 0.05978946015238762, 0.09603477269411087, 0.0021982723847031593, -0.04000554233789444, -0.03229070082306862, 0.005230219103395939, 0.09584376960992813, -0.027866525575518608, 0.0011310759000480175, 0.10517436265945435, 0.029488641768693924, 0.10345693677663803, -0.05104289576411247, 0.08347508311271667, 0.06687087565660477, 0.046908941119909286, -0.041557781398296356, 0.06069684028625488, 0.0046210638247430325, -0.028371749445796013, 0.019772082567214966, 0.09958866983652115, 0.06860142946243286, 0.1116710975766182, 0.11332698911428452, 0.11052699387073517, -0.03306484967470169, 0.09622299671173096, 0.05958062410354614, -0.016085511073470116, 0.1054699569940567, -0.016029516234993935, 0.10658204555511475, 0.10984664410352707, -0.031103983521461487, -0.04312450438737869, 0.04252052679657936, -0.019070742651820183, 0.05970141291618347, 0.025334389880299568, 0.09234202653169632, 0.047141801565885544, 0.0833926722407341, -0.013983169570565224, -0.009514492936432362, -0.014673713594675064, 0.06219024211168289, -0.002775024389848113, 0.01778937503695488, 0.07648847252130508, -0.04937935993075371, 0.07733837515115738, 0.036866217851638794, 0.004521987866610289, 0.031210679560899734, -0.025890855118632317, 0.002543450566008687, 0.06426571309566498, 0.08652914315462112, 0.11520819365978241, 0.08358682692050934, 0.01399251539260149, 0.011633315123617649, 0.07552383840084076, 0.04471532255411148, -0.039136193692684174, 0.07440304756164551, 0.058850761502981186, -0.054680295288562775, 0.004372202325612307, 0.09069683402776718, 0.018451137468218803, 0.09055577963590622, 0.050177741795778275, -0.03949420899152756, 0.056130725890398026, 0.11522193998098373, 0.021475989371538162, 0.002954027382656932, 0.0924384593963623, 0.05401257053017616, -0.047514501959085464, 0.038166504353284836, 0.005982897710055113, 0.010365637019276619, 0.08953848481178284, 0.03977501392364502, 0.011116743087768555, 0.039288781583309174, 0.004274790640920401, 0.010865364223718643, -0.045263733714818954, 0.08108833432197571, 0.023646846413612366, -0.04420354589819908, 0.014959794469177723, 0.056691478937864304, 0.020829210057854652, -0.010517051443457603, 0.08366607129573822, 0.08050712198019028, 0.05664405599236488, -0.02531909942626953, -0.02706141397356987, 0.08756332099437714, 0.07369530946016312, 0.06130475923418999, -0.027819961309432983, 0.01734328269958496, -0.04443594813346863, -0.05474897101521492, 0.04357743263244629, 0.06362541019916534, -0.024601493030786514, 0.01285217422991991, -0.022437160834670067, 0.01984478533267975, 0.03618229925632477, -0.010288749821484089, 0.057793617248535156, 0.01697036810219288, 0.033876918256282806, -0.0004067207337357104, 0.11602359265089035, 0.033821284770965576, -0.0289938822388649, 0.04691625386476517, 0.03225858882069588, -0.04135405272245407, 0.011896069161593914, -0.021672872826457024, 0.06614803522825241, -0.002951981034129858, 0.020079990848898888, 0.09720069915056229, 0.10526641458272934, -0.01863195188343525, 0.011088010855019093, -0.05154929310083389, -0.046486373990774155, -0.010493511334061623, -0.02474719099700451, 0.10849974304437637, 0.020212868228554726, -0.04013194888830185, -0.016465090215206146, 0.1073363646864891, 0.08903459459543228, 0.10851407796144485, 0.04354732111096382, -0.031288083642721176, -0.053559496998786926, 0.04479457810521126, -0.02682013064622879, 0.061948612332344055, 0.10501943528652191, -0.005694278050214052, 0.10704510658979416, -0.00685656676068902, 0.03191911056637764, 0.09868334233760834, 0.11287897080183029, 0.11273686587810516, 0.08900430798530579, 0.018696025013923645, 0.08155034482479095, 0.042334236204624176, 0.07565131783485413, 0.09172326326370239, -0.04051365703344345, -0.0058777970261871815, 0.09937246143817902, 0.057509664446115494, -0.021054161712527275, 0.11280031502246857, 0.008272136561572552, -0.03521207720041275, -0.015405845828354359, 0.007015799172222614, 0.09028037637472153, 0.00579262338578701, -0.019301602616906166, 0.09024528414011002, 0.11590265482664108, -0.02742108143866062, 0.041223712265491486, -0.021060137078166008, 0.07947466522455215, 0.07384872436523438, -0.03130362555384636, 0.10169166326522827, 0.028811339288949966, 0.035890936851501465, 0.09157000482082367, -0.009506688453257084, 0.03351026028394699, 0.0011296976590529084, 0.06707022339105606, 0.07789096981287003, 0.10093621909618378, 0.021901758387684822, -0.01624034158885479, -0.05268177390098572, 0.07621920108795166, -0.01122711319476366, 0.09748789668083191, 0.05918684974312782, 0.014733741991221905, -0.016041794791817665, -0.04639321193099022, 0.11503929644823074, -0.004535556770861149, 0.06942256540060043, 0.09010453522205353, 0.062034398317337036, 0.08652544021606445, -0.03585102781653404, 0.07162964344024658, 0.06881118565797806, 0.015221912413835526, 0.045230500400066376, 0.04995168000459671, 0.04198329895734787, 0.017353538423776627, -0.038851942867040634, 0.07850906252861023, 0.030842004343867302, -0.02698400430381298, 0.11002319306135178, 0.10189016908407211, -0.004191972780972719, 0.062288541346788406, -0.008732250891625881, 0.0018175087170675397, 0.07241374999284744, 0.11248026043176651, -0.04388861730694771, 0.01749523915350437, 0.10027027875185013, 0.10081373900175095, -0.04387231171131134, -0.02701473794877529, 0.04873982444405556, -0.02160780504345894, -0.02252108044922352, 0.0003805250453297049, 0.007960397750139236, -0.0520407110452652, 0.11020857095718384, -0.019643167033791542, -0.043317001312971115, 0.05857415869832039, -0.029910463839769363, 0.06903731822967529, 0.0013272757641971111, 0.09841861575841904, 0.007585710845887661, 0.08596612513065338, 0.0774611309170723, -0.012274276465177536, 0.09717457741498947, 0.09800799190998077, 0.06320592761039734, 0.042840659618377686, 0.0418015718460083, 0.04665958508849144, -0.054049257189035416, 0.006727064028382301, 0.060687772929668427, -0.009703025221824646, -0.01844913139939308, 0.045041799545288086, 0.08272744715213776, 0.11476454883813858, 0.10692232102155685, 0.09712298214435577, -0.015435628592967987, -0.0012745093554258347, -0.036578159779310226, 0.09375876188278198, -0.048486582934856415, -0.02549157105386257, 0.012808369472622871, 0.07891654223203659, 0.11616957932710648, -0.04626893252134323, 0.01084752194583416, 0.03635723143815994, 0.004647425841540098, 0.07564105838537216, 0.05912325903773308, 0.011945332400500774, 0.11252852529287338, 0.09669405966997147, -0.019888048991560936, 0.03603960946202278, 0.044242072850465775, -0.008400682359933853, -0.02500566467642784, 0.01327225100249052, 0.05363257974386215, 0.037736885249614716, 0.11215969920158386, 0.09267468005418777, 0.09781110286712646, -0.012027810327708721, 0.08284961432218552, -0.008344637230038643, 0.017432598397135735, 0.07598208636045456, -0.026539012789726257, -0.027634598314762115, 0.06365475058555603, -0.04364040493965149, 0.1092509776353836, -0.00631986977532506, 0.03692658990621567, 0.043106772005558014, -0.012932960875332355, -0.02101077511906624, 0.048474524170160294, -0.015182417817413807, 0.011705325916409492], [0.03762464597821236, 0.0021583344787359238, 0.06259499490261078, 0.11168160289525986, 0.07148777693510056, -0.02650965191423893, 0.025964045897126198, 0.029354343190789223, 0.0474073700606823, 0.0897565633058548, -0.012580720707774162, 0.07653562724590302, 0.030329996719956398, 0.028759146109223366, 0.04218432307243347, 0.05310492217540741, -0.013430492021143436, -0.014694007113575935, 0.010294928215444088, -0.008447332307696342, 0.05220317468047142, 0.06445822864770889, 0.04424881190061569, 0.029052654281258583, 0.0325935035943985, 0.0098958108574152, 0.09083067625761032, 0.11468533426523209, 0.05884292721748352, 0.051762063056230545, -0.00863461010158062, 0.06569400429725647, -0.0051551079377532005, 0.10198342800140381, 0.059410590678453445, 0.041517846286296844, 0.1249973252415657, 0.13523484766483307, 0.047437552362680435, 0.000976241601165384, 0.009572756476700306, 0.0014920614194124937, 0.026774723082780838, 0.07853185385465622, 0.1101381853222847, 0.1350560337305069, -0.03082747384905815, 0.08838802576065063, 0.09841103106737137, -0.010962528176605701, 0.07528188079595566, -0.004914065822958946, 0.05828574299812317, 0.1238221749663353, 0.00356862205080688, 0.12668898701667786, 0.05157376453280449, 0.0495435893535614, 0.033508311957120895, 0.016058998182415962, 0.04626860097050667, -0.01112668588757515, 0.10515142232179642, 0.08925609290599823, 0.12622971832752228, 0.1189161166548729, 0.12927497923374176, 0.02638062834739685, -0.011607976630330086, 0.012262377887964249, 0.047978732734918594, 0.07787100970745087, 0.02667621709406376, 0.07197145372629166, 0.08394606411457062, 0.021768871694803238, -0.014598455280065536, 0.10433439165353775, -0.02677760273218155, 0.06430520117282867, 0.026756228879094124, 0.03086712956428528, 0.13116182386875153, 0.0730949342250824, 0.07287382334470749, 0.05729867145419121, 0.11934224516153336, 0.07265616208314896, 0.13109137117862701, 0.002327691065147519, 0.07188646495342255, 0.11582919210195541, 0.0018228202825412154, 0.04244852066040039, 0.00497361458837986, -0.001919005298987031, 0.0051491460762917995, 0.0011251633986830711, -0.003380056004971266, 0.044719062745571136, 0.07600543648004532, 0.030342120677232742, 0.03957420587539673, 0.10683657974004745, 0.11843033134937286, 0.022416478022933006, 0.013989119790494442, 0.03249243646860123, 0.07943877577781677, 0.13343603909015656, -0.008592932485044003, 0.037881262600421906, 0.10500377416610718, 0.0769447386264801, 0.022278599441051483, 0.042699653655290604, -0.009581642225384712, -0.02600245550274849, -0.028397638350725174, 0.013287313282489777, 0.10052435845136642, 0.12901116907596588, 0.003311471315100789, -0.0010605049319565296, 0.0932624414563179, 0.060954540967941284, 0.012053700163960457, 0.013117743656039238, 0.13318957388401031, 0.13056592643260956, -0.03256257250905037, -0.032605089247226715, -0.029068557545542717, 0.0015872359508648515, 0.1224847063422203, 0.08214592933654785, 0.06534460186958313, 0.07320159673690796, 0.09013072401285172, 0.06725426018238068, 0.03407996520400047, 0.09581996500492096, -0.028622793033719063, -0.00251661310903728, 0.05246541649103165, 0.022037800401449203, -0.028342608362436295, 0.05676943436264992, 0.06538129597902298, 0.08100084960460663, 0.12732820212841034, 0.133558452129364, 0.012587525881826878, 0.002138902433216572, 0.05914837494492531, 0.05310620367527008, 0.1356256604194641, 0.028651461005210876, 0.10605005919933319, 0.03491935133934021, 0.05043833702802658, 0.0404958613216877, 0.11015476286411285, 0.020085107535123825, 0.12243182957172394, 0.04461842030286789, 0.029940159991383553, 0.10805147141218185, 0.07296758145093918, 0.03318241611123085, 0.05361586809158325, 0.04080764576792717, 0.11650221049785614, 0.09225659817457199, 0.038990750908851624, -0.007289469707757235, -0.008936160244047642, 0.09929108619689941, -0.0323137603700161, 0.049033019691705704, 0.12524448335170746, 0.0939951092004776, 0.03302221745252609, 0.02863110788166523, 0.005661371164023876, 0.11490785330533981, 0.058240797370672226, 0.015530244447290897, -0.030654901638627052, 0.048893868923187256, -0.015326880849897861, 0.06822812557220459, 0.06564315408468246, 0.1170438677072525, -0.02714555896818638, 0.08460627496242523, 0.055755868554115295, 0.048140786588191986, -0.007460444699972868, 0.033793121576309204, -0.029619619250297546, 0.08286862820386887, 0.08372396230697632, 0.015557900071144104, 0.007553791161626577, -0.032482463866472244, 0.12746718525886536, -0.0031070637051016092, 0.050064817070961, 0.030592819675803185, 0.0604582354426384, 0.0382167212665081, -0.011555095203220844, 0.005383982323110104, 0.06579296290874481, 0.07757049798965454, -0.0070377131924033165, 0.12210281938314438, 0.130109503865242, -0.016167674213647842, 0.06976159662008286, 0.12030510604381561, -0.018393326550722122, 0.0287492498755455, 0.05664446949958801, 0.031077170744538307, 0.021015102043747902, 0.12098612636327744, 0.09758587181568146, 0.1087392121553421, 0.060686733573675156, -0.004731141030788422, 0.048824336379766464, -0.03343156352639198, 0.07054909318685532, -0.023308470845222473, 0.0073170228861272335, 0.10061092674732208, -0.01091850083321333, 0.0988607108592987, 0.004432666581124067, -0.03338371589779854, 0.11966060101985931, 0.131144717335701, 0.09364788234233856, 0.04915468394756317, 0.013025716878473759, 0.03321600332856178, 0.08621612191200256, 0.08848026394844055, 0.035878777503967285, 0.04360532388091087, 0.053988076746463776, 0.0406816229224205, 0.017502181231975555, -0.031122999265789986, 0.06071773171424866, 0.1265099197626114, 0.11526640504598618, 0.008102256804704666, 0.1174309179186821, 0.11759230494499207, 0.013477379456162453, 0.12829838693141937, 0.09486746788024902, 0.11254611611366272, -0.018867574632167816, 0.04076681286096573, -0.005785311572253704, 0.005716545972973108, 0.007362628821283579, 0.09449230879545212, 0.12344422191381454, -0.012507889419794083, 0.08828692138195038, 0.0859023779630661, -0.025566907599568367, 0.07009929418563843, 0.0745907574892044, 0.08118490129709244, 0.019830968230962753, -0.02005758322775364, 0.026095157489180565, -0.022927377372980118, -0.03377756103873253, -0.02813630923628807, 0.03119170106947422, 0.043258462101221085, -0.02544425055384636, -0.008661980740725994, 0.013032552786171436, 0.039084337651729584, 0.10195472091436386, 0.057304106652736664, 0.025749744847416878, 0.13094653189182281, 0.11876124143600464, 0.0720004141330719, 0.013725430704653263, 0.023129943758249283, -0.0037974484730511904, 0.04299253225326538, 0.005542891565710306, 0.060433220118284225, 0.08044930547475815, 0.10001450031995773, 0.011564357206225395, 0.12396830320358276, 0.13429352641105652, 0.1295626312494278, -0.021444881334900856, 0.10531558096408844, 0.003214069176465273, 0.10084441304206848, 0.1123281866312027, 0.11969466507434845, 0.047493137419223785, 0.11752235144376755, 0.13124093413352966, 0.05315690115094185, 0.1353870928287506, 0.0996662825345993, 0.02739156223833561, 0.04225274547934532, 0.008058442734181881, 0.08531934022903442, -0.026933811604976654, 0.11331520229578018, 0.009820431470870972, 0.1221046894788742, 0.03472709283232689, 0.010072481818497181, 0.04985428974032402, 0.08156060427427292, 0.10578425228595734, -0.02581438235938549, 0.10518307983875275, -0.02317173220217228, 0.12318502366542816, 0.06142117828130722, 0.11435670405626297, 0.061247069388628006, 0.04426734521985054, 0.055605243891477585, -0.03307761996984482, -0.032828401774168015, 0.04749907925724983, -0.03414902463555336, 0.12115155905485153, -0.012185124680399895, 0.0555499829351902, 0.09402037411928177, 0.030243664979934692, -0.012886140495538712, 0.07791295647621155, 0.028399484232068062, 0.040059249848127365, 0.0226471945643425, 0.03808761388063431, 0.09805496037006378, 0.09178575873374939, 0.08990026265382767, 0.08086761087179184, 0.12868279218673706, 0.09789051115512848, 0.03514714911580086, 0.08144249767065048, 0.005585151258856058, -0.029214609414339066, 0.11735796183347702, 0.1086423471570015, -0.014800471253693104, 0.0967438817024231, 0.11736467480659485, 0.00813757162541151, 0.04532277584075928, 0.041692931205034256, -0.0007175018545240164, 0.05103815719485283, 0.030856547877192497, 0.011374155059456825, 0.08962180465459824, -0.03469907119870186, 0.03505696356296539, 0.10994214564561844, 0.10594230145215988, 0.05194969102740288, -0.028008732944726944, 0.050468966364860535, 0.018504343926906586, 0.05942574888467789, 0.0050054448656737804, 0.08235514909029007, -0.0320466011762619, 0.1200300082564354, -0.00247424328699708, 0.1270616054534912, -0.03050215356051922, 0.1019161194562912, 0.1338912397623062, 0.09867366403341293, -0.0008441210957244039, -0.011663679964840412, 0.030623428523540497, -0.024371998384594917, 0.12343775480985641, 0.07676434516906738, -0.025441966950893402, 0.019223688170313835, -0.02936217002570629, 0.08398736268281937, 0.07048829644918442, 0.004035359248518944, 0.07294556498527527, 0.0746934711933136, 0.08923084288835526, 0.05978673696517944, 0.012133793905377388, -0.003067595884203911, -0.004509725607931614, 0.07204107195138931, 0.08408600091934204, 0.06217712163925171, -0.018418332561850548, -0.01125946082174778, 0.10429490357637405, 0.031174462288618088, -0.01401529274880886, 0.0830824077129364, 0.06377861648797989, -0.03418534994125366, 0.036107610911130905, 0.04423203691840172, -0.019202720373868942, -0.025102801620960236, 0.06963974982500076, 0.05054586008191109, 0.04288901016116142, 0.02918359450995922, -0.028417112305760384, 0.018880823627114296, 0.08640532195568085, 0.08907175064086914, 0.09691687673330307, 0.11573343724012375, -0.022262558341026306, -0.011042941361665726, 0.05180179700255394, -0.004441877827048302, 0.07538598775863647, 0.001317459624260664, -0.033086538314819336, -0.01040223240852356, 0.0334034264087677, 0.11082018166780472, -0.027071766555309296, 0.031055498868227005, 0.023349974304437637, 0.04189399629831314, -0.017408249899744987, 0.052319131791591644, 0.08999615162611008, 0.12126491963863373, 0.06729327887296677, 0.1171686127781868, 0.0061709401197731495, 0.04334881901741028, -0.023041989654302597, 0.0006286371499300003, 0.06546425819396973, 0.0521884448826313, 0.08479002118110657, 0.10278521478176117, -0.019656497985124588, 0.10606543719768524, 0.01717771403491497, 0.06751633435487747, 0.017542419955134392, 0.009500227868556976, 0.055295657366514206, 0.025112004950642586, 0.10477292537689209, 0.13239865005016327, 0.0710919126868248, -0.0023261422757059336, -0.003853036556392908, 0.04755466803908348, 0.055384714156389236, 0.069074347615242, 0.02896963432431221, 0.011381982825696468, 0.01834406703710556, -0.03165297955274582, -0.012364539317786694, 0.03176780045032501, 0.05707697197794914, 0.11003213375806808, 0.04355817660689354, -0.03408590331673622, 0.03613574057817459, 0.13380099833011627, 0.09244673699140549, 0.0843568667769432, 0.04026209935545921, 0.12396279722452164, 0.12403284758329391, 0.05579688772559166, -0.028547268360853195, -0.0006796607631258667, 0.029078437015414238, 0.010610261932015419, 0.017927180975675583, 0.02487098053097725, 0.05304255336523056, 0.07470677047967911, 0.07549414783716202, -0.011007552035152912, 0.07370258122682571, -0.01932699978351593, 0.10140953958034515, 0.005059579852968454, 0.07518330216407776, -0.028468232601881027, 0.06267806142568588, 0.04285607859492302, 0.07496248930692673, -0.00600118562579155, 0.02769424207508564, 0.06448020786046982, 0.12894079089164734, -0.016766423359513283, 0.11732909828424454, -0.023527219891548157, 0.0702185407280922, -0.008476602844893932, 0.11703125387430191, 0.09054788947105408, 0.08499911427497864, 0.047147251665592194, 0.006169571075588465, -0.002517137909308076, 0.030232468619942665, 0.09091813117265701, -0.015814298763871193, 0.05958976224064827, 0.09088657796382904, 0.12404249608516693, 0.014268243685364723, 0.02568913996219635, -0.025970766320824623, 0.1093520000576973, 0.11772779375314713, 0.03871312364935875, 0.0969957634806633, 0.12475990504026413, 0.11559968441724777, 0.04963967949151993, 0.11030108481645584, 0.08228594064712524, 0.026335053145885468, 0.07379598170518875, 0.0003167775284964591, 0.010166715830564499, -0.018047470599412918, 0.030625414103269577, 0.07375967502593994, 0.12262853980064392, 0.1067844033241272, 0.03289400786161423, 0.08094844222068787, 0.071889728307724, 0.024157527834177017, 0.01083945482969284, 0.11160841584205627, 0.11740683764219284, -0.022171737626194954, 0.0302876066416502, -0.032425303012132645, 0.12952563166618347, 0.09321437776088715, 0.06365197896957397, 0.13480132818222046, 0.1322544813156128, 0.006454103626310825, -0.0228304211050272, 0.007287696003913879, 0.09587233513593674, 0.10490258038043976, 0.1313914805650711, -0.009030788205564022, 0.026844855397939682, -0.013022249564528465, 0.09486337751150131, -0.021123947575688362, 0.03069649636745453, 0.02489306591451168, 0.12155434489250183, 0.03998497128486633, 0.11384907364845276, 0.05859353020787239, 0.04494950920343399, 0.015285919420421124, 0.1279769390821457, 0.024353163316845894, -0.0015273205935955048, -0.010695106349885464, 0.06486860662698746, 0.042101092636585236, 0.08913309127092361, -0.01566120609641075, 0.016256656497716904, 0.011499430984258652, 0.011020516976714134, -0.008361571468412876, 0.06650572270154953, 0.054030124098062515, -0.02310931868851185, 0.04867645725607872, 0.018067939206957817, 0.13202311098575592, 0.01685529761016369, 0.03981804475188255, -0.0037883473560214043, 0.03299255296587944, -0.031556498259305954, -0.032300468534231186, 0.05123995617032051, 0.03427257761359215, 0.028388407081365585, 0.005877288058400154, 0.015152040868997574, -0.01007651537656784, 0.11453188955783844, 0.08320915699005127, 0.0074780769646167755, 0.10774189978837967, -0.02471189573407173, -0.019644789397716522, 0.13342465460300446, 0.11143133789300919, 0.11400240659713745, -0.014344052411615849, 0.10912594944238663, 0.019822198897600174, 0.02870466373860836, 0.0788813903927803, 0.0611124150454998, 0.07942771166563034, 0.042185742408037186, 0.13300615549087524, 0.1053917184472084, 0.1030379980802536, 0.0020240345038473606, 0.12078405916690826, -0.03294854238629341, 0.005102841183543205, 0.11339843273162842, 0.012795966118574142, 0.043295491486787796, -0.02595086209475994, -0.032749924808740616, -0.0226675383746624, 0.017854245379567146, 0.034375108778476715, 0.12430441379547119, -0.020613545551896095, -0.01593576744198799, -0.033091865479946136, 0.11940392106771469, 0.06172516569495201, 0.047968629747629166, 0.025451254099607468, 0.056950196623802185, 0.12296175211668015, 0.07528896629810333, 0.08801177889108658, 0.08439145982265472, 0.07026434689760208, 0.052118320018053055, 0.04947900399565697, 0.09447047114372253, 0.09013229608535767, -0.020041901618242264, 0.105087049305439, 0.06677248328924179, 0.08338038623332977, 0.13111582398414612, 0.10938676446676254, 0.07673559337854385, 0.11634714901447296, 0.028849942609667778, 0.08067995309829712, 0.037794165313243866, 0.0834837257862091, 0.06636402010917664, 0.12434333562850952, 0.12959718704223633, 0.06530684232711792, 0.03699885308742523, 0.045299071818590164, 0.11136328428983688, -0.014305389486253262, 0.05162826552987099, 0.12901873886585236, 0.09157605469226837, -0.03162079676985741, 0.12838196754455566, 0.09610486775636673, 0.08934415131807327, 0.05831242725253105, -0.03156760334968567, 0.0486367866396904, 0.11230221390724182, -0.017601050436496735, -0.002753587905317545, 0.028137601912021637, 0.024864409118890762, 0.10035290569067001, 0.06698212027549744, 0.08513934910297394, 0.035761892795562744, -0.013245212845504284, 0.10845088213682175, 0.018942080438137054, 0.05971794202923775, -0.01982910931110382, 0.020381160080432892, -0.007455374579876661, 0.09601777046918869, 0.13239212334156036, -0.025079898536205292, 0.04068312421441078, 0.03256593644618988, 0.09820739924907684, -0.020965123549103737, 0.03796869143843651, 0.06455809623003006, 0.02393747679889202, 0.07518699020147324, -0.009809554554522038, 0.05567695572972298, 0.0749659538269043, 0.12308408319950104, 0.06600910425186157, 0.12541379034519196, 0.10685069859027863, 0.11369553208351135, 0.07848227024078369, 0.13200397789478302, 0.011453366838395596, 0.1067129373550415, 0.048776205629110336, 0.03565720096230507, 0.01092692743986845, 0.0866103544831276, 0.06739813089370728, 0.11745793372392654, -0.021702557802200317, 0.02689223550260067, 0.007311331573873758, 0.12171927839517593, 0.13129495084285736, 0.028141707181930542, 0.032527193427085876, 0.03682422637939453, 0.0017006000271067023, 0.09861233085393906, 0.0992540791630745, 0.05282879248261452, -0.03360513597726822, 0.08421330153942108, 0.07089251279830933, 0.04932170733809471, 0.0066399890929460526, 0.006247357465326786, -0.01141118910163641, 0.1116652861237526, 0.03336191549897194, -0.021234555169939995, 0.012321753427386284, -0.026299986988306046, 0.10706960409879684, 0.02482796460390091, 0.12179744988679886], [0.05157310143113136, -0.045274943113327026, -0.10064021497964859, 0.048224642872810364, -0.0774998888373375, -0.04507192596793175, 0.007586147170513868, -0.11370683461427689, 0.04254675284028053, 0.01768944412469864, 0.0200240146368742, -0.03480582311749458, -0.10962856560945511, -0.027323681861162186, -0.04151780530810356, -0.06036200746893883, 0.01921425573527813, -0.10585831105709076, -0.001154390163719654, 0.002016834681853652, 0.053775474429130554, -0.004860728047788143, 0.021251190453767776, -0.03347436711192131, -0.016312966123223305, 0.0035070739686489105, -0.074508436024189, 0.0392414815723896, 0.05383029580116272, -0.028455959632992744, -0.07103386521339417, -0.0739208310842514, -0.0547892190515995, 0.0017622775631025434, 0.034712109714746475, 0.030763598158955574, -0.09209506958723068, -0.09905573725700378, -0.07466086745262146, -0.0034917835146188736, -0.03534572944045067, -0.048524193465709686, -0.1043282151222229, -0.0774533748626709, -0.09022548049688339, -0.07536672800779343, -0.04792972654104233, 0.024173172190785408, 0.021212100982666016, -0.010640520602464676, -0.04786321520805359, -0.01326229702681303, -0.08839677274227142, -0.057477593421936035, -0.036752767860889435, -0.017448684200644493, 0.0009569846442900598, -0.011335275135934353, -0.07058081775903702, 0.00702435290440917, -0.08249781280755997, -0.024842120707035065, -0.11364734172821045, -0.09731486439704895, -0.10742305964231491, 0.04280220344662666, -0.10166766494512558, -0.0298259649425745, 0.007965671829879284, -0.10739155113697052, -0.03809388726949692, -0.022860979661345482, -0.05470135435461998, -0.08022203296422958, 0.009775041602551937, -0.10890834033489227, -0.09092918783426285, -0.06243737041950226, -0.021030748263001442, 0.04615766927599907, 0.04676000028848648, 0.0069570462219417095, 0.028862476348876953, -0.10194103419780731, -0.1045335903763771, -0.04165913909673691, -0.04805001616477966, -0.030474167317152023, -0.11065835505723953, 0.044941119849681854, -0.023119717836380005, -0.023782627657055855, -0.0711936205625534, -0.03251039236783981, 0.019186848774552345, 0.007368230726569891, -0.040268514305353165, -0.07541782408952713, -0.10068530589342117, 0.03573966026306152, 0.0011854202020913363, -0.004895171616226435, -0.0886169970035553, 0.033552274107933044, 0.03628524765372276, -0.08736852556467056, -0.09029700607061386, -0.047680146992206573, 0.04483611509203911, -0.08325055241584778, -0.019889092072844505, 0.05178024247288704, 0.0015848038019612432, -0.07899480313062668, 0.0258519034832716, -0.09679052978754044, -0.11264561116695404, -0.03530770540237427, 0.0513509064912796, -0.01785665564239025, -0.110501728951931, -0.013696777634322643, -0.05800756439566612, 0.006816979497671127, 0.0245386753231287, -0.1095714420080185, -0.08504035323858261, -0.012973533011972904, -0.06944204121828079, -0.05485926941037178, -0.08887014538049698, -0.027561694383621216, -0.010346006602048874, -0.07777873426675797, -0.07390133291482925, 0.007915361784398556, -0.09813892096281052, -0.09439558535814285, -0.07377799600362778, -0.05289698764681816, -0.018080320209264755, 0.018884524703025818, -0.09778783470392227, -0.11422815918922424, -0.02859444171190262, 0.04454294964671135, -0.026434578001499176, -0.039047643542289734, -0.005126489792019129, -0.10239101946353912, -0.017979182302951813, 0.01163126528263092, -0.05913059413433075, -0.10847243666648865, -0.036622144281864166, -0.09713690727949142, -0.03465219587087631, -0.04433191940188408, -0.0006318259402178228, 0.04037626460194588, -0.009049847722053528, -0.09171681851148605, 0.04050442948937416, -0.0036747376434504986, -0.08155389875173569, 0.0532732754945755, -0.11499280482530594, -0.026929523795843124, 0.040031660348176956, 0.036774441599845886, -0.112492136657238, -0.039816614240407944, -0.08215217292308807, -0.04894424229860306, -0.04495929181575775, 0.05355673283338547, -0.048040103167295456, -0.0030463312286883593, -0.015188516117632389, 0.04042987525463104, -0.0948551595211029, -0.0824684426188469, -0.05080394446849823, 0.021528521552681923, -0.06544828414916992, -0.00613443972542882, -0.04646635055541992, 0.02176695503294468, -0.0043409098871052265, -0.09758105874061584, 0.0275323074311018, 0.0224872138351202, -0.05710449069738388, -0.09475739300251007, -0.02765198051929474, -0.09289111942052841, -0.00878884270787239, -0.024571029469370842, -0.09013114124536514, -0.0030285692773759365, -0.0978652760386467, -0.03784165531396866, -0.051907580345869064, -0.08405624330043793, -0.03528687730431557, -0.014269962906837463, -0.015677377581596375, 0.05117626115679741, 0.009158637374639511, -0.01294796448200941, -0.09074509888887405, -0.07932965457439423, -0.04922810569405556, 0.005392483435571194, -0.11110015213489532, -0.014220891520380974, 0.04392070695757866, -0.10996156930923462, 0.0533294603228569, -0.08765748143196106, -0.03416988253593445, -0.07986916601657867, -0.008791015483438969, -0.026774605736136436, -0.010660084895789623, 0.039444953203201294, 0.0007899790070950985, -0.04655011370778084, 0.012946788221597672, -0.1000848188996315, -0.024674858897924423, 0.006715976167470217, 0.04788443073630333, -0.06842447817325592, -0.041304122656583786, -0.09893045574426651, -0.08089926838874817, -0.11303996294736862, 0.04129698500037193, -0.08346792310476303, -0.05544842407107353, -0.018879786133766174, -0.06500276923179626, -0.10215574502944946, 0.0034598722122609615, -0.049404364079236984, -0.04307694733142853, 0.004728797357529402, -0.04261566698551178, 0.04375038295984268, -1.2674794561462477e-05, -0.03797060623764992, 0.008556526154279709, -0.03779146820306778, 0.0452018640935421, -0.0018000364070758224, -0.1149512305855751, -0.04947857931256294, 0.021456429734826088, -0.016620855778455734, 0.033918581902980804, 0.03748789057135582, 0.01328320149332285, -0.06319918483495712, -0.07214181125164032, 0.03209040313959122, -0.07979084551334381, 0.043075136840343475, -0.027854612097144127, 0.02167913317680359, 0.006360919214785099, -0.030168186873197556, 0.043659012764692307, -0.016429666429758072, -0.008473491296172142, -0.046972233802080154, 0.028787199407815933, -0.04787759110331535, -0.08907253295183182, -0.10949321836233139, -0.04216398671269417, 0.03990031033754349, -0.06662093847990036, -0.05184190720319748, -0.05411170423030853, -0.09037434309720993, 0.00888664647936821, -0.036222659051418304, 0.004118629731237888, 0.022580932825803757, -0.04456258565187454, -0.0714154839515686, 0.033300161361694336, -0.08698747307062149, 0.027126071974635124, 0.04647103697061539, 0.03556756302714348, 0.015955407172441483, -0.07339171320199966, -0.019691094756126404, 0.03542149066925049, -0.06185523793101311, -0.07819896936416626, -0.026100197806954384, 0.05189491808414459, 0.0368068628013134, 0.03166472911834717, 0.052251726388931274, 0.045069970190525055, -0.08461274206638336, 0.04325477406382561, -0.03682911396026611, -0.09099110960960388, 0.04455512389540672, -0.07245548814535141, -0.006037991028279066, -0.09537285566329956, -0.08837828040122986, -0.08943954855203629, -0.09542147070169449, -0.08894442021846771, -0.043014008551836014, -0.017408058047294617, -0.07790742814540863, 0.0142860421910882, -0.11052757501602173, -0.055992212146520615, 0.019234437495470047, -0.006627586670219898, -0.08902540057897568, 0.02289421856403351, 0.044942792505025864, -0.07007569819688797, -0.07439501583576202, -0.023980921134352684, -0.09382475167512894, -0.015156169421970844, 0.014548519626259804, -0.023773953318595886, 0.0034394804388284683, -0.00017046520952135324, -0.0374317429959774, -0.030489016324281693, 0.05603119358420372, -0.02131626009941101, 0.054109126329422, -0.10518966615200043, 0.03301586955785751, -0.07084880769252777, 0.05148407444357872, 0.00632336875423789, -0.07243628799915314, -0.07245870679616928, -0.10437087714672089, 0.033872462809085846, -0.10096513479948044, -0.09816323220729828, -0.002136305207386613, -0.024147402495145798, -0.046702418476343155, -0.03914244472980499, 0.04841110110282898, -0.013147909194231033, 0.024877624586224556, -0.04816123843193054, 0.03219223767518997, 0.029471896588802338, -0.014066317118704319, -0.022983849048614502, 0.051964111626148224, -0.06376034021377563, 0.013743467628955841, -0.11518964916467667, -0.012835349887609482, 0.015267068520188332, 0.030344752594828606, -0.06786928325891495, -0.03372149169445038, -0.08148147910833359, 0.03731107711791992, -0.07362700253725052, 0.051422253251075745, 0.04108848050236702, 0.037570152431726456, -0.05397598072886467, -0.10856348276138306, -0.06377716362476349, -0.008952386677265167, 0.01851699873805046, -0.03519520163536072, -0.09049860388040543, -0.07329962402582169, -0.03360779210925102, 0.0444340743124485, -0.08290847390890121, -0.1048867329955101, -0.0785660594701767, -0.003875118214637041, -0.08570223301649094, -0.026876838877797127, 0.001781465020030737, 0.028799504041671753, -0.053665898740291595, 0.05064810439944267, -0.05566241964697838, -0.024929305538535118, 0.024408068507909775, -0.03738987818360329, -0.06234489381313324, -0.06946586817502975, -0.06978469341993332, 0.03259344771504402, 0.006078990641981363, -0.06521210819482803, -0.09092885255813599, -0.11146503686904907, 0.02753590978682041, -0.06396525353193283, 0.010929425247013569, -0.10438470542430878, 0.016443386673927307, -0.03265969827771187, 0.008568239398300648, -0.04269140213727951, -0.0860973373055458, -0.06657629460096359, -0.00930444709956646, 0.04188922420144081, -0.04196733236312866, -0.08712182193994522, 0.03967103734612465, -0.02873063087463379, -0.11337532848119736, -0.10371802747249603, 0.03646233677864075, -0.038371022790670395, -0.01741923950612545, -0.03931023180484772, 0.0337928868830204, -0.07093291729688644, -0.020841281861066818, 0.054136477410793304, -0.08268328756093979, 0.03888808563351631, -0.024646325036883354, 0.05132002755999565, -0.099176324903965, -0.008851093240082264, -0.03577224910259247, -0.05326235666871071, -0.06944046914577484, 0.0496944896876812, -0.011416129767894745, 0.017800770699977875, -0.050140805542469025, -0.06642232835292816, -0.03255926072597504, -0.0302558783441782, -0.05392904952168465, -0.04317385330796242, -0.02245442382991314, -0.05645156279206276, -0.1092294231057167, 0.05580822750926018, -0.09096900373697281, -0.033400800079107285, -0.0481003075838089, 0.04165162518620491, -0.06272813677787781, 0.03967496007680893, 0.0026065988931804895, 0.022926878184080124, -0.00031418114667758346, -0.04941244423389435, -0.10009977221488953, -0.038991138339042664, -0.06262266635894775, -0.04720349609851837, -0.09614703059196472, -0.08200375735759735, 0.01574314571917057, -0.07263476401567459, -0.08836327493190765, 0.05386264622211456, -0.07648248970508575, -0.08861416578292847, -0.057553667575120926, -0.034063488245010376, -0.06960586458444595, -0.01897837221622467, -0.04480556771159172, -0.02157834731042385, -0.000771158782299608, 0.00637122942134738, -0.056468527764081955, -0.04388018324971199, -0.05128052830696106, 0.053665321320295334, -0.04973394051194191, -0.040230538696050644, -0.024902882054448128, -0.11015035212039948, -0.00041035289177671075, 0.050127893686294556, -0.03240405023097992, -0.07451876997947693, -0.016763947904109955, 0.038735270500183105, 0.05573523789644241, -0.061308860778808594, -0.11380574852228165, 0.005718881264328957, -0.05688823387026787, -0.013252676464617252, -0.03601044788956642, -0.02685147523880005, 0.05643048509955406, 0.0004695343959610909, 0.03155882656574249, 0.04563417285680771, -0.033489890396595, -0.05111972987651825, -0.05764029920101166, 0.007292028982192278, 0.013231577351689339, -0.029842453077435493, -0.011684554629027843, -0.09962815791368484, 0.02970297820866108, -0.0530739463865757, 0.042792223393917084, -0.0018730153096839786, -0.07077904790639877, -0.005176838953047991, -0.03224075213074684, 0.051594723016023636, -0.012039432302117348, -0.019192658364772797, 0.04768894985318184, -0.07112769782543182, -0.0215116236358881, -0.05542239919304848, -0.10295986384153366, 0.020962851122021675, -0.10440454632043839, -0.03652903065085411, -0.06702275574207306, -0.013560711406171322, -0.07517756521701813, 0.041570451110601425, -0.0480075366795063, -0.019882336258888245, 0.051215894520282745, -0.0008363208035007119, 0.0193646103143692, -0.05677935481071472, -0.09294166415929794, -0.11453994363546371, -0.041369639337062836, -0.10832621157169342, -0.018920112401247025, 0.013038205914199352, -0.08542963117361069, -0.0071336086839437485, -0.01920207589864731, -0.014876815490424633, -0.10115807503461838, -0.07215743511915207, -0.05608374625444412, -0.024244774132966995, -0.024344870820641518, 0.04728721082210541, 0.01020478643476963, 0.0030232418794184923, 0.0066057839430868626, -0.06006309762597084, -0.044525641947984695, 0.02605634368956089, -0.096879743039608, -0.018270105123519897, -0.10641145706176758, -0.08189039677381516, -0.09472944587469101, 0.024596169590950012, -0.054502882063388824, -0.10873722285032272, -0.00282881036400795, -0.06229639798402786, -0.036762677133083344, -0.05287852883338928, 0.05119406431913376, -0.11014003306627274, 0.024993691593408585, -0.04116969183087349, -0.08706342428922653, -0.024524137377738953, -0.01904118061065674, 0.016798170283436775, 0.004834895022213459, -0.0926741287112236, 0.0011742428177967668, -0.00566403241828084, -0.03088829480111599, -0.04797716811299324, 0.05506497994065285, -0.09547752141952515, -0.10584643483161926, 0.010246125981211662, 0.024893149733543396, 0.03227017819881439, -0.04231015592813492, 0.0036271256394684315, -0.02447502501308918, -0.07083629071712494, 0.004530499689280987, -0.009717410430312157, -0.010408412665128708, 0.03834540396928787, -0.030087122693657875, -0.10271835327148438, -0.005253599490970373, -0.04369058832526207, 0.001907595549710095, -0.10472094267606735, -0.07256054878234863, 0.03621748834848404, -0.05870155617594719, -0.06799005717039108, -0.07728632539510727, -0.07963960617780685, 0.032341305166482925, -0.09221947193145752, 0.0424349345266819, -0.04155954346060753, 0.04552282765507698, 0.010648876428604126, -0.024706730619072914, 0.04448874294757843, 0.006726003717631102, -0.035510580986738205, -0.05506328493356705, -0.05514257401227951, -0.04851968213915825, -0.03769785910844803, -0.01613003760576248, 0.0008856126223690808, 0.05176371708512306, -0.10510627925395966, -0.04983603581786156, 0.009609878994524479, -0.0374593660235405, 0.05370312184095383, -0.03610972315073013, -0.02119019255042076, -0.06560532003641129, 0.04122694581747055, -0.08657220751047134, -0.07301036268472672, -0.097631074488163, -0.11456170678138733, 0.02347271330654621, -0.05880846455693245, -0.08607914298772812, -0.04342027008533478, -0.024839146062731743, -0.06756097823381424, -0.020867113023996353, -0.054824065417051315, -0.03473666310310364, -0.10204591602087021, 0.022265275940299034, -0.07280797511339188, -0.0835125669836998, -0.10924270749092102, 0.029855510219931602, 0.024516968056559563, 0.030874399468302727, -0.0326499305665493, -0.028407439589500427, 0.023226136341691017, -0.08232682943344116, 0.04499627277255058, 0.04120223596692085, -0.07966838032007217, -0.03647690266370773, 0.02190253883600235, 0.008499881252646446, 0.007239494938403368, -0.004220327828079462, -0.016445763409137726, -0.0873393565416336, 0.017136989161372185, 0.026880964636802673, -0.03637280315160751, -0.09363894164562225, -0.05280161276459694, -0.09853336960077286, -0.030931442975997925, -0.03415050730109215, 0.002210796345025301, -0.10374429076910019, 0.049155864864587784, -0.05016902834177017, -0.0642525926232338, -0.11165809631347656, 0.020184500142931938, -0.09867449104785919, -0.062200162559747696, -0.015289794653654099, -0.00911001581698656, -0.06193268299102783, 0.012539801187813282, -0.06627292186021805, -0.0062043145298957825, 0.038250166922807693, -0.07096287608146667, -0.08312148600816727, 0.00954365637153387, 0.021684693172574043, -0.09127557277679443, -0.005327638238668442, 0.02663148008286953, -0.042828064411878586, -0.016526032239198685, -0.07930599898099899, -0.05300617963075638, 0.012031379155814648, 0.04726342484354973, -0.008875840343534946, -0.06881985813379288, -0.021401232108473778, -0.1088867262005806, -0.09887358546257019, 0.01458137109875679, -0.05121021717786789, 0.03960346803069115, 0.03359292447566986, 0.03603227436542511, 0.04147174581885338, 0.03177562355995178, -0.09613010287284851, -0.009885357692837715, -0.03319878131151199, -0.04624062031507492, 0.04341500625014305, -0.11284922808408737, 0.0076742758974432945, -0.11329207569360733, 0.05452188476920128, 0.052849408239126205, 0.002382769947871566, -0.07608605921268463, -0.017470164224505424, -0.0469890795648098, 0.05053587257862091, -0.10875634104013443, -0.06152072921395302, -0.007869117893278599, -0.09074171632528305, -0.0833982601761818, 0.012895121239125729, -0.08986980468034744, 0.0537533313035965, -0.11324427276849747, -0.022986790165305138, -0.06835801899433136, 0.0031274117063730955, -0.07998114824295044, -0.0826646164059639, -0.04204442724585533, 0.04741396754980087, -0.011212743818759918, 0.013107073493301868, 0.009438498876988888, 0.018163351342082024, -0.05452202633023262, 0.0009975644061341882, -0.011498226784169674, -0.04000336676836014, 0.03831237554550171, 0.02703959308564663, -0.10486095398664474, -0.10908330231904984, -0.0541917122900486], [0.014755163341760635, 0.05837249010801315, 0.05048537254333496, -0.001302042743191123, 0.07928135991096497, 0.05548124015331268, 0.07508581876754761, 0.04327550157904625, -0.007494829595088959, 0.034941159188747406, -0.014748666435480118, 0.08160966634750366, 0.008366955444216728, -0.01574396900832653, 0.1003134623169899, 0.10813535749912262, -0.031693268567323685, 0.04201254993677139, 0.0017944748979061842, 0.05181671306490898, 0.04984036087989807, -0.015175349079072475, 0.08114289492368698, 0.055013496428728104, 0.0061263213865458965, 0.08138356357812881, -0.03116336092352867, -0.04870670661330223, 0.00845274981111288, -0.015347447246313095, 0.07586801052093506, 0.0968388170003891, 0.05213547870516777, 0.04941731318831444, 0.0002916713710874319, -0.013165364041924477, -0.04319663345813751, 0.028721855953335762, 0.020569445565342903, 0.03667546436190605, 0.08175840973854065, -0.050669629126787186, -0.009098771959543228, -0.01200049463659525, 0.07837019860744476, 0.07355136424303055, 0.08533468842506409, 0.04139704629778862, 0.09084495902061462, -0.05128913372755051, 0.06322522461414337, -0.025541741400957108, 0.014645673334598541, 0.05724571645259857, 0.10336310416460037, 0.09732462465763092, 0.04265419766306877, -0.0019864861387759447, 0.03918087109923363, -0.013447847217321396, 0.08100651949644089, 0.01645367220044136, -0.0512920506298542, 0.002644882770255208, 0.022974804043769836, 0.03260936588048935, 0.0026726548094302416, 0.08129844069480896, 0.11443653702735901, 0.004212704487144947, 0.08290042728185654, 0.08188874274492264, 0.06713580340147018, 0.11897800862789154, 0.1031695157289505, 0.08819986879825592, 0.1002810150384903, 0.03984762728214264, 0.08799990266561508, 0.09269516915082932, -0.012750334106385708, 0.07522587478160858, -0.03348924219608307, 0.10043814033269882, 0.002169458894059062, 0.004013889469206333, 0.026044689118862152, -0.03079424612224102, 0.08466657996177673, 0.01816476322710514, 0.0953407883644104, 0.04897765442728996, 0.036899957805871964, 0.03867821767926216, 0.09927139431238174, -0.011651108041405678, 0.11450090259313583, 0.0925569087266922, 0.0345471017062664, -0.037189286202192307, -0.005318373441696167, 0.04873330891132355, 0.0514744371175766, 0.014863664284348488, -0.035542991012334824, 0.11338172107934952, -0.007257143966853619, 0.08651397377252579, 0.009093194268643856, 0.11176139861345291, 0.07350826263427734, -0.024775566533207893, 0.09474143385887146, -0.05137467756867409, 0.03291964530944824, 0.11247937381267548, 0.06340502947568893, 0.09557996690273285, -0.009001285769045353, -0.04469064623117447, 0.06898320466279984, 0.10560286045074463, -0.0292187687009573, 0.1192619651556015, 0.036649949848651886, -0.022100942209362984, 0.08933977782726288, 0.01601341739296913, -0.02435511164367199, 0.10340649634599686, 0.031705114990472794, 0.03622234985232353, 0.03384636715054512, 0.027317175641655922, 0.02852044813334942, 0.08110872656106949, 0.004152300301939249, -0.05011885240674019, -0.043266210705041885, -0.0016779617872089148, 0.06223241984844208, 0.012583595700562, 0.06044752895832062, 0.09822497516870499, -0.03444736450910568, -0.003663178300485015, 0.030303239822387695, -0.050275664776563644, -0.00955369882285595, 0.11437612026929855, 0.02683354914188385, 0.025355668738484383, 0.02228550799190998, 0.08742493391036987, -0.01963408663868904, 0.09765204042196274, 0.04816054925322533, -0.021037044003605843, -0.04823565110564232, 0.02895401045680046, -0.04302326962351799, -0.007601270917803049, 0.0662965178489685, -0.0232529453933239, 0.020858632400631905, -0.01572723314166069, -0.025367558002471924, 0.027591392397880554, 0.0003631375730037689, 0.06783956289291382, 0.028461316600441933, 0.060460254549980164, -0.0177487600594759, 0.03021978586912155, 0.0448087677359581, 0.10490977764129639, 0.09264249354600906, -0.032783232629299164, 0.03148980066180229, 0.05157829821109772, 0.02890019677579403, 0.03265528380870819, 0.11784307658672333, 0.07147874683141708, 0.0180968064814806, 0.058808255940675735, 0.050334081053733826, 0.017803680151700974, 0.035593431442976, 0.0909443199634552, -0.037654947489500046, 0.030532607808709145, 0.008395382203161716, -0.01451166532933712, 0.11674658209085464, 0.04502016305923462, 0.11260045319795609, 0.07878285646438599, 0.11605662852525711, -0.00802144780755043, 0.08668305724859238, 0.0390419065952301, 0.098234623670578, 0.098865807056427, -0.004145595710724592, -0.04886447638273239, 0.06198372691869736, 0.039332084357738495, 0.07708276808261871, 0.11514492332935333, 0.08307653665542603, 0.0891517922282219, 0.11170340329408646, 0.08479830622673035, 0.0629434883594513, 0.07966595143079758, 0.06526997685432434, -0.03732273355126381, 0.02805752120912075, -0.028255946934223175, 0.05723441392183304, 0.030400807037949562, 0.026684140786528587, 0.06034710630774498, 0.08669491112232208, 0.07123114168643951, 0.10445690900087357, -0.015835899859666824, 0.0237558763474226, -0.0466325618326664, -0.010014951229095459, 0.07371991127729416, 0.03842462971806526, 0.04486503824591637, 0.10822468250989914, 0.012155735865235329, 0.028329141438007355, 0.08394859731197357, 0.11724071949720383, 0.03390710428357124, 0.04188574105501175, 0.012774867936968803, 0.10078073292970657, 0.009517267346382141, -0.030333369970321655, -0.00671527162194252, 0.10914481431245804, 0.058975767344236374, 0.044911548495292664, 0.09850886464118958, 0.020887965336441994, 0.048283837735652924, 0.04766317084431648, 0.0002714362635742873, -0.04068847373127937, -0.024911774322390556, 0.11271791160106659, -0.04043762758374214, 0.008272145874798298, 0.09959755092859268, 0.1161922812461853, 0.03548673912882805, 0.09922244399785995, 0.075117327272892, -0.04202840477228165, -0.009160971269011497, -0.05063370242714882, 0.10319037735462189, -0.03503141179680824, 0.11995778232812881, 0.12028235197067261, 0.06796014308929443, 0.06363765150308609, 0.03577199950814247, 0.07015832513570786, 0.033336326479911804, 0.07597838342189789, 0.11834750324487686, 0.0992363914847374, 0.09372709691524506, 0.11351543664932251, -0.011574617587029934, 0.07087308913469315, -0.0322338230907917, 0.04245100915431976, 0.02270955592393875, 0.015811553224921227, 0.08305398374795914, 0.022559402510523796, 0.01585536263883114, 0.00036194335552863777, 0.09666629880666733, 0.020455550402402878, 0.0466916598379612, 0.08018777519464493, 0.012589978985488415, 0.013380767777562141, 0.0794280469417572, 0.0526459775865078, 0.013347022235393524, -0.014514617621898651, 0.004428766202181578, -0.03625601902604103, 0.05178658664226532, 0.01767648383975029, -0.027492329478263855, 0.0836259052157402, 0.08222538232803345, 0.009137754328548908, -0.03222126141190529, 0.10209248214960098, 0.11245130747556686, 0.0507785938680172, 0.06471987068653107, 0.013696793466806412, -0.010340959765017033, 0.0439642034471035, 0.06686262786388397, 0.015281535685062408, -0.00023907024296931922, -0.008432202972471714, -0.005101060029119253, 0.026250526309013367, 0.03528687730431557, 0.0003282774705439806, -0.021482650190591812, 0.06144842877984047, -0.033797554671764374, -0.015988847240805626, 0.0006326366565190256, -0.05051197111606598, 0.11435770243406296, 0.10757818818092346, 0.04017221927642822, -0.019816914573311806, 0.06070084124803543, 0.08508247882127762, 0.08652964979410172, 0.03653751686215401, 0.05451720207929611, 0.10843760520219803, 0.106533944606781, 0.030984215438365936, 0.095883809030056, 0.11893585324287415, 0.015563152730464935, -0.010938010178506374, 0.08949708193540573, -0.03677532449364662, 0.05501997470855713, 0.07550113648176193, 0.04300066828727722, 0.10018932074308395, 0.0004280616994947195, -0.030078575015068054, 0.11469679325819016, 0.05175191909074783, 0.11428014189004898, 0.0995054692029953, -0.010759968310594559, 0.07454094290733337, -0.02019249089062214, 0.032941773533821106, 0.06883375346660614, 0.043979462236166, 0.07221712172031403, 0.08459492027759552, 0.08137665688991547, 0.1055990681052208, 0.06300147622823715, 0.00797299761325121, 0.026845959946513176, 0.014958454295992851, 0.09400267153978348, 0.02278762497007847, 0.0017599558923393488, 0.07097978889942169, 0.0545709952712059, 0.0768769234418869, 0.09116745740175247, 0.11579073965549469, -0.025369204580783844, 0.02679780311882496, 0.038527701050043106, -0.014404521323740482, 0.07412110269069672, -0.026834843680262566, 0.11018611490726471, 0.09981337189674377, -0.0017794909654185176, -0.009862832725048065, 0.07921010255813599, 0.01733487844467163, 0.06281952559947968, 0.05958972126245499, -0.007074860390275717, -0.006464109756052494, 0.055823370814323425, -0.012740127742290497, 0.06597123295068741, -0.02685980126261711, 0.03026908077299595, 0.08387208729982376, 0.006595798768103123, 0.00770404189825058, 0.04965698719024658, 0.029074914753437042, 0.07468212395906448, -0.018653864040970802, 0.10113667696714401, 0.0005579226999543607, 0.018518615514039993, 0.0809403508901596, 0.05789914354681969, 0.04757992923259735, -0.018614819273352623, -0.02936653606593609, 0.08494401723146439, -0.014020138420164585, 0.0011126665631309152, 0.09575052559375763, 0.049583230167627335, 0.027553409337997437, -0.051032502204179764, 0.08198443800210953, -0.006478582043200731, -0.035918958485126495, 0.106591135263443, -0.01570347137749195, -0.04174485057592392, 0.004518237430602312, 0.08269831538200378, -0.005073249340057373, -0.02993576042354107, -0.041328657418489456, 0.11392895132303238, -0.01600472815334797, 0.012425669468939304, -0.002963216742500663, 0.044663455337285995, 0.030610648915171623, -0.02095029130578041, 0.0926656424999237, 0.08782447129487991, 0.08082768321037292, 0.06640029698610306, 0.03643914312124252, 0.03529737517237663, -0.013423318974673748, 0.010285538621246815, 0.0026158099062740803, 0.11012537032365799, -0.0307144857943058, -0.007462167181074619, 0.05118227005004883, 0.03356286510825157, 0.05344511196017265, 0.04111588001251221, -0.01599685661494732, 0.11497846245765686, 0.09387516975402832, 0.04795028641819954, -0.04928560554981232, -0.05000448226928711, 0.03918898105621338, 0.00822577252984047, 0.06004352867603302, 0.03259824961423874, 0.10947791486978531, 0.10925466567277908, 0.0921889990568161, -0.04048207029700279, 0.07938661426305771, 0.07356385886669159, 0.10681789368391037, -0.031271860003471375, 0.10736426711082458, 0.032522279769182205, 0.011506712064146996, -0.014722660183906555, 0.04843838885426521, 0.07506200671195984, 0.06632722914218903, -0.02258170209825039, 0.11958226561546326, 0.058700207620859146, 0.015969008207321167, 0.00897099170833826, -0.04394936189055443, 0.08304551243782043, -0.010365808382630348, -0.03848113864660263, 0.08964107185602188, 0.11326749622821808, 0.1004282534122467, -0.025781836360692978, 0.035508766770362854, 0.014158593490719795, 0.08004719018936157, 0.10015996545553207, 0.0008213642286136746, 0.015628984197974205, 0.09590321034193039, 0.0053491671569645405, 0.06535915285348892, 0.06554396450519562, -0.040611714124679565, 0.04441077634692192, -0.0011055282084271312, 0.0673297643661499, 0.019648632034659386, 0.11627648770809174, -0.036835845559835434, 0.10899510979652405, 0.04687977954745293, -0.011118642054498196, 0.1163252666592598, -0.03234248608350754, -0.014278404414653778, 0.00021080198348499835, -0.03206363320350647, 0.02264564484357834, -0.03048357367515564, 0.03510259836912155, 0.05146326869726181, 0.022443879395723343, 0.006097597070038319, 0.08415360003709793, -0.0032821339555084705, 0.010845102369785309, 0.013243310153484344, 0.01795838586986065, 0.11282286792993546, 0.03453090786933899, 0.10948322713375092, -0.006347781978547573, -0.00430698599666357, 0.06432352215051651, 0.04131937772035599, -0.0441005676984787, 0.035035714507102966, -0.04512469470500946, -0.03875168412923813, 0.07901353389024734, -0.0029657375998795033, 0.09006070345640182, 0.09276467561721802, 0.09474102407693863, 0.05063299089670181, -0.0025266739539802074, -0.027010077610611916, 0.04868679493665695, 0.0671841949224472, -0.03658301383256912, 0.021103093400597572, -0.0033257484901696444, 0.09904517233371735, -0.0482693649828434, 0.11880262196063995, 0.07118959724903107, 0.02658364549279213, -0.024625860154628754, -0.04251088947057724, 0.09301204979419708, 0.10502324253320694, -0.01485181599855423, 0.0006869305507279932, 0.023034995421767235, 0.009627729654312134, 0.019814370200037956, 0.045181754976511, -0.000646683038212359, 0.01940547488629818, 0.08508197963237762, 0.09673219174146652, 0.08194161206483841, 0.01489541307091713, -0.008078793995082378, 0.043503981083631516, 0.005315497051924467, -0.023361466825008392, -0.0069378637708723545, 0.09757193922996521, -0.031786467880010605, 0.11283425986766815, -0.03721925616264343, -0.010796279646456242, 0.08408388495445251, -0.04213125631213188, 0.07334177196025848, 0.04235845059156418, -0.03572191298007965, 0.04457797855138779, -0.016605162993073463, 0.030120499432086945, 0.023157203570008278, 0.06124596297740936, 0.043630439788103104, 0.017177846282720566, 0.054226312786340714, -0.035385023802518845, 0.039681944996118546, 0.009736347012221813, 0.015726523473858833, -0.0072902292013168335, -0.024457940831780434, -0.01653481461107731, 0.046354010701179504, 0.0746879056096077, 0.036434244364500046, -0.024053242057561874, 0.014865622855722904, 0.006335398182272911, 0.06701664626598358, -0.012310543097555637, -0.014096543192863464, 0.04225800186395645, 0.03687736764550209, -0.004591704811900854, 0.037591349333524704, 0.04821132868528366, -0.04777376726269722, 0.02780739776790142, 0.06577121466398239, -0.005104231648147106, 0.049952492117881775, 0.11467529833316803, 0.08264318853616714, 0.004241902381181717, 0.015458483248949051, 0.11985666304826736, 0.08447175472974777, 0.05064787343144417, -0.013717561960220337, 0.04865490645170212, -0.02739192359149456, 0.09190147370100021, 0.03986966609954834, 0.09255107492208481, 0.07788143306970596, 0.03488215431571007, -0.03393635153770447, 0.08799198269844055, 0.10285414755344391, 0.08791755139827728, -0.02299945056438446, -0.030326293781399727, 0.11274503916501999, 0.013116941787302494, 0.1088622435927391, 0.08559387922286987, -0.009753996506333351, -0.02623753249645233, 0.06342270225286484, -0.01377835962921381, 0.04584193602204323, 0.10461606830358505, 0.04044435918331146, -0.04837815463542938, 0.029608361423015594, 0.08611949533224106, 0.09393540024757385, 0.014911966398358345, -0.049386244267225266, 0.06600742042064667, 0.03972845897078514, -0.0026431973092257977, 0.10488639026880264, 0.1041286364197731, -0.008043406531214714, 0.06181471422314644, -0.04024193063378334, 0.0697641670703888, 0.037018947303295135, 0.05924379825592041, 0.013318431563675404, -0.031002197414636612, 0.10246174037456512, -0.03202514722943306, 0.10627608001232147, -0.017695076763629913, 0.11132457107305527, 0.06057966500520706, 0.1135203018784523, -0.0379459373652935, 0.06978688389062881, 0.061073627322912216, -0.04128707945346832, 0.04935853183269501, 0.04245730862021446, -0.0024937880225479603, 0.01489563100039959, 0.03937472403049469, 0.050304483622312546, 0.05618593469262123, 0.11376019567251205, 0.016307178884744644, -0.0038550053723156452, 0.07771313190460205, 0.09252940863370895, -0.03241856396198273, 0.00019699797849170864, -0.040766824036836624, 0.002905777422711253, 0.01672958955168724, -0.006701956503093243, -0.005847359076142311, 0.041241515427827835, 0.023215031251311302, -0.008788811042904854, 0.07212791591882706, 0.02950425259768963, -0.009950275532901287, 0.06624271720647812, 0.02700738236308098, 0.02387123927474022, 0.08392119407653809, 0.10137399286031723, 0.10578342527151108, 0.11683154851198196, 0.02660374343395233, 0.01833188161253929, 0.02422437071800232, -0.014885194599628448, 0.015871886163949966, -0.051075685769319534, 0.01470559649169445, 0.11317994445562363, 0.0008368295384570956, 0.10223222523927689, 0.10695385187864304, 0.01587407849729061, 0.07237690687179565, 0.11081341654062271, 0.051008738577365875, 0.09317833930253983, 0.06522070616483688, 0.09489596635103226, -0.022246407344937325, 0.01716441474854946, 0.10009053349494934, 0.08012506365776062, 0.055079005658626556, -0.03260824456810951, -0.041257504373788834, -0.03624644875526428, 0.058763228356838226, 0.043031565845012665, 0.01913023367524147, 0.10083508491516113, 0.049038492143154144, 0.0008102124556899071, 0.0925927460193634, 0.09844512492418289, 0.04825124517083168, -0.017614101991057396, 0.0743095725774765, 0.059196922928094864, 0.06293539702892303, 0.03388655558228493, 0.05698758363723755, -0.0044406987726688385, 0.008162835612893105, 0.04773351550102234, 0.00764784961938858, 0.0809868723154068, 0.09365122020244598, -0.027148060500621796, -0.001150395255535841, -0.04634794220328331, -0.036248594522476196, 0.03219194710254669, 0.02220609039068222, 0.07979443669319153, 0.02135610580444336, 0.06281346827745438, 0.08778682351112366, 0.08948439359664917, 0.04316273704171181, 0.028066949918866158, 0.016903864219784737, 0.07375877350568771, -0.02930573932826519, -0.00028464061324484646], [-0.09045993536710739, -0.06731090694665909, 0.026306331157684326, 0.011489802971482277, -0.06779347360134125, 0.02467329055070877, -0.018664425238966942, -0.05747497081756592, 0.0069217863492667675, -0.02857246808707714, -0.11029147356748581, -0.06724827736616135, 0.03798135742545128, -0.09928734600543976, -0.020081259310245514, -0.06197462975978851, -0.05220862105488777, -0.01266679260879755, 0.01257353276014328, 0.04944104328751564, 0.04493343085050583, 0.009238145314157009, -0.026191556826233864, -0.10640760511159897, -0.07645809650421143, 0.05821475386619568, -0.01782272569835186, -0.005682722199708223, -0.038536977022886276, -0.08907397836446762, 0.03927214443683624, -0.03927372768521309, 0.02189003862440586, -0.09581038355827332, 0.05083845928311348, -0.0409223698079586, -0.09749575704336166, 0.007234887685626745, -0.08910162001848221, -0.10601699352264404, -0.028438549488782883, 0.060157641768455505, -0.0781480222940445, 0.008261794224381447, -0.09323836117982864, 0.04138238728046417, 0.034237854182720184, 0.03067227080464363, 0.04098769277334213, -0.10838165879249573, -0.11141501367092133, -0.004418165888637304, -0.10550826787948608, -0.04561911150813103, -0.11101097613573074, -0.09050270169973373, -0.09452850371599197, -0.050676144659519196, -0.0756697803735733, -0.044450584799051285, 0.04238850623369217, 0.021402040496468544, -0.03620962053537369, -0.10015314072370529, -0.027721667662262917, -0.018152393400669098, 0.003581704804673791, 0.012659207917749882, -0.0856589823961258, -0.09647520631551743, 0.057364363223314285, 0.022145600989460945, 0.04696265235543251, 0.05568161979317665, 0.04566655680537224, -0.09824628382921219, 0.01973913423717022, -0.01907500997185707, -0.06538748741149902, 0.022559616714715958, -0.07422076910734177, -0.06081220135092735, 0.034389760345220566, -0.0956803560256958, 0.05708826705813408, 0.059345047920942307, -0.006542638875544071, -0.0568181648850441, 0.059950537979602814, 0.05846660956740379, 0.025735506787896156, 0.055860742926597595, -0.04264652729034424, -0.043588098138570786, -0.028090113773941994, -0.10593956708908081, -0.03460858762264252, -0.04272601380944252, 0.018867075443267822, -0.0527348630130291, -0.013562249951064587, -0.09377051889896393, 0.014385603368282318, -0.013559204526245594, 0.01514873281121254, -0.001216295757330954, -0.10948446393013, -0.09440875798463821, -0.029428377747535706, -0.04650580883026123, -0.028034763410687447, -0.05304046720266342, -0.0842929482460022, 0.020333552733063698, -0.04648541659116745, -0.10524865239858627, 0.0455864854156971, 0.050557952374219894, -0.046801142394542694, 0.03398888185620308, -0.0634012445807457, -0.017989631742239, 0.024111175909638405, -0.05488688126206398, -0.0796622559428215, -0.005665420088917017, -0.045889001339673996, -0.06732311099767685, 0.05378720909357071, -0.046073444187641144, 0.005227735266089439, -0.031039917841553688, -0.10883041471242905, 0.008586394600570202, -0.00074574607424438, 0.023773077875375748, -0.08736029267311096, 0.045701466500759125, 0.014549940824508667, 0.05438891425728798, -0.10218821465969086, -0.08020836859941483, -0.07729727774858475, 0.029667029157280922, -0.10068175941705704, -0.07409444451332092, -0.022267619147896767, -0.027971917763352394, 0.02586711011826992, 0.027810946106910706, -0.06397151201963425, -0.062070950865745544, -0.053887732326984406, -0.02808944135904312, -0.013628060929477215, -0.08500073850154877, 0.0015666161198168993, 0.006121394224464893, -0.10817420482635498, -0.09947486966848373, -0.08064751327037811, 0.04469039663672447, -0.030637016519904137, -0.1053013876080513, 0.00796542689204216, -0.08899170905351639, 0.03200928121805191, -0.022607218474149704, -0.024495543912053108, 0.009509293362498283, 0.0066006798297166824, -0.031438179314136505, -0.09179992228746414, -0.09860996156930923, 0.059472765773534775, 0.05456070974469185, -0.04542126506567001, 0.04622878506779671, -0.09787783771753311, -0.032984409481287, 0.01868647336959839, -0.03853806480765343, -0.10668197274208069, 0.03379746153950691, -0.028225824236869812, 0.004941057413816452, -0.08524258434772491, 0.02400059811770916, -0.09803187102079391, -0.07323573529720306, -0.022681480273604393, -0.03858107328414917, -0.06610795110464096, -0.005026485305279493, -0.02380729280412197, -0.035193152725696564, -0.05571824684739113, -0.01277315616607666, -0.08209159970283508, -0.0013178478693589568, 0.026262497529387474, 0.05439193546772003, -0.09562911838293076, 0.013761003501713276, -0.07763879746198654, -0.05932646989822388, 0.051295094192028046, -0.07992958277463913, -0.05807353928685188, 0.03490686044096947, -0.013819171115756035, -0.037613075226545334, -0.07346820086240768, -0.017848117277026176, -0.057458069175481796, 0.0391770601272583, -0.021234596148133278, -0.11069826781749725, 0.015954669564962387, 0.030397089198231697, -0.0146402008831501, 0.05357992276549339, -0.05118579789996147, -0.06094636768102646, -0.05115070566534996, -0.024076564237475395, -0.010558407753705978, -0.07308315485715866, -0.019533613696694374, 0.01393837295472622, 0.013516059145331383, 0.01835377886891365, -0.10451485216617584, 0.03805939480662346, -0.012918557971715927, -0.08016341179609299, -0.009957709349691868, -0.08810777962207794, 0.012431926093995571, -0.048255592584609985, -0.0886770710349083, -0.10423856228590012, 0.022282563149929047, -0.10086939483880997, -0.03925454989075661, -0.006107504479587078, 0.04949106648564339, -0.018237382173538208, 0.05183659866452217, -0.1111002117395401, -0.017186667770147324, -0.07811930775642395, -0.019575044512748718, -0.04978066310286522, -0.08808378875255585, -0.014500685036182404, -0.11071706563234329, 0.03465721383690834, 0.009178959764540195, -0.026938337832689285, 0.011688672006130219, 0.04900461062788963, -0.046127837151288986, 0.051445282995700836, -0.02814171463251114, 0.050801098346710205, -0.044684432446956635, -0.08824852108955383, -0.09184128791093826, -0.06172001734375954, 0.034972891211509705, -0.04916245490312576, -0.05932651832699776, 0.04457322508096695, -0.030353398993611336, -0.0876045674085617, -0.023669639602303505, 0.05622635409235954, -0.10527196526527405, -0.08535894006490707, -0.0019968778360635042, 0.02597157470881939, 0.04559110477566719, 0.019124211743474007, -0.0016620645765215158, 0.0016341698355972767, -0.032258033752441406, -0.03287528082728386, 0.03619326278567314, -0.10293634980916977, -0.013328383676707745, 0.014884439297020435, -0.009527097456157207, 0.0010369021911174059, -0.046734124422073364, -0.017795920372009277, 0.0030783291440457106, -0.0610605888068676, -0.015682684257626534, -0.05055893957614899, -0.05862943083047867, 0.059909213334321976, 0.0029482622630894184, -0.06543008238077164, 0.014186191372573376, 0.02223394624888897, -0.07483681291341782, 0.04803160950541496, 0.03534289821982384, 0.052919067442417145, -0.07820934802293777, -0.1012410894036293, 0.05796918645501137, -0.0977049171924591, -0.09682435542345047, -0.045417822897434235, -0.011708864010870457, 0.01536016445606947, 0.013312933035194874, -0.0710785910487175, -0.1014169305562973, -0.016781939193606377, -0.047154493629932404, -0.10539598017930984, -0.09814751893281937, 0.05024602636694908, -0.06624378263950348, -0.006289595738053322, -0.03164244443178177, -0.00012561350013129413, 0.049607280641794205, 0.03540477156639099, 0.046415116637945175, -0.10020124912261963, 0.024246275424957275, -0.09134720265865326, 0.002730294596403837, -0.009905297309160233, -0.07862480729818344, 0.03442669287323952, 0.020766781643033028, 0.011249404400587082, -0.011435829102993011, -0.09798652678728104, -0.07956589013338089, -0.09516675770282745, -0.1095568984746933, -0.1003752201795578, 0.01758101023733616, -0.0544615164399147, 0.06023181229829788, -0.05600210651755333, -0.04064815863966942, 0.026023300364613533, 0.03352142870426178, 0.04356591776013374, -0.03517097979784012, 0.0035874887835234404, -0.0926552265882492, -0.0029448638670146465, -0.07250270247459412, 0.04843699559569359, -0.027168724685907364, -0.10832235217094421, -0.09916539490222931, -0.10467635840177536, -0.030022989958524704, -0.0018203381914645433, -0.01461971178650856, -0.07231874763965607, -0.10952568799257278, 0.05960433930158615, 0.002860004547983408, -0.0006317590014077723, -0.06963373720645905, -0.09746652841567993, -0.0868276059627533, 0.0036938656121492386, -0.09296299517154694, -0.004966358654201031, -0.04005829989910126, -0.013413524255156517, -0.0836452767252922, -0.05407172441482544, 0.04416908323764801, -0.0030299886129796505, 0.02308700606226921, 0.05156197398900986, -0.010157627053558826, -0.04257773980498314, 0.006544941570609808, -0.03782486170530319, 0.04019255191087723, -0.10233477503061295, 0.05922954902052879, -0.01591777428984642, -0.051231227815151215, 0.049283698201179504, -0.005873484071344137, -0.10605178773403168, -0.08945031464099884, -0.10755759477615356, 0.05334583669900894, -0.05571839213371277, -0.05495759844779968, 0.047364432364702225, -0.0691765770316124, -0.04149629548192024, -0.06591901928186417, 0.005135662388056517, -0.10212983936071396, -0.06837603449821472, 0.03182351589202881, -0.046377621591091156, -0.09634501487016678, -0.04743315279483795, -0.002226246753707528, 0.024761514738202095, -0.03592135012149811, -0.0745515301823616, 0.016788069158792496, -0.09626086801290512, -0.020037824288010597, -0.001101379282772541, 0.0017956558149307966, -0.07094039767980576, -0.10183533281087875, -0.06234385445713997, -0.0126365190371871, 0.05886036902666092, -0.03730662539601326, -0.05212738364934921, -0.041763558983802795, 0.014309567399322987, -0.11010653525590897, -0.0866129919886589, -0.027304204180836678, -0.07221732288599014, -0.07621917873620987, -0.10804346948862076, -0.030420249328017235, -0.05850307270884514, -0.06987258791923523, 0.054743506014347076, -0.06900164484977722, 0.026923181489109993, 0.03045390173792839, -0.10745592415332794, -0.005070780869573355, -0.015147797763347626, -0.0021178952883929014, 0.0321679413318634, -0.06985282152891159, -0.014908377081155777, 0.0493357852101326, -0.07957214117050171, -0.05733003094792366, -0.1094314232468605, 0.024134067818522453, 0.027791418135166168, -0.09263869374990463, -0.051346179097890854, -0.09698403626680374, -0.049010805785655975, 0.025750795379281044, -0.06032717227935791, 0.02020125463604927, -0.042787645012140274, -0.03668244555592537, 0.013117979280650616, 0.048588935285806656, -0.10133321583271027, -0.0051274606958031654, -0.05804040655493736, 0.05026458576321602, -0.04304581880569458, -0.06531181931495667, 0.03625551238656044, -0.02379804290831089, -0.025772325694561005, -0.09909597784280777, -0.0762365460395813, -0.0473795048892498, -0.025192685425281525, -0.023102447390556335, -0.020227625966072083, -0.0007894171285443008, 0.05304722860455513, -0.03755811229348183, -0.07307503372430801, -0.04048778489232063, -0.04228365793824196, 0.059122484177351, -0.008406559005379677, 0.006324378773570061, -0.0410035215318203, -0.03478710725903511, -0.03807135298848152, 0.016631826758384705, -0.047938644886016846, -0.05152535066008568, -0.042980439960956573, -0.08652551472187042, 0.026783030480146408, 0.04674629122018814, -0.0691956952214241, -0.07127273827791214, -0.02054762654006481, 0.053016796708106995, -0.01215694285929203, 0.04462413489818573, 0.022638393566012383, 0.03517245873808861, -0.046174436807632446, -0.09518343955278397, -0.05397988110780716, 0.04745122417807579, -0.009545493870973587, 0.058156561106443405, -0.056074708700180054, -0.10530315339565277, -0.026429366320371628, 0.02100885473191738, -0.07489194720983505, -0.03906549513339996, -0.0844741091132164, 0.05814370885491371, -0.017938030883669853, -0.029762396588921547, 0.02743585593998432, -0.0562991127371788, -0.06530088931322098, 0.0432443805038929, -0.09315093606710434, -0.11055729538202286, -0.08038298040628433, -0.07030186802148819, -0.05526711791753769, 0.012418416328728199, -0.06815196573734283, 0.011014663614332676, -0.08237776905298233, -0.07495389133691788, -0.025134941563010216, -0.015416585840284824, 0.04749083146452904, 0.00901784934103489, -0.1113576591014862, -0.09390787780284882, -0.10330576449632645, 0.0436379611492157, -0.08044150471687317, -0.10578945279121399, 0.044549375772476196, 0.026623152196407318, -0.08059503138065338, -0.10822780430316925, -0.08730781078338623, 0.059832461178302765, -0.03293916955590248, -0.018766218796372414, -0.06007503718137741, 0.019111521542072296, 0.0032598318066447973, 0.036280252039432526, -0.08620230853557587, -0.010065088048577309, -0.031011005863547325, 0.05313488841056824, 0.0016954937018454075, -0.04228099063038826, 0.03961974009871483, -0.03023398108780384, -0.01458120159804821, 0.03257015347480774, -0.09789551049470901, -0.07667218893766403, 0.05170224979519844, -0.09554994106292725, -0.07405383139848709, 0.016550829634070396, -0.10860324651002884, -0.06766152381896973, 0.0416315495967865, -0.021924741566181183, -0.10577551275491714, -0.03141634166240692, -0.007997019216418266, 0.013059263117611408, -0.0017912109615281224, -0.06934787333011627, 0.044574420899152756, 0.027412082999944687, -0.011643697507679462, 0.004332403652369976, 0.02240132912993431, -0.09019753336906433, 0.0071993637830019, 0.06017027795314789, -0.10011658072471619, -0.035728976130485535, -0.06465303152799606, -0.07272063195705414, -0.04895642772316933, -0.04076880216598511, -0.07009010016918182, -0.014134177938103676, -0.06467767804861069, 0.006784125231206417, -0.044321659952402115, -0.0653768852353096, -0.06096697971224785, -0.04118042811751366, 0.02620471455156803, -0.0032094179186969995, -0.08926930278539658, -0.01881052926182747, -0.035981662571430206, -0.09966327995061874, -0.10421517491340637, -0.05376872420310974, -0.08968444168567657, -0.10326315462589264, -0.0717560350894928, -0.059512898325920105, -0.10080619156360626, -0.01086175162345171, -0.07709570229053497, -0.11019293963909149, 0.014270915649831295, -0.07652415335178375, -0.06214595586061478, 0.02424023300409317, -0.019392430782318115, 0.03892767056822777, 0.01977754384279251, -0.022850243374705315, -0.06007242947816849, 0.00121395755559206, 0.020949624478816986, -0.06518655270338058, 0.017915062606334686, 0.008249939419329166, -0.0775923952460289, -0.10599890351295471, -0.08772000670433044, 0.03666802868247032, -0.041000474244356155, -0.08862604200839996, 0.029124584048986435, -0.0924224779009819, -0.10203628242015839, 0.03651610016822815, -0.0157042033970356, 0.05737464129924774, 0.011555140838027, -0.105766162276268, -0.06916755437850952, -0.05776948854327202, 0.0339965745806694, -0.08569252490997314, -0.022121073678135872, 0.036599211394786835, -0.013761313632130623, -0.08114828914403915, -0.004260933957993984, -0.016506146639585495, -0.020428219810128212, -0.045961517840623856, -0.0712798684835434, -0.020205985754728317, 0.055251020938158035, -0.036884624511003494, 0.05263879522681236, -0.04739757999777794, 0.04464395344257355, 0.052972301840782166, -0.04171084240078926, -0.06810413300991058, -0.011867382563650608, -0.01948915608227253, 0.05966006591916084, -0.035877909511327744, 0.03913937881588936, 0.032343748956918716, 0.054475847631692886, -0.002880387706682086, -0.044359393417835236, -0.012477132491767406, -0.042310796678066254, -0.06275314092636108, -0.10096706449985504, -0.066939577460289, 0.03892884403467178, 0.01954749785363674, -0.0368049181997776, -0.024474982172250748, -0.07414160668849945, -0.07962751388549805, -0.09075349569320679, 0.029789764434099197, -0.007143393624573946, 0.008970972150564194, -0.09300936013460159, -0.017957696691155434, -0.004077074583619833, 0.012228027917444706, -0.004152869805693626, -0.01966817118227482, -0.07495628297328949, -0.06546101719141006, -0.06514138728380203, 0.038984332233667374, 0.040163762867450714, 0.00964439194649458, -0.015996716916561127, 0.01734410971403122, -0.10835188627243042, -0.10458728671073914, -0.039860744029283524, 0.04296228289604187, 0.03866465017199516, -0.09432362020015717, -0.044810786843299866, -0.013246595859527588, 0.002283724257722497, -0.09529147297143936, 0.05476371571421623, -0.02878890186548233, -0.09742970764636993, 0.030468421056866646, 0.05553651601076126, -0.05949527770280838, -0.03511384502053261, -0.09587831795215607, -0.032716453075408936, -0.07654690742492676, -0.05995769798755646, -0.06481843441724777, -0.00936681404709816, 0.04364277422428131, 0.04964239150285721, 0.057097770273685455, -0.09308240562677383, 0.00427972013130784, -0.002516593784093857, -0.05376482009887695, -0.10107985138893127, -0.0788448229432106, -0.08012960106134415, 0.023685401305556297, -0.042800214141607285, 0.034953970462083817, -0.08428330719470978, -0.038235995918512344, 0.031465109437704086, -0.06179090961813927, -0.046414393931627274, 0.05102686583995819, -0.021558117121458054, -0.028455257415771484, -0.03976549953222275, -0.056786298751831055, -0.04319748282432556, 0.01969010941684246, 0.0315454937517643, 0.04013674706220627, -0.0350370779633522, -0.08762270957231522, -0.05784633755683899, -0.04411904886364937, 0.041914597153663635, -0.07362924516201019, 0.02262098528444767, -0.03253611922264099, -0.038209497928619385, -0.05283945053815842, -0.10128949582576752, 0.044942501932382584, -0.08135028183460236, 0.0469406358897686, -0.08045127987861633, -0.08403448760509491, -0.03968353569507599], [-0.01091237273067236, 0.03088567592203617, 0.009072629734873772, -0.02072865515947342, -0.05106327310204506, 0.012178494594991207, -0.05182325094938278, -0.028551945462822914, 0.0957118570804596, 0.0804729089140892, 0.047095417976379395, 0.020698580890893936, 0.03806640952825546, -0.0021729643922299147, -0.015933513641357422, 0.07209447771310806, 0.04445267096161842, 0.014010533690452576, 0.061847589910030365, 0.04264647886157036, -0.038957878947257996, -0.02385799214243889, 0.0029365182854235172, 0.05932260677218437, 0.061589960008859634, -0.03709205612540245, 0.022100647911429405, 0.003948833793401718, -0.022779427468776703, 0.1083790734410286, 0.09201358258724213, 0.10192509740591049, -0.05274593457579613, -0.026849273592233658, 0.07704650610685349, 0.08555732667446136, -0.029068827629089355, 0.013110675849020481, 0.10133236646652222, -0.04964980483055115, 0.0807543694972992, -0.011868039146065712, 0.10784871876239777, 0.06012987717986107, -0.0022329676430672407, 0.10851338505744934, 0.10731464624404907, -0.03284456953406334, 0.09668490290641785, 0.05706802010536194, 0.011059052310883999, 0.08109798282384872, 0.04532841965556145, 0.004577526822686195, 0.025928210467100143, 0.10741019994020462, -0.030505657196044922, 0.058671463280916214, 0.10730390250682831, 0.05955091863870621, 0.02705516666173935, 0.014845510944724083, -0.008198839612305164, 0.09599346667528152, -0.04827321693301201, 0.06888715922832489, 0.007871963083744049, 0.11260215938091278, -0.03917071968317032, 0.05892534926533699, 0.043994057923555374, -0.030120130628347397, 0.11243154853582382, 0.0642961710691452, 0.08518912643194199, -0.04905743524432182, 0.07702159136533737, 0.03770047426223755, 0.0015650041168555617, 0.10611904412508011, 0.07517504692077637, 0.019741389900445938, -0.006812004372477531, 0.05293908715248108, 0.11145523190498352, 0.03865518420934677, -0.04691523686051369, 0.08821256458759308, 0.09457801282405853, 0.08412928134202957, 0.009832649491727352, 0.09551406651735306, -0.05755632370710373, -0.0316028818488121, 0.07190578430891037, -0.001471706316806376, 0.10567580163478851, 0.022739354521036148, -0.003042803378775716, 0.0601627342402935, 0.083968885242939, 0.07502903789281845, 0.02518528699874878, 0.08497296273708344, -0.00632763234898448, -0.04995782673358917, 0.09999991953372955, 0.036180317401885986, 0.05518846958875656, -0.037554677575826645, 0.06439609825611115, 0.008593370206654072, -0.03538328781723976, -0.005442895460873842, 0.11218070983886719, 0.05244698375463486, -0.015277241356670856, 0.10768461227416992, 0.014093638397753239, 0.034090008586645126, -0.03260078653693199, -0.03783339262008667, 0.01546552311629057, 0.05908627435564995, 0.08530699461698532, 0.07376931607723236, 0.053298842161893845, 0.07695858925580978, -0.035942308604717255, 0.11289041489362717, 0.0517268106341362, 0.04113926738500595, -0.05155854672193527, 0.05279294401407242, 0.04175395518541336, -0.028328508138656616, 0.04655821621417999, 0.06458302587270737, 0.07653281092643738, -0.012150547467172146, -0.020501136779785156, 0.018330460414290428, -0.007874686270952225, 0.04065527021884918, 0.1063878983259201, 0.08773679286241531, -0.05360018461942673, -0.035378117114305496, 0.012968546710908413, 0.03294640779495239, 0.037639640271663666, 0.03732144087553024, 0.03347654268145561, 0.06901995092630386, 0.007258230354636908, -0.05543588474392891, 0.045397937297821045, -0.024703288450837135, 0.02952180616557598, -0.054184116423130035, 0.07431617379188538, -0.012270565144717693, 0.043983343988657, 0.08012022823095322, -0.009307997301220894, 0.013724329881370068, 0.1053270772099495, 0.07315739244222641, -0.005855377297848463, -0.04689726233482361, 0.04249279946088791, 0.06075698882341385, -0.024223003536462784, -0.03467012941837311, -0.009534826502203941, -0.050197847187519073, 0.09812140464782715, -0.03430873900651932, 0.035740070044994354, 0.04784957319498062, -0.0318061038851738, -0.03945700824260712, 0.07985948771238327, -0.041837479919195175, 0.0823647677898407, 0.029550429433584213, 0.04177066311240196, 0.06254749000072479, -0.048773203045129776, 0.11128097027540207, -0.04800063371658325, 0.048035480082035065, -0.050853051245212555, 0.08129183948040009, -0.04533317685127258, 0.08950646966695786, -0.03810034692287445, 0.08277736604213715, -0.01949404552578926, -0.028422212228178978, -0.00710256677120924, -0.03047061897814274, 0.07480223476886749, 0.04131787642836571, -0.04675197973847389, -0.010491212829947472, -0.031113050878047943, 0.07104707509279251, 0.08587701618671417, 0.10479895025491714, 0.04202434793114662, 0.0036998281721025705, -0.02459266409277916, 0.08737064152956009, 0.04160206764936447, 0.03738538548350334, 0.04258403554558754, 0.06418575346469879, 0.01000004168599844, 0.08659608662128448, 0.0028346795588731766, 0.03523793816566467, 0.09693897515535355, 0.025773927569389343, -0.014099960215389729, 0.050876546651124954, -0.04235458746552467, -0.04516516625881195, 0.032923486083745956, 0.10831425338983536, 0.011256870813667774, -0.03817673772573471, 0.029051272198557854, 0.10030720382928848, 0.0843302309513092, 0.10302654653787613, 0.01439629215747118, 0.0903983935713768, 0.039114661514759064, 0.07402367144823074, 0.09271454066038132, 0.0006724148406647146, 0.04434644430875778, 0.057279691100120544, -0.007787202950567007, -0.04674942418932915, 0.06360284239053726, -0.047928567975759506, -0.0409625843167305, 0.06191888824105263, -0.029772788286209106, 0.1081012710928917, -0.04891517385840416, 0.015833865851163864, 0.05319994315505028, -0.04266108199954033, 0.1021963357925415, -0.05566321313381195, 0.0029469355940818787, -0.02722584642469883, -0.03151866793632507, -0.006700372323393822, 0.08923687785863876, -0.04550058767199516, -0.041782598942518234, 0.0856250524520874, -0.016605664044618607, 0.07625144720077515, 0.06170634552836418, 0.04592588543891907, 0.029444323852658272, -0.0025851752143353224, -0.030277281999588013, 0.033562783151865005, -0.05486249551177025, 0.04570470377802849, -0.03485928475856781, 0.07182817906141281, 0.085520438849926, -0.0031297937966883183, -0.0285321194678545, 0.008042770437896252, -0.032634492963552475, 0.10089822858572006, -0.0400385744869709, -0.034673888236284256, 0.05514400452375412, 0.10915347188711166, -0.03810056671500206, 0.04888198897242546, 0.08761682361364365, -0.03389440104365349, 0.01225604023784399, -0.02241530269384384, 0.0011719163740053773, 0.09868230670690536, -0.018562646582722664, 2.685622894205153e-05, 0.07893481105566025, 0.1015402153134346, -0.040376607328653336, -0.024356864392757416, 0.039482735097408295, 0.10468629747629166, 0.026930134743452072, 0.10119138658046722, 0.04844815284013748, 0.10448632389307022, -0.024621495977044106, 0.08466651290655136, -0.011313430964946747, 0.024301469326019287, -0.035149142146110535, 0.11120010167360306, -0.004373425152152777, 0.10426011681556702, -0.011114084161818027, 0.047904033213853836, 0.05265192314982414, 0.009006914682686329, 0.07097470760345459, 0.1094442829489708, 0.05754929780960083, -0.023957733064889908, -0.020943092182278633, 0.05523563176393509, -0.025936616584658623, 0.1090361550450325, 0.09179725497961044, 0.021122204139828682, -0.021374590694904327, 0.08405709266662598, 0.0402359813451767, -0.035937920212745667, 0.10376183688640594, -0.029357988387346268, 0.049921914935112, -0.050773706287145615, 0.04321173205971718, 0.030734939500689507, -0.012032070197165012, 0.07015160471200943, 0.10296862572431564, -0.023263199254870415, 0.006141070742160082, 0.00825822539627552, 0.06529687345027924, -0.044990867376327515, -0.005100389942526817, 0.04344458505511284, 0.08622362464666367, -0.05584917217493057, -0.04295211285352707, 0.03286708518862724, -0.00025263059069402516, 0.06977373361587524, -0.05002618581056595, -0.04220373556017876, -0.017660753801465034, 0.02828761748969555, 0.057699088007211685, 0.0409732349216938, -0.013045181520283222, -0.002778442809358239, -0.011056439951062202, 0.052637699991464615, 0.02078789286315441, 0.055013835430145264, -0.048202820122241974, 0.09270599484443665, 0.029969166964292526, 0.008139300160109997, -0.0539994016289711, 0.0069190929643809795, 0.10083960741758347, 0.07970740646123886, -0.02544354274868965, -0.023485641926527023, 0.09599162638187408, 0.019072432070970535, 0.09727161377668381, 0.1119861826300621, -0.023104019463062286, 0.005794653203338385, -0.014906053431332111, -0.05709538981318474, 0.10471286624670029, 0.07268565148115158, 0.07323820143938065, 0.09611144661903381, 0.011123141273856163, 0.02030204050242901, -0.018790559843182564, -0.016190385445952415, 0.0793951079249382, 0.0645466223359108, -0.019458144903182983, -0.05051156505942345, 0.05714365467429161, 0.042003002017736435, 0.03955337032675743, 0.10373306274414062, 0.09436620771884918, 0.11170188337564468, 0.01535063236951828, -0.0005742383655160666, 0.10004539042711258, -0.0501810684800148, 0.0207581277936697, 0.059292420744895935, -0.03829546272754669, 0.04507260397076607, -0.05325993895530701, -0.032964229583740234, 0.08625584095716476, 0.08683764934539795, 0.0667300671339035, -0.038437340408563614, 0.07154149562120438, 0.05925038456916809, -0.029675772413611412, 0.010116971097886562, 0.06725320219993591, -0.006992074195295572, 0.062358319759368896, 0.0065729995258152485, -0.04002702981233597, 0.06748530268669128, -0.012952251359820366, -0.029268238693475723, -0.055975668132305145, 0.10169458389282227, 0.07947742938995361, 0.07448087632656097, 0.11104097962379456, 0.10004543513059616, -0.011884444393217564, 0.08725834637880325, 0.027331069111824036, 0.040991708636283875, -0.02971801348030567, 0.07500462979078293, -0.05020865797996521, 0.0777723416686058, -0.05201912671327591, 0.035215508192777634, -0.03388470038771629, 0.0013296921970322728, -0.018407126888632774, 0.06642749905586243, 0.08521827310323715, 0.09876430034637451, -0.011862851679325104, -0.0580056793987751, -0.0216273982077837, -0.03502713516354561, 0.02977493777871132, 0.1052619144320488, 0.016759727150201797, -0.010918626561760902, 0.0829525962471962, -0.02051546238362789, 0.017763761803507805, 0.035965416580438614, 0.05486200749874115, -0.03185807541012764, -0.015850387513637543, -0.05191412940621376, -0.02175600826740265, -0.03224983438849449, 0.06154308468103409, 0.017709029838442802, -0.0005921093979850411, 0.10981829464435577, -0.030603572726249695, -0.024790028110146523, 0.02717547118663788, 0.05765977501869202, -0.0238797590136528, 0.01634381152689457, -0.04345160722732544, 0.03302936628460884, 0.0825628861784935, 0.003793846582993865, 0.08737912029027939, 0.0843680128455162, 0.061140332370996475, 0.025042695924639702, -0.01121925562620163, 0.03000759333372116, 0.07399353384971619, -0.024634910747408867, 0.0750361904501915, 0.04780032858252525, -0.052273571491241455, 0.10581618547439575, -0.04519173875451088, 0.042937569320201874, -0.02337784506380558, 0.07095189392566681, -0.04503876343369484, -0.029310977086424828, -0.05669583007693291, -0.00633459584787488, 0.09733571857213974, -0.03590657189488411, 0.019984617829322815, 0.10615420341491699, 0.006213564891368151, 0.09015563875436783, 0.0095168212428689, 0.09687976539134979, 0.11016722768545151, 0.03566102683544159, 0.08737760037183762, 0.06111468747258186, -0.055979758501052856, 0.06346787512302399, 0.10192371159791946, -0.018007369711995125, 0.07895202189683914, 0.07856158167123795, -0.016825536265969276, 0.11039631068706512, 0.010605106130242348, 0.09109613299369812, 0.0787726640701294, 0.045710816979408264, -0.03692435473203659, 0.08461590856313705, 0.06896968930959702, -0.05117751285433769, 0.05935446545481682, 0.053099360316991806, -0.020046712830662727, 0.09789886325597763, -0.04461166635155678, 0.02445443533360958, -0.011289507150650024, 0.08007053285837173, 0.08348241448402405, -0.04914304241538048, 0.09002283960580826, 0.02085237391293049, -0.021193433552980423, -0.03224646672606468, -0.001624607015401125, 0.003870312822982669, 0.011971477419137955, 0.0786379799246788, -0.04236734285950661, -0.0447387732565403, -0.0440668985247612, -0.031418826431035995, 0.023340079933404922, -0.040563493967056274, 0.07395687699317932, -0.013369198888540268, 0.04668257385492325, 0.10718518495559692, 0.04623112455010414, -0.01048436388373375, 0.03538306802511215, 0.0024977154098451138, 0.025408102199435234, -0.01383329089730978, 0.03822780400514603, 0.025006866082549095, 0.012719285674393177, 0.05698184669017792, 0.04079277813434601, -0.016282351687550545, 0.00039140309672802687, -0.03164225444197655, -0.011683641001582146, -0.05078238621354103, 0.0664033442735672, 0.027113130316138268, -0.01916002482175827, 0.04901359602808952, -0.011644665151834488, 0.05451175570487976, -0.02280474081635475, -0.05605372041463852, 0.10228211432695389, 0.011240617372095585, 0.034095387905836105, 0.04743126034736633, -0.03277425840497017, 0.07190624624490738, 0.007503916975110769, 0.02858516201376915, 0.01509522832930088, -0.05701926723122597, 0.012280446477234364, -0.03122112713754177, 0.08908051252365112, 0.02200613170862198, -0.023783233016729355, -0.017008814960718155, 0.021595606580376625, -0.004666012711822987, -0.019444694742560387, 0.005356850568205118, 0.10053956508636475, 0.032614681869745255, 0.07713858783245087, 0.07905609905719757, 0.07418329268693924, 0.04787182807922363, 0.11183061450719833, 0.06004839763045311, 0.08549481630325317, 0.039004817605018616, 0.055771354585886, 0.026605810970067978, 0.07951066642999649, -0.032521165907382965, 0.008733960799872875, -0.05852057412266731, -0.0328596830368042, -0.03771718591451645, -0.045149628072977066, 0.0797276571393013, 0.01878541335463524, 0.05861906334757805, -0.010003037750720978, 0.08002440631389618, 0.09190826863050461, -0.024476604536175728, -0.03210192173719406, 0.05188937112689018, -0.022597162052989006, 0.09578555822372437, 0.039468225091695786, 0.08856384456157684, -0.05203348398208618, -0.04357204958796501, -0.03882075473666191, 0.07248672097921371, 0.10439293831586838, 0.02406582236289978, -0.05533585324883461, 0.04177606478333473, 0.06085376814007759, 0.01854436844587326, 0.008280333131551743, 7.788570655975491e-05, 0.04575891047716141, 0.06886480748653412, -0.05590670183300972, 0.04548170417547226, -0.01102072186768055, 0.02824031561613083, 0.09288763254880905, -0.03320665284991264, 0.013285779394209385, 0.08931967616081238, 0.09810566157102585, -0.03814702108502388, -0.03627090901136398, 0.1128150150179863, 0.003749213879927993, 0.0402698777616024, -0.014847854152321815, 0.11291080713272095, 0.10692769289016724, 0.05841509625315666, -0.021252965554594994, -0.0551285445690155, 0.08468159288167953, 0.0843614861369133, 0.029344752430915833, 0.07772912085056305, 0.04249762371182442, 0.06921689212322235, -0.05010667070746422, 0.05624425411224365, 0.08813200891017914, -0.017281904816627502, 