{"weights": [[[-0.03341811150312424, 0.08468934893608093, 0.048527851700782776, 0.010459057055413723, 0.005717405583709478, 0.08429951965808868, 0.0428861640393734, -0.0572509691119194, -0.05791087448596954, 0.08289958536624908, -0.03092239610850811, -0.0568232461810112, 0.07005541026592255, 0.07366747409105301, 0.0777357667684555, 0.02251289412379265, -0.03630450740456581, 0.04390599951148033, 0.06046314537525177, 0.007586355321109295, 0.08943774551153183, 0.0866471603512764, -0.06064140424132347, 0.015097216702997684, 0.08353764563798904, -0.028034795075654984, 0.021379264071583748, 0.007837005890905857, 0.03910957649350166, -0.02516654133796692, 0.07875239849090576, 0.03379906341433525, 0.017888367176055908, 0.02319055236876011, 0.06382367759943008, 0.04871103912591934, 0.03343850374221802, 0.06733385473489761, 0.06359527260065079, -0.0656481385231018, -0.06745006889104843, 0.03253941982984543, 0.026038529351353645, -0.03331794589757919, 0.08872850984334946, 0.008119693957269192, -0.002661909442394972, 0.06100623309612274, -0.04715441167354584, -0.0498296394944191, 0.04333166033029556, 0.03898727148771286, 0.0024442996364086866, 0.08884601294994354, -0.027419624850153923, 0.07087317109107971, 0.08168026804924011, 0.08272453397512436, 0.03886200860142708, -0.05810968950390816, 0.08663145452737808, -0.07039824873209, 0.026860913261771202, 0.015405133366584778, 0.04892965406179428, -0.018369387835264206, 0.05816011130809784, 0.030660001561045647, 0.029717352241277695, -0.04808346554636955, 0.057497795671224594, 0.017463846132159233, -0.020649349316954613, -0.05958355590701103, -0.0031825958285480738, 0.07641522586345673, 0.06708551943302155, -0.003325012745335698, 0.00023401601356454194, 0.02071649394929409, 0.04228292778134346, 0.07733964920043945, -0.006365543697029352, -0.02206752821803093, -0.0005688329692929983, -0.02885461412370205, -0.017649516463279724, -0.030021630227565765, -0.011312584392726421, -0.06267242133617401, 0.07765880227088928, 0.08191648125648499, 0.029876383021473885, 0.0033288707491010427, -0.008262976072728634, 0.06531445682048798, -0.024723859503865242, -0.004375329241156578, -0.04486094042658806, -0.036532286554574966, 0.08556526899337769, -0.004346565343439579, 0.012831772677600384, -0.02685629017651081, 0.0745541900396347, 0.06274265795946121, 0.08885127305984497, -0.006944671273231506, -0.06312745809555054, 0.05186737701296806, 0.08864264190196991, 0.02993778884410858, 0.01210357341915369, 0.034636400640010834, -0.028912382200360298, -5.138574124430306e-05, 0.005426732823252678, 0.023585576564073563, 0.044194355607032776, -0.04355763643980026, 0.03364328294992447, -0.021051770076155663, 0.060670241713523865, -0.01648521050810814, 0.08653382956981659, 0.014190809801220894, 0.034760382026433945, 0.0036746147088706493, 0.04770815744996071, 0.07714886963367462, -0.05285244062542915, -0.04674648120999336, -0.04232194647192955, 0.01735522598028183, -0.04035292938351631, 0.04724015295505524, 0.0644768476486206, 0.024411654099822044, 0.08236310631036758, 0.013250851072371006, 0.019061516970396042, -0.056245703250169754, -0.04364573210477829, 0.04892224818468094, 0.034243952482938766, 0.03966580703854561, 0.04806048423051834, 0.03690788149833679, 0.09106685221195221, 0.08679843693971634, 0.050521839410066605, 0.004732153844088316, 0.02866150438785553, 0.016160301864147186, 0.010004752315580845, -0.0672970563173294, 0.06298737972974777, 0.021519534289836884, 0.052224300801754, -0.020382339134812355, -0.04352307319641113, 0.06051447615027428, -0.040906231850385666, -0.02174619399011135, -0.002101470250636339, 0.06443553417921066, 0.0341029055416584, -0.01331816241145134, 0.0916077196598053, 0.026134002953767776, -0.026561910286545753, -0.040059894323349, -0.039536427706480026, 0.04512396454811096, -0.007099960930645466, -0.018978718668222427, 0.060996394604444504, 0.03626527637243271, -0.051383066922426224, 0.08673614263534546, -0.057334452867507935, 0.035428743809461594, 0.023973433300852776, 0.03138106316328049, 0.05687079206109047, 0.02322591096162796, 0.004638650454580784, 0.030628854408860207, -0.0013285177992656827, -0.05867311358451843, 0.08141853660345078, 0.09119617193937302, -0.002441743155941367, -0.06640161573886871, 0.05182105675339699, 0.03458140045404434, -0.0232781320810318, 0.06961961090564728, -0.05920898914337158, -0.06483624130487442, -0.05871516466140747, -0.058216728270053864, 0.0359383188188076, 0.05900365486741066, -0.037291623651981354, -0.06754350662231445, -0.0027136688586324453, 0.04802002012729645, 0.06060778722167015, 0.07557256519794464, 0.07242412120103836, 0.029163828119635582, 0.0599614642560482, 0.009547417052090168, -0.06756698340177536, -0.03643673285841942, 0.00951602403074503, 0.08333703875541687, -0.06324657797813416, 0.006289015989750624, -0.02374633401632309, 0.044911522418260574, 0.08459837734699249, 0.03191016986966133, 0.01601007953286171, 0.05129924789071083, 0.040148451924324036, 0.03990839049220085, -0.032393746078014374, -0.04682501032948494, -0.04516023024916649, -0.003646022407338023, -0.00026799514307640493, 0.031600743532180786, 0.05169210955500603, -0.018998578190803528, -0.04681979492306709, -0.0398709774017334, -0.004823710303753614, 0.0797606110572815, -0.03534135967493057, 0.021531889215111732, -0.013689308427274227, -0.016299381852149963, 0.004120809957385063, 0.05359530821442604, -0.02093377895653248, 0.03208877146244049, 0.06737779080867767, -0.045917972922325134, 0.012266636826097965, 0.09151990711688995, 0.0744427815079689, -0.035914983600378036, 0.06733658909797668, 0.027442283928394318, 0.008234060369431973, -0.052391692996025085, -0.015382052399218082, 0.08364909887313843, 0.015306355431675911, -0.02334657683968544, 0.0543946772813797, 0.08052917569875717, 0.0736674964427948, -0.03510095179080963, 0.03665636107325554, 0.012167506851255894, -0.0017229256918653846, 0.06280294060707092, 0.0073635512962937355, 0.029558511450886726, -0.016420863568782806, 0.07711640000343323, 0.02766539715230465, 0.006138394121080637, 0.004914239980280399, -0.022334422916173935, -0.009699603542685509, 0.07066649943590164, 0.07119909673929214, -0.01012963056564331, 0.05143008008599281, -0.030126679688692093, 0.08124352246522903, -0.046815287321805954, -0.05014391988515854, -0.04667866602540016, 0.017935730516910553, 0.03738073259592056, 0.026935873553156853, 0.02427172288298607, -0.012873605825006962, 0.04339488595724106, -0.02078298293054104, -0.06656024605035782, 0.08568103611469269, 0.08788181841373444, -0.03290751948952675, -0.035853322595357895, 0.034732699394226074, -0.04529630392789841, 0.0849577859044075, 0.05950832739472389, -0.022896556183695793, 0.07489636540412903, 0.06334047764539719, 0.060587506741285324, -0.028705362230539322, -0.05523817613720894, 0.07460158318281174, 0.04953553527593613, 0.010637140832841396, -0.02408560737967491, -0.021861016750335693, 0.04578249156475067, 0.05895937606692314, 0.027642108500003815, 0.00609207060188055, -0.06630899757146835, 0.0390637144446373, 0.07324893027544022, -0.04393039271235466, -0.051788330078125, -0.06172023341059685, 0.017870662733912468, -0.038712430745363235, 0.053787559270858765, -0.004629599396139383, 0.0020462239626795053, 0.034333162009716034, 0.0467921644449234, 0.07823765277862549, 0.08456723392009735, -0.02326715551316738, -0.014809953980147839, -0.03478582948446274, 0.04291922599077225, -0.022691478952765465, 0.02482011914253235, 0.07310093194246292, -0.020654376596212387, 0.03862569481134415, 0.04833878204226494, 0.0500614233314991, -0.008538143709301949, 0.06709031015634537, 0.07971034944057465, 0.005202870815992355, -0.016988683491945267, -0.00748015521094203, -0.07044690102338791, 0.06353693455457687, 0.01082589291036129, 0.0896763727068901, 0.04593764245510101, -0.05750242620706558, 0.04177273437380791, -0.0051857419312000275, -0.026437662541866302, 0.07197151333093643, -0.0018308042781427503, 0.040930017828941345, 0.08666710555553436, -0.0091223930940032, -0.05929196625947952, -0.012346455827355385, -0.03949717804789543, 0.061385490000247955, -0.024535436183214188, 0.0686299279332161, 0.02455957420170307, -0.0557708702981472, 0.005427301395684481, -0.012740032747387886, 0.04540116712450981, 0.019971664994955063, 0.024333160370588303, 0.003467066213488579, 0.07488705962896347, -0.0635513886809349, -0.007895493879914284, 0.05033932253718376, 0.027134858071804047, -0.013419939205050468, 0.0442044734954834, 0.08612657338380814, -0.02002114988863468, -0.020866693928837776, -0.004522092640399933, 0.03890005126595497, -0.005461941007524729, -0.002619593171402812, -0.03720993921160698, 0.01907172054052353, -0.037702515721321106, 0.07548170536756516, -0.03201143443584442, 0.08453983813524246, -0.028390202671289444, 0.04047222062945366, 0.0071351793594658375, -0.023876622319221497, -0.011094697751104832, -0.05902336165308952, -0.021992763504385948, -0.017584016546607018, -0.07076722383499146, -0.021029392257332802, 0.009802822954952717, 0.01184562873095274, 0.028276344761252403, 0.03226378187537193, 0.009564124047756195, 0.06788220256567001, -0.0068720667622983456, -0.0638861358165741, 0.0016066920943558216, -0.01638180948793888, -0.027886763215065002, 0.0847783163189888, 0.036593057215213776, -0.06314145773649216, 0.04314162954688072, 0.055240653455257416, 0.07039287686347961, 0.07736587524414062, -0.023381374776363373, 0.08036389201879501, -0.0426822155714035, 0.029943812638521194, 0.06327559053897858, 0.03891568258404732, 0.05015219375491142, 0.07641209661960602, -0.013984743505716324, -0.06667445600032806, 0.051776714622974396, 0.02658507041633129, -0.035157885402441025, 0.0063053215853869915, 0.07403472810983658, 0.04139784723520279, -0.004066010937094688, -0.039449919015169144, -0.0217965729534626, 0.04142724350094795, -0.01819053292274475, -0.06960039585828781, 0.08383382856845856, -0.06502526998519897, -0.03169243037700653, 0.08285395056009293, -0.031805939972400665, -0.06270409375429153, -0.05200304463505745, -0.06126439943909645, 0.02902192808687687, 0.057151779532432556, 0.07550020515918732, 0.033913321793079376, -0.05519714578986168, 0.09146247059106827, -0.06946735084056854, -9.905579645419493e-05, -0.07016430050134659, 0.0027314110193401575, -0.04297085478901863, -0.05837050825357437, 0.0038867907132953405, 0.05852661654353142, 0.010795243084430695, 0.04087119176983833, 0.05912010744214058, -0.042777590453624725, 0.04422859102487564, -0.010343510657548904, 0.0755721777677536, -0.021287189796566963, -0.06990071386098862, -0.022580932825803757, 0.03716114163398743, 0.08676369488239288, 0.017704319208860397, 0.08869027346372604, 0.07087387889623642, -0.028374359011650085, 0.05868563801050186, 0.03393397852778435, 0.035923827439546585, 0.01592210866510868, 0.025838281959295273, -0.05283292382955551, 0.07130616158246994, -0.027545925229787827, -0.01960085518658161, 0.07476963102817535, -0.059381138533353806, 0.06663454324007034, -0.02483362890779972, 0.05443796142935753, 0.0811200812458992, 0.06090766191482544, 0.08104736357927322, -0.0704156681895256, 0.021848589181900024, 0.06229301914572716, 0.018753670156002045, 0.047866035252809525, -0.022557776421308517, -0.02931363694369793, -0.0691123679280281, -0.03301221504807472, -0.02379581891000271, -0.04686422646045685, 0.02176421321928501, 0.004306248389184475, -0.02609400451183319, -0.0351887084543705, 0.08364172279834747, 0.06854069232940674, 0.005375975742936134, 0.06954044103622437, -0.05313560739159584, 0.03138698264956474, 0.09151215851306915, 0.05931759253144264, -0.04637053236365318, 0.06724713742733002, 0.086110420525074, -0.06998251378536224, 0.05265034735202789, -0.022800931707024574, 0.017395349219441414, -0.04939115419983864, -0.020233217626810074, 0.03186769410967827, -0.007232301868498325, 0.03173660859465599, 0.07824596762657166, 0.08841457217931747, 0.07596617937088013, -0.025895068421959877, -0.06707163900136948, 0.0025797411799430847, -0.04300333186984062, -0.003023890545591712, -0.07034876942634583, 0.08894283324480057, 0.05019918829202652, -0.03279716894030571, 0.023846518248319626, -0.04012643173336983, 0.005141232628375292, -0.022563746199011803, -0.04206424206495285, -0.02749006822705269, 0.050511982291936874, -0.046136271208524704, 0.05017402023077011, -0.028347786515951157, -0.05678078159689903, 0.0914984717965126, 0.023131081834435463, 0.0014369236305356026, 0.010213306173682213, 0.09128669649362564, 0.019984068349003792, 0.014649154618382454, -0.005588480271399021, -0.03230837732553482, 0.0028368299826979637, -0.004475053399801254, -0.04461336135864258, 0.018637293949723244, 0.0678049698472023, -0.010694945231080055, -0.05203201621770859, 0.03887820988893509, -0.022217776626348495, -0.004731249064207077, -0.02515939064323902, 0.06848376244306564, 0.009306435473263264, 0.025905320420861244, -0.02324903942644596, 0.023498812690377235, 0.087201789021492, 0.013470842503011227, 0.013456744141876698, -0.03182672709226608, -0.0127419987693429, 0.03196043521165848, -0.015073303133249283, -0.022153029218316078, -0.06511816382408142, 0.044682640582323074, 0.017399949952960014, -0.05745145305991173, 0.007651271298527718, 0.007198064122349024, 0.07104846835136414, 0.06156294420361519, -0.03062460571527481, 0.029173489660024643, 0.04875316098332405, 0.08473443239927292, 0.03436197340488434, -0.02737802267074585, -0.049732841551303864, 0.06364638358354568, -0.053094532340765, 0.06731387227773666, 0.03232840076088905, -0.0091464938595891, 0.00841150525957346, -0.06316598504781723, 0.09116563200950623, 0.05491670221090317, 0.04112742841243744, 0.046463754028081894, 0.08881647884845734, 0.048409875482320786, -0.01760386861860752, 0.02825487032532692, -0.021508289501070976, -0.015541251748800278, 0.047509193420410156, -0.005711079575121403, -0.06119269132614136, 0.07425815612077713, 0.07919398695230484, -0.04965619370341301, 0.033851247280836105, 0.05765649303793907, 0.07362893968820572, 0.07403551042079926, 0.08387289941310883, -0.012658287771046162, 0.05709684640169144, -0.046967294067144394, 0.08661676198244095, 0.04408004879951477, 0.08773135393857956, -0.017087144777178764, 0.011233684606850147, -0.06099269166588783, 0.06211572885513306, 0.06638436764478683, 0.02860495261847973, -0.06968526542186737, -0.03769557550549507, 0.0735907107591629, 0.08346176892518997, 0.0795854777097702, -0.008153656497597694, 0.019583487883210182, -0.02411799505352974, 0.044919390231370926, 0.026761315762996674, 0.08266764879226685, -0.028994351625442505, 0.010039228945970535, -0.00482972664758563, -0.007028626743704081, 0.07547855377197266, 0.0044944328255951405, 0.0072588189505040646, -0.05548663064837456, 0.06712424010038376, 0.00798410177230835, 0.05103543773293495, -0.026517294347286224, 0.028984297066926956, -0.04286911338567734, 0.08219906687736511, -0.02453801780939102, -0.023799102753400803, 0.09121175110340118, -0.0006478921277448535, 0.0448589064180851, 0.056673020124435425, -0.015598620288074017, 0.08302700519561768, 0.006739397998899221, -0.016647176817059517, 0.054854344576597214, -0.00981182511895895, 0.01085373479872942, -0.04284961149096489, -0.013993294909596443, 0.02340075373649597, 0.02167421393096447, -0.009415601380169392, -0.04743553698062897, -0.05975568667054176, -0.05449055880308151, -0.06615611910820007, 0.05769190937280655, -0.034789737313985825, 0.043631672859191895, 0.016567759215831757, 0.06127552688121796, -0.05465434864163399, 0.0015715848421677947, 0.01644623838365078, 0.0831979438662529, -0.00795532763004303, -0.03940175473690033, 0.02998996339738369, -0.025633554905653, 0.08494097739458084, 0.040320973843336105, -0.06751934438943863, 0.08316782861948013, -0.046070560812950134, -0.015247412957251072, 0.012696433812379837, 0.034920595586299896, -0.03524737432599068, -0.03243747726082802, 0.06733466684818268, 0.08616424351930618, 0.0686812773346901, 0.01954909786581993, -0.062143683433532715, 0.08907444775104523, 0.04987547546625137, -0.04560618847608566, 0.002202401403337717, -0.015808088704943657, 0.008202534168958664, 0.0459771566092968, -0.0005130864446982741, -0.025125963613390923, 0.012668457813560963, -0.024742282927036285, 0.017620528116822243, 0.0057970392517745495, -0.011838223785161972, -0.04567224159836769, 0.053618598729372025, 0.01982794888317585, -0.0034415549598634243, 0.03325820714235306, -0.06757508218288422, 0.0034052031114697456, 0.05565997585654259, 0.07816320657730103, 0.09044893831014633, -0.018944140523672104, 0.014205311425030231, 0.05428176373243332, 0.05460674688220024, 0.017340173944830894, -0.032544996589422226, -0.0010426435619592667, 0.0327957458794117, 0.0751672089099884, 0.01527748629450798, 0.04424849525094032, 0.06869494915008545, 0.07573028653860092, 0.022257249802350998, 0.06564660370349884, 0.0578688308596611, -0.06945254653692245, 0.05261668562889099, 0.03197185695171356, 0.022700950503349304, 0.027059990912675858, -0.0016808545915409923, 0.03371121361851692, 0.019485507160425186, -0.06022418662905693, 0.004304736386984587, 0.03907306119799614, 0.02342231571674347, 0.02001205086708069, -0.008834549225866795, 0.023268165066838264, 0.07966213673353195, -0.03252570703625679, 0.007409997750073671], [-0.025798525661230087, 0.028805911540985107, -0.011465650983154774, 0.0026409642305225134, -0.05455264821648598, -0.015920428559184074, -0.028235290199518204, -0.04201120510697365, 0.07377343624830246, 0.026139188557863235, 0.07813166826963425, 0.02761213853955269, 0.0061918022111058235, 0.03520256280899048, 0.008916269987821579, 0.08905497938394547, -0.018431590870022774, 0.06238178163766861, 0.09674841910600662, -0.024816200137138367, 0.04840180277824402, 0.06007363647222519, 0.026663167402148247, 0.06874839961528778, -0.012412935495376587, -0.028645742684602737, -0.05556643009185791, 0.07879479229450226, 0.008570495992898941, 0.09933146834373474, -0.050838910043239594, 0.04718353599309921, -0.048158593475818634, 0.09970701485872269, -0.04448851943016052, 0.053947869688272476, 0.031388334929943085, -0.0179525688290596, 0.05440845340490341, 0.08586680889129639, 0.027315964922308922, -0.030938303098082542, -0.01155497319996357, -0.05549519509077072, 0.06455487757921219, -0.00631104689091444, -0.048660021275281906, 0.01727771945297718, 0.05301668494939804, -0.007203178945928812, -0.02521532215178013, -0.04642871767282486, -0.053652964532375336, 0.06966259330511093, 0.044859834015369415, -0.0425812192261219, 0.06979808211326599, 0.06138186901807785, -0.005792879033833742, -0.024452058598399162, -0.006167637184262276, -0.005089170765131712, 0.0199444517493248, 0.08256839960813522, 0.02478700876235962, -0.029634488746523857, -0.0486370287835598, -0.054929301142692566, 0.04217027872800827, 0.05318756774067879, -0.02123945578932762, 0.06990354508161545, 0.008750682696700096, 0.07870032638311386, 0.08933421969413757, 0.005732695106416941, 0.08609902113676071, 0.04809026047587395, -0.03353601694107056, 0.10454434156417847, 0.00049488345393911, 0.009782856330275536, -0.01188974641263485, -0.0318773128092289, -0.026619888842105865, 0.005025302525609732, 0.028207750990986824, 0.0010579483350738883, 0.07333683967590332, 0.08862904459238052, -0.03962032124400139, 0.0076176743023097515, -0.051980551332235336, 0.06233880668878555, 0.06395312398672104, 0.028716307133436203, 0.011619733646512032, 0.02585727348923683, -0.053275126963853836, 0.09793531149625778, -0.014395970851182938, 0.10188578069210052, -0.0014245490310713649, 0.046191196888685226, 0.037671320140361786, -0.009408853016793728, -0.05040856450796127, -0.02261875942349434, 0.002406298415735364, 0.04888715222477913, -0.025654681026935577, 0.01527766976505518, -0.030268240720033646, 0.0014811464352533221, 0.0867156907916069, 0.005002918187528849, 0.06435337662696838, 0.10004124790430069, -0.017506275326013565, -0.012170234695076942, 0.09083717316389084, 0.072971872985363, -0.0272664874792099, 0.04787563905119896, -0.04173217713832855, 0.039283864200115204, 0.09314459562301636, 0.04911834001541138, 0.04440934956073761, 0.06020466983318329, 0.02346942201256752, 0.09463341534137726, -0.0033976815175265074, -0.045513056218624115, -0.027704263105988503, -0.04100830852985382, -0.03810323029756546, 0.04441079869866371, 0.040313150733709335, 0.010274022817611694, 0.06580110639333725, -0.0008227510843425989, -0.0030213557183742523, 0.05114088952541351, -0.015566252171993256, 0.03161165118217468, 0.006171864457428455, 0.011933786794543266, 0.09422517567873001, -0.006223726086318493, -0.035216230899095535, 0.07640902698040009, -0.021732039749622345, 0.07345641404390335, 0.053459394723176956, 0.07723382115364075, -0.027503138408064842, 0.027509495615959167, -0.02491225115954876, 0.02920089289546013, 0.08822460472583771, 0.09861251711845398, -0.00393251096829772, -0.022182194516062737, 0.028972648084163666, 0.08463523536920547, -0.034360289573669434, 0.07282956689596176, -0.037194300442934036, 0.040901653468608856, -0.03291402384638786, 0.0718037411570549, -0.0012386355083435774, 0.02019980549812317, 0.0200465377420187, 0.015191493555903435, 0.035512715578079224, 0.019131217151880264, -0.0039384332485497, 0.06755123287439346, 0.03725750371813774, 0.07333312183618546, 0.0959622785449028, 0.029186230152845383, -0.0004895918536931276, -0.03867342695593834, -0.04993622004985809, 0.10505321621894836, -0.01455836370587349, -0.006397939752787352, 0.01902005635201931, 0.050072621554136276, -0.04593145474791527, 0.09074410051107407, 0.008036579936742783, 0.048429425805807114, -0.029667450115084648, -0.00460367975756526, 0.05717208981513977, -0.049093954265117645, 0.05900798365473747, 0.0025964814703911543, 0.057083096355199814, 0.010011011734604836, 0.011721299029886723, -0.010472883470356464, -0.047232192009687424, 0.026523303240537643, 0.014646412804722786, 0.07874513417482376, -0.03107115998864174, 0.0011857538484036922, 0.009885570965707302, -0.012296589091420174, -0.029521966353058815, -0.01780819334089756, 0.02683459408581257, 0.04909822717308998, 0.0807730108499527, 0.10318981111049652, 0.0016356019768863916, 0.0605112761259079, -0.007479487452656031, 0.09852293133735657, 0.03834432736039162, 0.0026508120354264975, 0.07757497578859329, 0.05193803459405899, -0.005721512250602245, 0.09678925573825836, 0.06582799553871155, 0.059184957295656204, 0.06051262468099594, 0.07597671449184418, 0.03624597191810608, 0.06368961930274963, 0.0886559933423996, 0.08353675901889801, 0.08052051812410355, -0.04569090157747269, 0.036343447864055634, -0.002699475735425949, -0.000946605228818953, 0.05865410342812538, 0.03815425559878349, 0.007555285003036261, 0.0006695865304209292, 0.09732769429683685, 0.04931369423866272, 0.05271712318062782, -0.04692509397864342, 0.049002137035131454, -0.008969715796411037, 0.05005626380443573, -0.04622049257159233, -0.03711032122373581, 0.02558767795562744, -0.02287415787577629, 0.03672818839550018, -0.026897147297859192, -0.049115944653749466, -0.007111529819667339, 0.013850659132003784, -0.0016836390132084489, -0.04219687730073929, -0.019432641565799713, 0.03961868956685066, 0.09350763261318207, -0.005444485228508711, 0.00511604780331254, -0.04694372043013573, 0.08109405636787415, 0.02450620010495186, -0.025427427142858505, 0.016698770225048065, 0.10323341190814972, -0.015282266773283482, 0.05222129821777344, -0.020619917660951614, -0.01244433131068945, -0.015915144234895706, 0.09989894926548004, 0.07351269572973251, 0.07769934087991714, -0.029065754264593124, -0.03474197909235954, 0.0585123635828495, 0.037290338426828384, 0.07108470052480698, -0.03564133122563362, 0.0009934583213180304, 0.019344421103596687, -0.0535309724509716, 0.09717574715614319, 0.09974551200866699, -0.03376777470111847, 0.05221990868449211, 0.08263113349676132, 0.10018205642700195, 0.028218301013112068, 0.05276685580611229, 0.005083449184894562, 0.09352748095989227, -0.02616209164261818, -0.051351044327020645, 0.04070696234703064, 0.029807383194565773, 0.035787880420684814, 0.03750694915652275, -0.004492682404816151, -0.02305283211171627, -0.020708050578832626, -0.04258694127202034, 0.1003672182559967, 0.08700335025787354, 0.04021704941987991, -0.05133597552776337, 0.017663270235061646, 0.04167887568473816, 0.05526149272918701, 0.01601395756006241, -0.03539596125483513, -0.0034956359304487705, -0.021064799278974533, -0.04793040454387665, 0.044241536408662796, 0.08210072666406631, -0.04857536032795906, 0.06591396778821945, -0.02113800309598446, 0.053090788424015045, -0.04576962813735008, 0.035771213471889496, 0.10604748129844666, 0.08001489192247391, 0.09266040474176407, -0.02831599861383438, 0.06134023889899254, 0.10020587593317032, 0.017889365553855896, 0.10248179733753204, -0.04598378762602806, 0.015156381763517857, -0.05037831887602806, -0.005904435180127621, -0.027820955961942673, -0.05122079700231552, -0.00271148094907403, 0.04392092302441597, 0.08438006043434143, 0.07231505960226059, 0.011007552966475487, 0.09305758774280548, -0.03626183047890663, -0.003513335483148694, 0.10167519003152847, -0.02598853036761284, 0.01685483753681183, 0.012744752690196037, 0.06409086287021637, 0.055609337985515594, 0.053631123155355453, 0.06631932407617569, 0.0736474096775055, 0.05053749307990074, 0.014574224129319191, -0.029696932062506676, 0.015217437408864498, 0.06381186097860336, 0.05175019055604935, -0.025309359654784203, 0.014080565422773361, 0.053079672157764435, 0.020118827000260353, -0.0011321378406137228, -0.021947277709841728, 0.0922442078590393, 0.09450673311948776, 0.09004314988851547, 0.00851606484502554, 0.10286829620599747, -0.01886540651321411, 0.1012776792049408, -0.03460976853966713, 0.061987437307834625, -0.055460125207901, 0.022545555606484413, 0.008672939613461494, 0.08749635517597198, 0.02897302806377411, -0.0351264663040638, 0.0504467710852623, -0.004968840628862381, -0.05487111583352089, -0.045007869601249695, -0.015086574479937553, 0.10143672674894333, 0.09076494723558426, 0.0896674394607544, 0.06911608576774597, 0.011227049864828587, 0.0683889240026474, -0.0018510919762775302, 0.0014079135144129395, 0.013514036312699318, 0.05250443518161774, 0.0656156986951828, 0.08239720016717911, -0.04099378362298012, 0.10174247622489929, 0.09196949005126953, 0.04961510747671127, 0.028849715366959572, 0.1026601493358612, -0.00428393017500639, 0.005570617970079184, 0.06035808473825455, 0.03896058350801468, -0.005779541563242674, 0.07968520373106003, 0.006873089354485273, -0.03509379178285599, 0.04018962010741234, -0.009923671372234821, 0.025740304961800575, -0.03241473436355591, 0.02371307648718357, 0.06418775022029877, 0.09824534505605698, -0.004611910320818424, -0.016708506271243095, -0.04183439910411835, -0.016212038695812225, 0.0686793103814125, 0.08414987474679947, -0.025072578340768814, 0.008277101442217827, -0.04160737618803978, -0.02754472754895687, -0.03307021036744118, 0.0009015978430397809, 0.0689130499958992, -0.03695524483919144, 0.008940397761762142, 0.07628536969423294, 0.10008642077445984, -0.018993986770510674, -0.012670389376580715, 0.051662951707839966, 0.01483361516147852, 0.01796003244817257, 0.08042239397764206, 0.00545512605458498, 0.015042886137962341, -0.024219851940870285, 0.054473839700222015, 0.016972852870821953, -0.011525929905474186, 0.09310343116521835, 0.031009383499622345, -0.012626965530216694, 0.026811033487319946, -0.002311559859663248, 0.05994584411382675, 0.10025208443403244, 0.07373746484518051, 0.06805156171321869, 0.08779170364141464, 0.03695225343108177, 0.08927790075540543, 0.08488134294748306, -0.04466537758708, -0.030323853716254234, 0.07497502863407135, 0.01216805912554264, -0.016535809263586998, 0.08583297580480576, 0.09758619219064713, 0.027064690366387367, 0.10338278114795685, 0.029539456591010094, 0.07424813508987427, -0.016274649649858475, -0.01910109631717205, -0.004763432778418064, -0.05141167342662811, 0.07861815392971039, 0.0377638153731823, 0.08900348842144012, -0.013188423588871956, 0.03987540304660797, 0.0032935794442892075, -0.05047953128814697, 0.03212343528866768, -0.03468867018818855, -0.019434455782175064, 0.014055379666388035, -0.04402428865432739, 0.09219863265752792, -0.024955665692687035, 0.04767310619354248, 0.09957902133464813, 0.08776085823774338, -0.03669394552707672, 0.07689066231250763, 0.06801744550466537, -0.01730639673769474, -0.049859583377838135, -0.05078563094139099, -0.034090835601091385, 0.09194014221429825, 0.07316242903470993, 0.022130170837044716, 0.06244654580950737, 0.07036245614290237, 0.07371161878108978, 0.08652234077453613, 0.006379697937518358, 0.03144793584942818, -0.042233940213918686, 0.012384830974042416, 0.030645761638879776, 0.007546680048108101, 0.08548934012651443, -0.0011045110877603292, 0.04171933978796005, -0.04052066057920456, 0.10523141920566559, 0.004271636717021465, 0.012030530720949173, 0.08216993510723114, 0.05521560460329056, 0.10394378751516342, 0.021392768248915672, 0.009473801590502262, 0.019923577085137367, 0.010573787614703178, -0.013412397354841232, 0.07633882015943527, 0.08840321749448776, -0.035674676299095154, 0.09072576463222504, 0.09971772879362106, 0.0521269254386425, -0.05236423760652542, -0.035466842353343964, 0.03479493409395218, -0.008473319932818413, -0.04275721684098244, -0.004174905829131603, 0.0027549813967198133, 0.08083004504442215, 0.05471745505928993, 0.03008493036031723, 0.06174686178565025, 0.020988579839468002, 0.04423956945538521, 0.10372786223888397, 0.00842226855456829, 0.10078001022338867, 0.05352018028497696, -0.010877642780542374, 0.041518684476614, 0.0062745604664087296, 0.007318208925426006, -0.004516421351581812, 0.10382343083620071, -0.05460793152451515, 0.08546464145183563, 0.0577937588095665, -0.0297048632055521, -0.04060439020395279, -0.033281635493040085, 0.017979884520173073, -0.04971986263990402, 0.05698112025856972, -0.05135609954595566, 0.07214932143688202, 0.06691481173038483, -0.028336383402347565, -0.0472010038793087, 0.03324487432837486, 0.047721702605485916, -0.05206361785531044, 0.08439277857542038, -0.04629011079668999, -0.04075296223163605, 0.020243173465132713, 0.036307044327259064, 0.005317301955074072, 0.06843607872724533, 0.05252474173903465, -0.05030496418476105, 0.01830735057592392, -0.054466359317302704, 0.07522642612457275, 0.06986767053604126, 0.07878781855106354, 0.09407162666320801, 0.014957128092646599, 0.09880878776311874, 0.04785686731338501, -0.030016005039215088, 0.1034083440899849, 0.05472317337989807, 0.029048459604382515, 0.10148730129003525, 0.04519665613770485, 0.09323542565107346, 0.07329106330871582, 0.07373414188623428, 0.10213231295347214, 0.005994456820189953, 0.10187865048646927, 0.08251733332872391, 0.04610901325941086, 0.045485496520996094, 0.03015807271003723, 0.024753974750638008, -0.013807290233671665, -0.0527876541018486, 0.08837749063968658, -0.015002676285803318, 0.10253816097974777, 0.05006375536322594, 0.09983690828084946, 0.03422127664089203, -0.007892284542322159, 0.045075614005327225, -0.0517609640955925, -0.019717702642083168, -0.04795655980706215, 0.10021678358316422, 0.002337593585252762, 0.09027382731437683, 6.222102820174769e-05, 0.04081013798713684, 0.06250882148742676, 0.08191221207380295, -0.02614450268447399, 0.054314758628606796, -0.0453629307448864, 0.06662558764219284, 0.08864425122737885, 0.08518590778112411, 0.070452481508255, -0.0074365693144500256, 0.07181946933269501, 0.020714621990919113, 0.062451981008052826, 0.09958699345588684, -0.0002690669207368046, 0.07250701636075974, 0.016987012699246407, -0.008650492876768112, 0.01990697719156742, 0.046163078397512436, 0.016591215506196022, -0.028705542907118797, 0.029567347839474678, -0.005306323058903217, 0.026266654953360558, 0.07848984003067017, -0.003680724184960127, 0.008604805916547775, 0.026922056451439857, -0.036749228835105896, -0.016788754612207413, -0.04552837461233139, -0.036119844764471054, -0.044034361839294434, 0.03061581403017044, 0.08676604926586151, -0.03648512810468674, 0.0006397842080332339, 0.08666141331195831, -0.04194536805152893, 0.08271428197622299, 0.022049281746149063, 0.020485829561948776, 0.02913617715239525, 0.09614606946706772, -0.04771136865019798, -0.041943516582250595, 0.08465173095464706, -0.02908734790980816, -0.0075444714166224, 0.007027860730886459, 0.08411085605621338, 0.01835436187684536, 0.07919055968523026, 0.028030062094330788, 0.09424333274364471, 0.029225463047623634, 0.007292496506124735, 0.012354486621916294, 0.09295827150344849, -0.03898371011018753, 0.017897527664899826, 0.09747779369354248, -0.026248155161738396, -0.029536012560129166, 0.006581940222531557, 0.02171395719051361, 0.026665426790714264, 0.064178466796875, 0.014166643843054771, -0.046791594475507736, -0.053458284586668015, 0.0018529986264184117, 0.08645810186862946, 0.08449259400367737, -0.05056815966963768, 0.03985430300235748, 0.10439865291118622, 0.004818649962544441, 0.05692068114876747, 0.038979124277830124, -0.01003684289753437, -0.03883017972111702, 0.0885515883564949, 0.0024925798643380404, -0.0014257315779104829, -0.013202104717493057, 0.05884199216961861, 0.06359414011240005, 0.06382550299167633, 0.0666855201125145, 0.01450793631374836, 0.09163614362478256, 0.08367730677127838, 0.09705804288387299, -0.01251672301441431, 0.037411969155073166, -0.010317646898329258, -0.004294547252357006, 0.09719660878181458, 0.05757145956158638, 0.04185627028346062, 0.023862406611442566, 0.04899033531546593, 0.017248762771487236, 0.024951690807938576, 0.06209145486354828, 0.09302058070898056, -0.05581620708107948, 0.04092249646782875, -0.03966207057237625, 0.022343536838889122, -0.014632592909038067, 0.049520812928676605, 0.039523642510175705, 0.05178653076291084, -0.003918131347745657, -0.002966552972793579, 0.021614888682961464, 0.08390580117702484, 0.0002597176644485444, -0.03586660698056221, 0.039203230291604996, 0.08880831301212311, 0.104766845703125, 0.06388768553733826, -0.021071048453450203, 0.06519659608602524, 0.06926169991493225, 0.07548564672470093, 0.04005640000104904, -0.012018760666251183, 0.09085963666439056, -0.00683890376240015, 0.00621500238776207, -0.02131354808807373, 0.09136888384819031, 0.0978698655962944, -0.04085974395275116, 0.002263890113681555, 0.10033368319272995, 0.09572327136993408, -0.012336382642388344, 0.043743059039115906, 0.04434240609407425, 0.009440968744456768, -0.010861863382160664], [0.008452718146145344, -0.0237595122307539, 0.07317890226840973, -0.043929144740104675, -0.0025224408600479364, -0.01678662747144699, 0.032997455447912216, -0.013106473721563816, 0.01968720555305481, -0.029451128095388412, 0.07493474334478378, 0.09217780828475952, 0.05972452834248543, 0.015359902754426003, 0.04964284598827362, -0.025330040603876114, -0.04575306922197342, 0.04532475769519806, -0.011346894316375256, 0.03326546400785446, 0.009744715876877308, 0.04554493725299835, 0.03532783314585686, 0.06390698254108429, 0.07893703877925873, 0.042989108711481094, 0.0641547292470932, 0.04108930379152298, 0.09429074078798294, 0.08960568904876709, 0.057796601206064224, 0.062363896518945694, -0.049544911831617355, -0.03155376762151718, 0.09283433854579926, -0.022946303710341454, 0.050449419766664505, 0.07760795950889587, 0.02530662715435028, 0.08372613042593002, 0.08107274025678635, -0.015643980354070663, 0.08901476860046387, 0.07534566521644592, 0.031260229647159576, -0.03935643658041954, 0.06547480821609497, 0.043705571442842484, 0.015474287793040276, -0.04056307673454285, 0.01471716444939375, -0.0527324452996254, 0.08095341175794601, -0.05184730887413025, 0.030485033988952637, -0.009091423824429512, -0.015453978441655636, -0.03148866444826126, -0.03347719460725784, -0.029354792088270187, 0.013554699718952179, -0.05106821656227112, 0.04615481570363045, -0.02454875037074089, 0.01928303949534893, 0.0621894896030426, 0.03658492490649223, 0.06695308536291122, 0.10060885548591614, 0.020601853728294373, 0.022164691239595413, -0.04790209233760834, -0.03930024802684784, -0.05963883548974991, -0.007561980746686459, -0.04946545511484146, -0.05297717824578285, 0.05630192533135414, 0.05044130980968475, -0.04731111600995064, 0.08191807568073273, 0.06449148803949356, -0.06006477028131485, 0.07739321142435074, 0.08612441271543503, -0.012275303713977337, -0.002998129930347204, 0.06177736818790436, 0.03450769558548927, -0.012172251008450985, -0.031057924032211304, 0.01887138932943344, 0.07461068034172058, 0.031022025272250175, 0.08554494380950928, -0.025586416944861412, 0.03488709405064583, 0.05350231006741524, 0.035181861370801926, 0.06967015564441681, -0.006213884800672531, -0.03864029422402382, 0.0903729796409607, 0.019560081884264946, -0.013656087219715118, -0.0005347748519852757, -0.028292089700698853, 0.05645604059100151, 0.03389763832092285, 0.020635612308979034, -0.04752187430858612, -0.02169971540570259, 0.05632545426487923, 0.09256545454263687, -0.013821636326611042, -0.012952612712979317, 0.04963935539126396, -0.035140909254550934, 0.09143797308206558, 0.0907169058918953, -0.035230450332164764, -0.05224398896098137, -0.05012107267975807, -0.006198490038514137, -0.006824151612818241, 0.030222995206713676, -0.04462139680981636, 0.010817322880029678, -0.05742466449737549, 0.09383896738290787, -0.002047262154519558, 0.007431473582983017, 0.08429175615310669, -0.05024408921599388, -0.005505789071321487, -0.013215648010373116, 0.02208218164741993, 0.08182789385318756, -0.03565709665417671, 0.05436325445771217, 0.0015086628263816237, 0.06823240965604782, 0.04480509087443352, 0.025616798549890518, -0.0034770150668919086, -0.036265548318624496, 0.09504486620426178, 0.03544260561466217, -0.03201852738857269, -0.04658467695116997, 0.003548844950273633, 0.053777072578668594, 0.07231420278549194, 0.03748860955238342, 0.07448709011077881, -0.0006388806505128741, -0.0521974116563797, -0.024667279794812202, 0.09294374287128448, -0.0027638061437755823, 0.08556743711233139, 0.004045053385198116, -0.057320430874824524, 0.09161519259214401, 0.01848633587360382, -0.012371457181870937, 0.06227842718362808, 0.06090898811817169, 0.03226591646671295, -0.060148801654577255, 0.0031036685686558485, 0.05867334455251694, -0.018463531509041786, 0.04542034864425659, 0.03115038387477398, 0.07715972512960434, 0.09517203271389008, 0.011364356614649296, 0.09689789265394211, 0.05711425840854645, -0.01843375712633133, 0.04329339414834976, -0.04196280986070633, -0.005370309576392174, 0.008769165724515915, 0.05168342590332031, 0.07411705702543259, -0.01937810145318508, 0.07514309138059616, 0.04864120110869408, -0.04021744802594185, -0.00885829608887434, 0.004411112051457167, 0.0543939545750618, -0.05272036790847778, 0.04149433597922325, -0.031079428270459175, -0.04696286469697952, 0.060249581933021545, 0.007874792441725731, 0.10041166096925735, 0.009247944690287113, -0.0027209992986172438, 0.032680146396160126, 0.062429070472717285, 0.008340882137417793, 0.014324472285807133, -0.06084539741277695, 0.06398588418960571, 0.03521548956632614, -0.04285331070423126, -0.016233084723353386, -0.01172274723649025, 0.09790679067373276, 0.021666496992111206, -0.02617221139371395, 0.08971238881349564, 0.009715710766613483, -0.026305021718144417, -0.046949755400419235, 0.03910640627145767, -0.03664319962263107, 0.04416757822036743, -0.05849604681134224, -0.03014380671083927, 0.008077752776443958, -0.002060792874544859, -0.02342350408434868, -0.0567101314663887, -0.054918788373470306, 0.010300662368535995, -0.024457698687911034, 0.04127625748515129, 0.07707825303077698, 0.0905890092253685, 0.0772814005613327, 0.10002673417329788, 0.04963577538728714, 0.05122428387403488, 0.09996327012777328, 0.007631905376911163, 0.04894525185227394, -0.025441501289606094, 0.0038165769074112177, 0.08900865912437439, 0.06941831856966019, -0.01732173189520836, -0.03555746376514435, 0.07777139544487, 0.02489645965397358, -0.0074390992522239685, 0.08080790936946869, -0.056414779275655746, 0.020080501213669777, 0.004825360141694546, 0.08647868037223816, 0.09570363909006119, 0.027781451120972633, -0.013574609532952309, -0.007412867154926062, 0.03297775238752365, -0.02616051957011223, 0.07415010035037994, -0.03682848438620567, 0.05236314982175827, 0.07609712332487106, 0.006327186711132526, 0.029300598427653313, 0.04697519913315773, -0.01742662861943245, 0.036621544510126114, 0.0008860602392815053, 0.06018104404211044, 0.05251448601484299, 0.06458986550569534, 0.027019813656806946, 0.07240483164787292, -0.058879364281892776, 0.06399475038051605, 0.020019331946969032, 0.08919961750507355, -0.03321826085448265, 0.07963799685239792, 0.06015880033373833, 0.07391399890184402, 0.0023655423428863287, -0.002915134420618415, 0.026963355019688606, -0.014583122916519642, 0.015560689382255077, 0.04378151148557663, 0.020518150180578232, 0.04372251033782959, -0.009792557917535305, 0.031213857233524323, 0.08838009089231491, 0.05868511274456978, 0.08506355434656143, 0.02828027307987213, 0.06293783336877823, 0.01159392949193716, 0.022510843351483345, 0.07742340862751007, -0.002178607974201441, -0.05241817981004715, 0.035699088126420975, 0.023922353982925415, 0.040215421468019485, -0.02677890844643116, 0.059173423796892166, -0.03914736956357956, 0.09704824537038803, -0.015793288126587868, 0.012892805971205235, 0.0482281818985939, 0.00013368771760724485, -0.042817480862140656, -0.0272148996591568, 0.04082369804382324, -0.02013210579752922, -0.03311946988105774, 0.08729956299066544, 0.06905239820480347, 0.045001257210969925, 0.09735671430826187, 0.02054617740213871, 0.04214911535382271, 0.018522771075367928, 0.05138680338859558, -0.016366027295589447, -0.034309037029743195, 0.02498440071940422, -0.021343717351555824, 0.06197121739387512, 0.0973634347319603, -0.05136914178729057, 0.031274549663066864, 0.031090911477804184, 0.02832847274839878, 0.024968963116407394, 0.08366689085960388, 0.01979030855000019, 0.004196845926344395, 0.040179360657930374, -0.002240191912278533, 0.09581270068883896, -0.03656807541847229, 0.04531962051987648, -0.0477098748087883, 0.0012174996081739664, -0.014423218555748463, 0.05461343005299568, 0.015746843069791794, 0.010218395851552486, 0.07772066444158554, -0.02448657713830471, 0.0861656442284584, 0.08088739961385727, -0.0021681131329387426, 0.08962921798229218, 0.005211507901549339, 0.05386507883667946, -0.020059147849678993, -0.014883359894156456, 0.0442233569920063, 0.010147328488528728, -0.0366402231156826, -0.00724846450611949, 0.09090322256088257, -0.009388490580022335, -0.009504413232207298, -0.004820943344384432, 0.0971686914563179, 0.08211912214756012, 0.030939387157559395, 0.0990811362862587, -0.024351434782147408, 0.017314700409770012, -0.05879461020231247, -0.014257729053497314, 0.029539436101913452, 0.08806829154491425, -0.008438186720013618, -0.022464154288172722, -0.021409546956419945, 0.05161458998918533, 0.05454683303833008, 0.054438479244709015, 0.06888841092586517, -0.052080605179071426, -0.04425549507141113, -0.02012816071510315, -0.0504622608423233, 0.04175352677702904, 0.09310542047023773, -0.00506097637116909, 0.042577825486660004, -0.009197838604450226, 0.008901259861886501, 0.05921013653278351, 0.007875951938331127, 0.012456255033612251, -0.005591291468590498, 0.08700119704008102, 0.026058055460453033, 0.0919855460524559, -0.040943343192338943, -0.06148882955312729, 0.07936730235815048, -0.05042295157909393, 0.06949120759963989, -0.028799287974834442, 0.042877983301877975, -0.029294410720467567, -0.039372216910123825, -0.04920399188995361, -0.030630026012659073, 0.07450691610574722, 0.01815437339246273, 0.06031297892332077, -0.040917035192251205, -0.05695538595318794, -0.012093381024897099, 0.037457361817359924, -0.018487947061657906, 0.06329096853733063, 0.0846518874168396, -0.039571523666381836, 0.08896372467279434, 0.02926681749522686, 0.03062293864786625, -0.01104869693517685, -0.020397717133164406, -0.029371505603194237, 0.07281837612390518, 0.09498124569654465, 0.07123211026191711, -0.05009640008211136, 0.03143352270126343, 0.050813622772693634, -0.018091214820742607, -0.0073745655827224255, 0.05025463178753853, 0.09670472890138626, 0.04645155370235443, -0.0237855426967144, 0.07557991147041321, -0.028060711920261383, 0.01730693317949772, 0.027494389563798904, -0.0534038208425045, -0.021295802667737007, 0.0085875503718853, -0.006735458970069885, -0.011481879279017448, 0.0066775791347026825, 0.030778586864471436, -0.00770565215498209, 0.05524229630827904, 0.053524237126111984, 0.03943067789077759, 0.05888354778289795, 0.07310866564512253, 0.01158873736858368, 0.017351236194372177, -0.025780335068702698, -0.03383759409189224, 0.035953570157289505, 0.06867867708206177, -0.009936349466443062, -0.004709154367446899, 0.02243967540562153, -0.05136796459555626, -0.03879597783088684, 0.0373278446495533, 0.06546521931886673, -0.05609717220067978, 0.03370802104473114, 0.03604796528816223, 0.0813409686088562, -0.014694083482027054, -0.04363840073347092, 0.05356166139245033, 0.010939096100628376, 0.014836981892585754, 0.00022009463282302022, 0.09143174439668655, -0.04319422319531441, 0.05276056006550789, 0.026964958757162094, -0.0007572840549983084, 0.01051456667482853, -0.044047653675079346, -0.03612476959824562, -0.03575564920902252, 0.09014420211315155, 0.06620440632104874, 0.06963140517473221, 0.05627821758389473, -0.012355777435004711, 0.040987636893987656, 0.06544087827205658, 0.07140623033046722, 0.03566708788275719, -0.05423886328935623, 0.0651579201221466, 0.041795335710048676, -0.003963973838835955, -0.02015734277665615, 0.0854937806725502, 0.05350374057888985, 0.09045566618442535, -0.04842948913574219, -0.0285598486661911, 0.08201075345277786, -0.04027458280324936, 0.03273298218846321, -0.060369040817022324, -0.03823934867978096, 0.05100053548812866, 0.02685343660414219, 0.018812913447618484, -0.04807211458683014, -0.00701826112344861, -0.02005554921925068, 0.01824057660996914, 0.019523346796631813, 0.060728173702955246, -0.046763826161623, 0.03379945084452629, 0.03947930410504341, 0.01891171745955944, 0.04891804978251457, -0.04040418192744255, 0.09294881671667099, 0.06887280941009521, -0.04568034037947655, -0.008983640931546688, 0.02787460945546627, 0.048096638172864914, 0.0048284828662872314, 0.09183766692876816, -0.04174696281552315, 0.03168536350131035, -0.02400047890841961, 0.09180343151092529, 0.0685282051563263, 0.056115102022886276, 0.01855475641787052, 0.07436606287956238, -0.01822597347199917, 0.04771049693226814, 0.0587775819003582, 0.010563897900283337, 0.006030736491084099, -0.008309265598654747, -0.021480021998286247, 0.06863975524902344, -0.029156820848584175, 0.0974152460694313, 0.07198704779148102, 0.07567175477743149, 0.0763382539153099, 0.014361197128891945, -0.024801425635814667, -0.0439610481262207, 0.03951101750135422, 0.08437183499336243, 0.08529867231845856, -0.054099224507808685, -0.03376036137342453, 0.04028402641415596, 0.08409059792757034, 0.0048764231614768505, 0.016116471961140633, 0.08241185545921326, 0.08247730135917664, -0.039761029183864594, -0.03821580484509468, -0.04444022849202156, 0.08266051858663559, 0.046813927590847015, -0.0609557218849659, 0.06445567309856415, 0.06210048124194145, 0.06142556294798851, 0.03326404467225075, 0.03206714987754822, 0.09003210812807083, 0.08841248601675034, 0.014914781786501408, 0.011018154211342335, 0.0371604859828949, -0.013261599466204643, -0.04182355850934982, 0.0934520736336708, 0.08039525151252747, 0.08663350343704224, -0.05958396568894386, 0.08708456158638, 0.08728435635566711, -0.035131748765707016, 0.0024493841920048, -0.008964545093476772, 0.09452091157436371, -0.009757809340953827, 0.03434734791517258, 0.047452326864004135, 0.0011385189136490226, -0.0033902530558407307, 0.09544286876916885, -0.03557773679494858, 0.0665033832192421, 0.001664843293838203, 0.02303776703774929, 0.09337184578180313, -0.04720738157629967, 0.05255432426929474, 0.05913417041301727, -0.023704925552010536, 0.04796366021037102, 0.07680513709783554, -0.016386786475777626, -0.01267183106392622, 0.10002879798412323, 0.027323568239808083, -0.02531764656305313, -2.2557811462320387e-05, 0.01198013685643673, -0.013706492260098457, -0.011824500747025013, 0.06047028303146362, 0.023690471425652504, 0.08844734728336334, -0.0528031624853611, 0.09735355526208878, 0.08355549722909927, -0.025874564424157143, -0.007180182263255119, -0.0007225115550681949, 0.005091219209134579, 0.09411308914422989, 0.014731924049556255, 0.0113832401111722, 0.06262314319610596, -0.005887874402105808, -0.0606670118868351, 0.025583015754818916, 0.016241149976849556, 0.04549369215965271, 0.014959157444536686, -0.025619082152843475, -0.02964555099606514, 0.04572458937764168, 0.0734235867857933, -0.04520032927393913, 0.036778636276721954, -0.025930674746632576, -0.04038424417376518, -0.047658007591962814, -0.04996143653988838, -0.057936638593673706, -0.05339434742927551, 0.0838700383901596, 0.06221996247768402, -0.046064745634794235, 0.0857422724366188, 0.07018580287694931, -0.046051859855651855, 0.09215127676725388, 0.05468909442424774, 0.0208501648157835, 0.03337761387228966, 0.005860199686139822, -0.032871995121240616, 0.08719334751367569, 0.06784763932228088, 0.09554655104875565, -0.050023794174194336, 0.09554329514503479, 0.09251884371042252, 0.0741947814822197, 0.002682759426534176, -0.014648357406258583, -0.055953364819288254, -0.01882156915962696, 0.05994449555873871, 0.06782100349664688, 0.08311236649751663, 0.035911332815885544, -0.028073256835341454, 0.08288352191448212, -0.06158193573355675, 0.043342284858226776, 0.053914397954940796, 0.08991564065217972, 0.07381109148263931, 0.011331414803862572, 0.026611456647515297, -0.02671332098543644, 0.05633411183953285, 0.031444448977708817, 0.05062421038746834, -0.04752578213810921, 0.08131367713212967, -0.05528148636221886, 0.07984618097543716, 0.06473098695278168, -0.05505142733454704, -0.038899827748537064, 0.04458930715918541, 0.05094289779663086, -0.03492247313261032, -0.05217145010828972, 0.0017824788810685277, 0.0994681641459465, -0.017835509032011032, 0.07183580100536346, -0.021257661283016205, 0.051660194993019104, 0.002618397818878293, 0.08516248315572739, 0.009526936337351799, -0.04468635097146034, 0.06980327516794205, 0.01418814342468977, 0.014464844949543476, 0.0749003067612648, 0.0658511146903038, 0.08774717897176743, 0.014576317742466927, -0.013966433703899384, 0.079033263027668, -0.04965529590845108, 0.09207114577293396, 0.0781647190451622, 0.004123227670788765, 0.07804669439792633, -0.026255978271365166, -0.012994537129998207, -0.04562718793749809, 0.0141085684299469, 0.06424126029014587, 0.07962951809167862, -0.02246423065662384, 0.09145819395780563, 0.06917691975831985, 0.03699341416358948, -0.04142073541879654, 0.05490167438983917, -0.027297131717205048, 0.017597947269678116, 0.08594512939453125, 0.007647657301276922, 0.05810603126883507, -0.056976284831762314, 0.056879978626966476, -0.0376751646399498, -0.034399550408124924, 0.08920655399560928, 0.010206487029790878, -0.015301520004868507, 0.02694249153137207, 0.07601237297058105, -0.04089953005313873, -0.0010509883286431432, 0.023324623703956604, 0.06465493142604828, 0.08351349085569382, -0.01092562172561884, -0.052263420075178146, -0.02132902480661869, 0.05519403517246246, 0.08470243215560913, 0.03758774697780609, 0.0911252573132515, 0.05846267193555832, 0.009908173233270645, -0.030310049653053284, -0.02222619391977787, 0.06876804679632187, -0.04624282941222191, 0.016487257555127144, 0.0002987032348755747], [0.016250787302851677, -0.07487744837999344, -0.08776969462633133, -0.062109529972076416, -0.0937071442604065, -0.002984762191772461, -0.08206232637166977, 0.050030723214149475, 0.02598337084054947, -0.07696270197629929, 0.06202293932437897, 0.04055767506361008, -0.07092142105102539, -0.0881953164935112, -0.09690647572278976, -0.04983985424041748, 0.022840993478894234, -0.07552140206098557, -0.08747011423110962, 0.029993688687682152, -0.0012899592984467745, 0.039503443986177444, 0.06332047283649445, 0.04817711189389229, -0.0751752108335495, -0.0568329393863678, -0.05316542088985443, -0.038739271461963654, 0.05718719959259033, -0.07723838090896606, 0.007247447967529297, 0.05912010371685028, -0.057351287454366684, 0.011556909419596195, 0.04291548579931259, 0.005264166742563248, -0.041500523686409, -0.033163461834192276, -0.04327370971441269, -0.062054816633462906, 0.004287057090550661, -0.09309688955545425, 0.055134840309619904, -0.08868303894996643, 0.022009531036019325, 0.04128401353955269, -0.06366578489542007, 0.05119176208972931, -0.030029771849513054, -0.06774789094924927, -0.006614175159484148, -0.02625807374715805, -0.02512209489941597, -0.09170475602149963, -0.024734104052186012, -0.0035935116466134787, -0.030090805143117905, 0.00014271285908762366, 0.05204589664936066, 0.0021134468261152506, 0.01113974954932928, 0.0434948094189167, 0.06348087638616562, -0.038796644657850266, -0.04014904424548149, 0.03149554505944252, -0.026619579643011093, 0.04980035871267319, 0.04189126566052437, 0.04819144681096077, 0.03400687873363495, -0.0038778644520789385, -0.006790767889469862, 0.01927272044122219, -0.08724898844957352, -0.014053241349756718, -0.015569478273391724, -0.013287772424519062, -0.037874940782785416, 0.04143914952874184, -0.048640307039022446, 0.03758411109447479, 0.05851283296942711, 0.002506366465240717, -0.09022325277328491, -0.053453024476766586, 0.027851874008774757, 0.02679632045328617, -0.03246225789189339, -0.07379226386547089, -0.01337921991944313, -0.00937377754598856, 0.036068398505449295, 0.02183650992810726, -0.0428658165037632, -0.056279830634593964, 0.007370597217231989, -0.08284284174442291, 0.051552802324295044, -0.0011592382797971368, 0.04937128350138664, -0.08423780649900436, -0.067398302257061, -0.028534529730677605, 0.033784378319978714, -0.03682955354452133, -0.008520755916833878, 0.02091715857386589, 0.0051788571290671825, -0.003040567971765995, 0.023303953930735588, 0.029957495629787445, 0.02555190771818161, -0.052001092582941055, 0.014934471808373928, -0.027028286829590797, -0.029750173911452293, 0.026824351400136948, 0.016837993636727333, -0.05849789083003998, -0.02791874296963215, -0.03831448778510094, -0.033769503235816956, -0.03939353674650192, -0.03989925980567932, -0.03623201698064804, -0.06789878010749817, -0.001614106586202979, 0.0032778477761894464, -0.016343755647540092, -0.054920971393585205, -0.06011597812175751, -0.007444160990417004, -0.04549683630466461, 0.008226619102060795, 0.04677143320441246, -0.024819448590278625, 0.011220450513064861, -0.01113723311573267, -0.04940829798579216, 0.0635322853922844, -0.002667707623913884, -0.004643497057259083, 0.005884241778403521, -0.004370660986751318, -0.023924998939037323, -0.061596568673849106, 0.027084173634648323, -0.022465864196419716, 0.041206009685993195, -0.029170051217079163, 0.05225026607513428, 0.006126875057816505, -0.07947039604187012, -0.007172099780291319, -0.06593639403581619, -0.06561535596847534, -0.08215854316949844, -0.04705745354294777, -0.014899312518537045, 0.025312533602118492, -0.05764955282211304, -0.03902353346347809, -0.08882609009742737, -0.07938868552446365, 0.005655139684677124, -0.09492186456918716, 0.032702092081308365, -0.03316458687186241, 0.015389535576105118, 0.015819931402802467, -0.04856693372130394, 0.003675790037959814, -0.027014728635549545, 0.029807347804307938, -0.09211019426584244, -0.07314550131559372, -0.011803882196545601, -0.06597244739532471, 0.04490150138735771, -0.0536612905561924, -0.021817857399582863, -0.009834760800004005, -0.09268717467784882, 0.03265504539012909, -0.07784071564674377, -0.00584175530821085, 0.027144668623805046, -0.006375428754836321, -0.0911174938082695, -0.07750268280506134, -0.034639276564121246, -0.0844980776309967, -0.08489155769348145, -0.06323161721229553, 0.003154132515192032, 0.035202305763959885, 0.036717355251312256, 0.03816574811935425, 0.005344639997929335, -0.027918852865695953, -0.08147262036800385, -0.0922083705663681, 0.044256791472435, -0.04908581078052521, -0.09320928901433945, -0.027358515188097954, -0.011274399235844612, 0.051003724336624146, -0.01509437058120966, 0.0539432130753994, 0.013467092998325825, -0.021839560940861702, -0.07224547863006592, 0.020779399201273918, 0.003626579651609063, -0.018404701724648476, -0.09125373512506485, -0.024122638627886772, -0.0235392227768898, -0.08115430176258087, -0.07099012285470963, 0.06032250076532364, -0.018111974000930786, -0.07000597566366196, 0.007948346436023712, -0.09043102711439133, -0.08451402187347412, -0.0027311223093420267, -0.03287558630108833, 0.0030682531651109457, 0.04275980591773987, -0.0008543680305592716, -0.048537805676460266, -0.06354855746030807, -0.033524271100759506, 0.06148020550608635, -0.09189847856760025, -0.059876274317502975, 0.029573116451501846, -0.05623599514365196, 0.0121693667024374, -0.09200587868690491, 0.06006183847784996, 0.06299805641174316, -0.023399947211146355, 0.008847171440720558, -0.062281522899866104, -0.0006377152749337256, -0.09445922821760178, -0.08084627985954285, 0.04275669902563095, 0.010887973010540009, -0.04752783477306366, -0.09382567554712296, 0.0009831003844738007, 0.0604860782623291, 0.06353981792926788, -0.04843665286898613, -0.01899416744709015, 0.05826505646109581, -0.0027761084493249655, 0.061615388840436935, -0.04621325060725212, -0.03920115530490875, -0.09500057250261307, -0.06076621636748314, 0.055544059723615646, -0.05201781913638115, -0.08787896484136581, -0.039124272763729095, 0.037150539457798004, 0.018857330083847046, -0.03787771612405777, -0.09160730242729187, 0.02823985554277897, 0.029930708929896355, 0.04655113443732262, -0.04901951178908348, -0.028717711567878723, -0.025135818868875504, 0.016652630642056465, -0.06431573629379272, 0.011476759798824787, 0.04094260558485985, -0.08252067118883133, -0.07507217675447464, 0.006741276476532221, -0.037868622690439224, -0.0621708445250988, -0.06406329572200775, -0.037515461444854736, -0.05050782486796379, -0.017832033336162567, 0.040409404784440994, -0.06323271244764328, -0.066934734582901, -0.06861917674541473, -0.02531239204108715, 0.012878891080617905, 0.05203358083963394, 0.05721040442585945, -0.09648673236370087, 0.04364499822258949, -0.03479066863656044, -0.056924428790807724, 0.014802997931838036, -0.007107337471097708, 0.017585381865501404, 0.04940718784928322, -0.0193987675011158, 0.05641065910458565, -0.020747816190123558, 0.0636918693780899, 0.05824019014835358, -0.020103784278035164, -0.06284744292497635, -0.02009361796081066, 0.027358481660485268, -0.09271421283483505, 0.033287547528743744, -0.03377716615796089, -0.016832444816827774, 0.05379771068692207, 0.03805927187204361, -0.05592609569430351, -0.020514478906989098, -0.02202325500547886, -0.01760512962937355, -0.0673970878124237, -0.04765711724758148, -0.03410029411315918, -0.08396231383085251, -0.09594208002090454, 0.012647280469536781, -0.0679156705737114, -0.05181673541665077, -0.04567089304327965, 0.015078499913215637, -0.05877283588051796, 0.06378086656332016, 0.03541013225913048, -0.03268808498978615, -0.07341650873422623, -0.06981457769870758, -0.001168761751614511, -0.07180353254079819, 0.0499698743224144, 0.006017052102833986, -0.005756251979619265, 0.025957772508263588, -0.08508559316396713, 0.0057364231906831264, 0.03633463755249977, 0.018940361216664314, 0.04226834699511528, 0.060078270733356476, -0.029423244297504425, 0.05139833688735962, 0.062438152730464935, -0.08472500741481781, -0.052224427461624146, -0.07476568967103958, 0.02612321265041828, 0.020576858893036842, -0.04203816503286362, 0.026563001796603203, -0.012928281910717487, 0.04791281372308731, -0.07364930957555771, -0.08149488270282745, -0.023857733234763145, -0.07052821666002274, -0.00842635240405798, -0.03315171226859093, -0.05673034116625786, 0.00899695884436369, -0.08301102370023727, 0.015040288679301739, -0.09213578701019287, -0.02160368487238884, -0.09177340567111969, 0.028563449159264565, 0.03557225689291954, 0.03182751312851906, -0.06753499805927277, -0.03915274888277054, -0.03821443393826485, 0.010568230412900448, 0.057313933968544006, 0.021363159641623497, 0.001049448736011982, -0.08423842489719391, -0.06251441687345505, 0.023080138489603996, -0.07777317613363266, 0.0404578372836113, 0.012328903190791607, -0.0734594464302063, 0.038404155522584915, -0.0515126995742321, -0.012458384968340397, -0.07487265020608902, 0.03604482114315033, 0.03146853670477867, -0.020605338737368584, -0.028530992567539215, -0.048207420855760574, -0.051140956580638885, 0.02767418511211872, 0.04121910780668259, -0.0607665479183197, -0.05434594675898552, -0.00040358881233260036, -0.008899123407900333, 0.008990241214632988, 0.01667407713830471, -0.0778590515255928, 0.062162622809410095, -0.08600460737943649, 0.015130850486457348, 0.06394896656274796, -0.0753265842795372, 0.04813332110643387, -0.08696292340755463, -0.0509270541369915, -0.0365971103310585, -0.09068703651428223, 0.06108873710036278, 0.041229721158742905, -0.08619368821382523, -0.09537352621555328, 0.01020197942852974, 0.03193536773324013, 0.01844581589102745, -0.05799843370914459, 0.05104425549507141, 0.03720301389694214, -0.037341050803661346, 0.039303284138441086, -0.011398090049624443, -0.07991398125886917, 0.036642640829086304, -0.0012509057996794581, -0.037287186831235886, -0.07560638338327408, -0.05413496121764183, -0.09289056807756424, -0.03411274403333664, -0.09086412191390991, 0.019103409722447395, -0.011563613079488277, 0.04085301235318184, 0.013887600973248482, -0.019835911691188812, -0.09465957432985306, -0.04867365211248398, -0.020428068935871124, -0.06155700981616974, -0.07839163392782211, -0.016427278518676758, -0.05599824711680412, -0.07052332162857056, -0.0575653500854969, 0.040915727615356445, -0.03928180783987045, 0.03504238277673721, -0.0056974259205162525, 0.06164237856864929, -0.08213888853788376, -0.017685186117887497, 0.00389105430804193, -0.0773959532380104, -0.07659992575645447, -0.089007668197155, -0.04411792382597923, 0.030343636870384216, 0.04459675773978233, -0.006962980143725872, 0.018509723246097565, 0.04356254264712334, 0.015272337011992931, 0.00040349006303586066, 0.052460722625255585, -0.07204853743314743, -0.004694216884672642, 0.02149827778339386, -0.008196672424674034, -0.07892438024282455, -0.0008801884250715375, 0.04697633162140846, 0.03010357916355133, 9.467649942962453e-05, 0.061701349914073944, 0.012948750518262386, 0.06467971950769424, 0.055778730660676956, 0.006901420187205076, -0.08035460859537125, -0.05624280497431755, -0.0152013273909688, -0.026356931775808334, -0.09188598394393921, -0.062358658760786057, 0.050308726727962494, -0.03443778306245804, -0.06772559136152267, 0.05181233584880829, -0.06929192692041397, -0.0037704226560890675, -0.08094913512468338, 0.04601231962442398, 0.016783906146883965, -0.03816758841276169, -0.002354046329855919, -0.04169779270887375, 0.0025238569360226393, -0.09227097779512405, 0.012485790997743607, -0.04511886462569237, 0.058258987963199615, 0.015832066535949707, -0.036290526390075684, 0.03988184034824371, 0.058209918439388275, -0.03524360433220863, 0.024514269083738327, -0.07938994467258453, -0.07922939956188202, -0.07292184978723526, 0.0014058618107810616, -0.06111454218626022, -0.011724238283932209, -0.015437102876603603, -0.00435736496001482, 0.02924664504826069, -0.06522197276353836, -0.08263210952281952, 0.016939111053943634, 0.05682453140616417, -0.004147494677454233, 0.02601569890975952, -0.030482549220323563, 0.011615014635026455, 0.059134289622306824, -0.00710579426959157, -0.09373579919338226, 0.05496630445122719, -0.008692299015820026, -0.036768216639757156, -0.051503151655197144, 0.03482000157237053, -0.020408697426319122, 0.04923533275723457, -0.08771990984678268, 0.0614788681268692, -0.06703140586614609, -0.00016168388538062572, 0.03995763510465622, -0.009707502089440823, 0.030982937663793564, -0.08476820588111877, -0.04488261416554451, 0.015714917331933975, 0.05246751010417938, 0.0502549447119236, 0.030402926728129387, 0.027254585176706314, -0.09022306650876999, -0.06601532548666, 0.06317152827978134, 0.03882211446762085, -0.07296089828014374, -0.06717126816511154, -0.04895567521452904, 0.018999464809894562, -0.03330008313059807, -0.05443496257066727, -0.07793915271759033, 0.013991846702992916, 0.003709397278726101, -0.07646328955888748, -0.09730493277311325, 0.0535300150513649, -0.02866462618112564, -0.014172853901982307, -0.04953202232718468, 0.047729577869176865, 0.041422683745622635, 0.04773206263780594, 0.021050933748483658, -0.07385192066431046, -0.023461436852812767, -0.050439052283763885, -0.05492684617638588, 0.05186797305941582, -0.01026387419551611, -0.05237029492855072, -0.08176489919424057, -0.03487077355384827, -0.011567053385078907, -0.01296175830066204, -0.09271916002035141, -0.05162236467003822, 0.029013438150286674, 0.04585129767656326, -0.05177050456404686, 0.04668411239981651, 0.014433286152780056, 0.038914091885089874, -0.06381156295537949, -0.046318888664245605, 0.014602625742554665, 0.014289106242358685, 0.045663122087717056, 0.025375891476869583, 0.018192416056990623, -0.08699677884578705, -0.0014087120071053505, 0.014825941994786263, -0.03675670921802521, 0.021205568686127663, 0.038916219025850296, -0.06720947474241257, 0.05917783081531525, 0.02781030535697937, -0.08084604144096375, -0.06917737424373627, -0.04975017532706261, -0.024065300822257996, 0.05774558335542679, 0.01169195119291544, -0.067071832716465, -0.03810610994696617, -0.08214035630226135, -0.003867137711495161, -0.08387408405542374, 0.06294281035661697, -0.04761349782347679, -0.06800038367509842, -0.07929832488298416, -0.07666392624378204, -0.09684958308935165, -0.057142894715070724, 0.049539096653461456, -0.058946672827005386, 0.06411030143499374, 0.037767037749290466, -0.001570440363138914, 0.002168879145756364, 0.004216482862830162, 0.05255282297730446, -0.04710811749100685, -0.049025408923625946, -0.027703389525413513, -0.027860915288329124, 0.03940695896744728, 0.019775284454226494, 0.020723622292280197, -0.0012891552178189158, 0.010218449868261814, -0.0885925143957138, -0.0673798993229866, 0.04776487126946449, 0.035374607890844345, -0.0625256672501564, -0.062299348413944244, -0.07591816037893295, 0.022774729877710342, -0.03586484119296074, -0.09275318682193756, 0.05677405372262001, 0.020039038732647896, 0.027881193906068802, -0.06865779310464859, 0.033998675644397736, -0.005996613763272762, -0.005491997115314007, -0.018157079815864563, 0.06187274679541588, -0.005980648100376129, -0.06011294201016426, 0.044712912291288376, 0.007893943227827549, 0.027300061658024788, -0.017665425315499306, -0.010173923335969448, 0.010279268957674503, 0.03567192330956459, 0.03039584308862686, -0.010387198999524117, -0.03951564058661461, -0.0878816768527031, -0.07840050011873245, -0.07959545403718948, 0.035234469920396805, -0.08922203630208969, 0.023312123492360115, 0.022086763754487038, 0.001943384064361453, -0.07389825582504272, -0.06286680698394775, -0.09696340560913086, -0.03765247017145157, -0.03299536183476448, -0.05606042966246605, 0.011884674429893494, -0.06961919367313385, -0.05862988531589508, 0.06056853011250496, -0.07472138106822968, 0.006851935293525457, -0.05460628494620323, -0.01803937926888466, 0.05441346764564514, -0.05900784209370613, -0.013805337250232697, 0.005701412912458181, -0.05085868015885353, 0.019645806401968002, -0.035253796726465225, 0.023971622809767723, -0.06913284957408905, 0.05108826979994774, 0.027358654886484146, -0.013704055920243263, -0.05323416739702225, 0.04957079142332077, -0.07119221240282059, 0.0450189933180809, 0.046881914138793945, 0.015348357148468494, -0.08350515365600586, -0.05731719359755516, -0.07566628605127335, -0.06502452492713928, -0.01563989371061325, -0.06281769275665283, 0.04217008501291275, -0.09258393943309784, 0.0487653985619545, -0.08122069388628006, -0.029834143817424774, 0.005287619773298502, -0.03589995205402374, 0.05359072983264923, -0.05097600445151329, -0.062101252377033234, -0.0766635313630104, 0.019953563809394836, -0.012739334255456924, -0.05764763802289963, -0.06406815350055695, 0.01129524689167738, -0.004961659200489521, 0.016374634578824043, -0.0611334890127182, -0.09298280626535416, -0.04506323114037514, -0.012027153745293617, 0.019760917872190475, -0.08181551098823547, 0.005820327904075384, -0.025200137868523598, -0.07414388656616211, -0.046315789222717285, 0.03644329309463501, -0.04326462000608444, 0.05276622250676155, 0.02774764411151409, -0.04916125535964966, -0.0870770737528801, -0.05837556719779968, -0.015653450042009354, -0.01581125520169735, 0.0629010871052742, -0.07586263865232468, -0.03919179365038872, 0.05733992159366608, 0.05720878019928932, -0.0054610176011919975, -0.06183796003460884, -0.06198961287736893, 0.03130362182855606], [-0.08560480922460556, -0.007472351659089327, -0.05779333412647247, 0.004351459909230471, 0.024987660348415375, 0.01903066225349903, 0.06462439149618149, -0.007586305029690266, 0.023341508582234383, 0.03533577919006348, -0.0733572393655777, -0.01059139333665371, 0.025252601131796837, -0.08562967926263809, -0.07397393882274628, -0.059840764850378036, -0.09701070934534073, -0.005414062179625034, -0.08015599846839905, -0.014787675812840462, -0.06729961186647415, 0.018333975225687027, -0.09451476484537125, -0.06848263740539551, -0.0064387088641524315, 0.008861667476594448, -0.024427639320492744, -0.07527455687522888, -0.03489184007048607, 0.04574313014745712, -0.010854636318981647, 0.022225428372621536, -0.06569627672433853, -0.024049077183008194, -0.0935150682926178, -0.010845523327589035, 0.03874883055686951, -0.08030852675437927, -0.06853239983320236, 0.0342935211956501, 0.0429573692381382, -0.0937509536743164, -0.0917552039027214, -0.0003426505427341908, 0.055124007165431976, -0.008519782684743404, 0.009472030214965343, -0.036483682692050934, 0.05722562223672867, 0.012953736819326878, 0.06438816338777542, -0.09658359736204147, -0.028071483597159386, -0.08540221303701401, -0.00788718368858099, 0.025808921083807945, -0.030323034152388573, 0.0005911266780458391, 0.045310113579034805, -0.07022660970687866, 0.0011072306660935283, 0.03658532723784447, 0.052408237010240555, 0.05323115736246109, -0.08788641542196274, -0.07788476347923279, -0.028270520269870758, -0.04862317442893982, -0.06476111710071564, -0.002113703405484557, -0.0849018543958664, -0.08294825255870819, -0.030858173966407776, -0.09716026484966278, -0.031623076647520065, -0.03773846849799156, -0.048828814178705215, -0.02486513741314411, 0.005998262669891119, 0.016840161755681038, -0.09503185749053955, 0.04139075428247452, 0.036217574030160904, 0.02649691142141819, 0.02435510791838169, -0.08255384862422943, 0.007037322036921978, 0.052149638533592224, -0.06796065717935562, -0.08085417002439499, 0.06439529359340668, 0.05745238438248634, -0.04656940698623657, 0.005156342405825853, 0.017340991646051407, -0.034247443079948425, 0.056105539202690125, -0.00386065780185163, -0.02999010682106018, -0.0649033933877945, -0.0047950646840035915, -0.057155970484018326, -0.03972402215003967, -0.0031853672116994858, 0.05370642617344856, 0.028320463374257088, -0.04944879189133644, -0.011763675138354301, -0.04448079317808151, -0.014727639965713024, 0.02076052874326706, 0.01188245415687561, -0.08611978590488434, -0.09086734801530838, -0.03050415590405464, -0.002295468933880329, -0.096884585916996, 0.009883027523756027, -0.0006726841093041003, -0.07289072126150131, 0.0042914459481835365, -0.07841631025075912, 0.011702083051204681, -0.0834868922829628, 0.04910030588507652, -0.02604183368384838, -0.0656236857175827, -0.014874231070280075, 0.01664561964571476, 0.005220179446041584, -0.06804947555065155, 0.004163962788879871, -0.08684743195772171, -0.0492483414709568, 0.034456413239240646, 0.0013946532271802425, 0.018290651962161064, -0.024276582524180412, -0.03570174798369408, 0.01973062939941883, 0.05065741017460823, 0.045269161462783813, 0.02925785258412361, 0.04678809642791748, -0.04813941940665245, 0.011941364035010338, -0.030467716977000237, 0.027192840352654457, 0.0006047391216270626, -0.0018305693520233035, -0.04831048473715782, -0.09113209694623947, -0.0046850088983774185, -0.04021049663424492, -0.03821081668138504, -0.08125266432762146, -0.026248643174767494, 0.018253695219755173, 0.03256462886929512, 0.04439345374703407, -0.08557060360908508, -0.07798716425895691, -0.0916111022233963, 0.04715939238667488, -0.08974581956863403, -0.005117502529174089, -0.07275522500276566, -0.01093896385282278, 0.015356452204287052, -0.06627029925584793, -0.04209861159324646, 0.04580528289079666, -0.02394983544945717, -0.06637483090162277, -0.04841282591223717, 0.006504580844193697, -0.034761954098939896, -0.07263895869255066, -0.04930133372545242, -0.074630007147789, 0.057616669684648514, -0.020556654781103134, 0.010187797248363495, -0.01668679714202881, -0.06779909878969193, -0.07214398682117462, -0.06660135835409164, 0.01071110274642706, 0.02889283187687397, -0.0663108229637146, 0.0008779969648458064, -0.03975827619433403, -0.08073338866233826, -0.04912097007036209, -0.01456590835005045, 0.025534357875585556, -0.06360635161399841, -0.04295045882463455, -0.031209081411361694, -0.031613823026418686, -0.014746357686817646, 0.05500350892543793, 0.052599068731069565, 0.0555599182844162, -0.09418544918298721, 0.04527418315410614, 0.018014071509242058, -0.054338645190000534, -0.027024390175938606, 0.048232097178697586, 0.04024849832057953, -0.08645898848772049, 0.03904100880026817, -0.07691377401351929, 0.040491268038749695, -0.053848110139369965, 0.033929768949747086, -0.05939927697181702, -0.020659659057855606, 0.012598125264048576, 0.005360185168683529, -0.07453052699565887, -0.018561599776148796, 0.03304602950811386, 0.008618327789008617, -0.000335113174514845, 0.05010388791561127, -0.07340813428163528, 0.006469698157161474, 0.029359998181462288, -0.09247556328773499, 0.031855519860982895, -0.01738164946436882, -0.05991586297750473, -0.0666666328907013, 0.009074249304831028, 0.059817519038915634, 0.03460507094860077, -0.03122008964419365, -0.0350554957985878, -0.03577585145831108, 0.05668517202138901, -0.06690338253974915, -0.047223467379808426, 0.05340065434575081, 0.010495361872017384, 0.030136391520500183, 0.018175045028328896, -0.06519300490617752, 0.026678750291466713, -0.0502001978456974, 0.02231297641992569, -0.03065764345228672, 0.012861236929893494, 0.04264191538095474, -0.09500811249017715, 0.052379172295331955, -0.04905341938138008, -0.02790408954024315, -0.08525113016366959, 0.05571974068880081, -0.06420888006687164, -0.0009604937513358891, -0.06878238916397095, 0.03498917445540428, 0.04556887596845627, 0.05381111055612564, 0.06286194920539856, -0.03261078894138336, 0.03567708656191826, 0.05062789097428322, 0.02733871154487133, -0.06169785559177399, 0.015013203024864197, -0.03520531207323074, 0.018633484840393066, 0.003922106698155403, -0.015126971527934074, 0.03935030847787857, -0.06267549097537994, -0.0095867570489645, -0.03255327790975571, -0.04377257451415062, -0.06309434771537781, -0.09503395110368729, 0.027660280466079712, 0.0421014241874218, 0.01848027855157852, -0.021753260865807533, -0.056910693645477295, 0.014314600266516209, 0.059057094156742096, -0.05832545831799507, 0.021746547892689705, -0.018650883808732033, -0.024503927677869797, 0.020580627024173737, 0.004094985313713551, -0.04018574208021164, -0.06815725564956665, -0.06652336567640305, -0.07154440879821777, -0.03936734423041344, -0.06812553107738495, 0.034635886549949646, -0.08232936263084412, 0.007113882340490818, 0.04830857366323471, -0.006650308612734079, -0.03936057165265083, -0.09609169512987137, -0.05881692096590996, -0.08199093490839005, -0.09722847491502762, 0.01521126925945282, -0.00681063299998641, 0.001609638798981905, -0.03338048607110977, -0.07010522484779358, 0.01737077906727791, 0.02358052134513855, 0.05791353061795235, -0.02173740789294243, -0.03850536793470383, -0.050558410584926605, -0.031109942123293877, -0.08225808292627335, -0.009910094551742077, -0.0018774180207401514, -0.09445551037788391, -0.019975334405899048, -0.04869072884321213, 0.040111903101205826, -0.021790537983179092, -0.06229214742779732, 0.018935440108180046, -0.03961426392197609, -0.05408814176917076, 0.0608782023191452, 0.013609606772661209, 0.04492662101984024, -0.017477771267294884, -0.02422255463898182, -0.08661524951457977, 0.026082979515194893, -0.09516199678182602, -0.036301229149103165, -0.05043880268931389, 0.05649266391992569, -0.08242114633321762, -0.08833808451890945, -0.06816637516021729, 0.019145306199789047, -0.0643739402294159, 0.03516317158937454, 0.05341845750808716, 0.04899273440241814, 0.031839314848184586, 0.06358378380537033, 0.050614651292562485, 0.026872318238019943, -0.014898775145411491, -0.00037142186192795634, 0.008251297287642956, -0.07200278341770172, -0.050084978342056274, 0.02333805337548256, -0.0673135444521904, 0.036694128066301346, -0.07538038492202759, -0.011045519262552261, -0.006780808325856924, -0.05851144716143608, 0.021011661738157272, 0.04143429920077324, 0.05653505399823189, -0.010833599604666233, -0.051675740629434586, 0.02623637393116951, 0.04099220409989357, -0.06467735022306442, -0.04867742583155632, -0.004518450237810612, -0.0920337438583374, 0.011055031791329384, -0.07429640740156174, -0.04628663882613182, -0.07929796725511551, -0.08216512203216553, -0.0176113098859787, -0.06259668618440628, -0.06684226542711258, -0.09241893887519836, -0.05388972535729408, 0.026669222861528397, -0.03848991170525551, 0.01147424802184105, 0.05758732929825783, 0.06387908011674881, 0.040106140077114105, -0.09369223564863205, -0.05428048595786095, 0.04291027784347534, -0.0824703797698021, -0.08771168440580368, 0.025611773133277893, -0.039359692484140396, 0.03343893960118294, -0.006902665365487337, 0.00882344413548708, -0.012218056246638298, 0.03763957694172859, -0.04339440166950226, -0.09201980382204056, -0.06481433659791946, -0.016862256452441216, -0.02707739919424057, 0.0490993969142437, -0.05654682219028473, -0.09177324920892715, 0.034849733114242554, 0.05847123637795448, -0.013027695938944817, 0.04128415510058403, -0.04366877302527428, -0.0472884476184845, -0.0636322945356369, 0.06213707849383354, -0.04446330666542053, 0.038769204169511795, -0.0015564137138426304, -0.03127148747444153, -0.06301867216825485, 0.012191860936582088, 0.025812434032559395, -0.013410179875791073, -0.016264304518699646, 0.034411314874887466, -0.08212510496377945, -0.04710710793733597, -0.04643964394927025, -0.09735643118619919, 0.0004152874753344804, 0.02248670533299446, -0.03300125524401665, -0.009754866361618042, 0.01021988783031702, -0.018640492111444473, -0.0321773961186409, 0.05579926073551178, 0.04278208687901497, 0.02205723524093628, 0.058590009808540344, -0.02216080203652382, -0.06618896871805191, 0.0630735456943512, 0.06375005096197128, 0.055369891226291656, -0.04672771319746971, -0.009970835410058498, -0.05679459497332573, 0.0267600379884243, -0.08832874149084091, -0.012000849470496178, 0.036176539957523346, -0.04693187400698662, -0.0961410254240036, -0.024685315787792206, -0.045775920152664185, 0.04311969876289368, 0.028022443875670433, 0.043518900871276855, -0.032809656113386154, -0.07368332147598267, -0.05876024812459946, 0.05937139317393303, -0.08879285305738449, -0.04942626878619194, -0.06992896646261215, -0.016835493966937065, -0.0406353734433651, 0.04157012701034546, -0.014847085811197758, 0.012946085073053837, -0.0892276018857956, 0.043334584683179855, 6.344432040350512e-05, 0.06398466229438782, -0.09596733748912811, -0.0004921354702673852, -0.03943459689617157, -0.06146465241909027, -0.006698946002870798, 0.042000606656074524, -0.08470715582370758, -0.002480159979313612, -0.09431660175323486, -0.01748274452984333, -0.021253114566206932, -0.030383745208382607, 0.04685313627123833, -0.03843369334936142, -0.08834580332040787, -0.03483036905527115, -0.08179569989442825, -0.03977552428841591, 0.05735339969396591, 0.014481248334050179, -0.03249581530690193, 0.006506939418613911, -0.0783454030752182, -0.09677662700414658, -0.09672627598047256, -0.002712131943553686, 0.035017143934965134, 0.06342530995607376, -0.0714438408613205, -0.00015433509543072432, 0.04594627767801285, -0.03143036365509033, 0.023250695317983627, -0.05666327849030495, 0.04459860920906067, 0.01028948463499546, -0.05638766661286354, -0.02206236682832241, -0.08962085098028183, 0.055023953318595886, 0.06332369893789291, -0.016905762255191803, 0.042196113616228104, -0.03773518651723862, 0.032497338950634, 0.0014760022750124335, -0.03557812049984932, -0.015069130808115005, -0.04145283252000809, 0.04550924897193909, -0.09361791610717773, 0.02761777490377426, 0.03553684800863266, -0.034128837287425995, -0.0769248679280281, -0.03702474385499954, -0.03715748339891434, -0.005029953084886074, 0.04255213215947151, -0.0022689749021083117, -0.053600262850522995, 0.04512332007288933, 0.017331961542367935, 0.041083984076976776, -0.044896479696035385, 0.018026204779744148, -0.01648169942200184, -0.056697994470596313, -0.05155836418271065, -0.06842932105064392, -0.08071696013212204, 0.03909572958946228, -0.06530426442623138, -0.007821598090231419, -0.06138290464878082, 0.009599217213690281, -0.07344351708889008, -0.050256889313459396, 0.046132758259773254, -0.08245819807052612, 0.02982582524418831, 0.040583014488220215, 0.04491519555449486, -0.07207503169775009, -0.007234121207147837, -0.0020192156080156565, -0.014784961938858032, -0.07977041602134705, -0.002464566845446825, 0.013955090194940567, -0.06907973438501358, -0.03169216588139534, 0.03079724870622158, -0.07068784534931183, -0.04476694390177727, 0.009749002754688263, -0.014719182625412941, -0.049162715673446655, 0.008975290693342686, -0.0022565550170838833, -0.05002398043870926, -0.092226542532444, 0.04951270669698715, -0.06580843776464462, 0.02927187830209732, 0.06161440163850784, -0.05067722499370575, -0.04494840279221535, -0.07345625758171082, 0.0008230504463426769, -0.039688486605882645, -0.020781133323907852, -0.018681315705180168, 0.033313218504190445, -0.081606425344944, -0.07545341551303864, -0.07074654847383499, -0.012057237327098846, 0.027479611337184906, 0.0352611318230629, -0.029310567304491997, -0.039272330701351166, -0.0010251731146126986, -0.0826285108923912, 0.03061683662235737, -0.006464275531470776, 0.013622766360640526, -0.018321460112929344, -0.008487734943628311, -0.023803837597370148, 0.01242072507739067, -0.06597880274057388, -0.09572402387857437, -0.04844913259148598, -0.013260372914373875, 0.05988972261548042, 0.026776965707540512, -0.044664476066827774, -0.009072359651327133, -0.008746559731662273, -0.01580001786351204, -0.00033871704363264143, -0.08739878982305527, -0.021259166300296783, 0.007637095637619495, 0.019271960482001305, -0.017079349607229233, 0.04885699972510338, -0.03378694877028465, 0.06419873982667923, -0.011183000169694424, -0.02164439484477043, -0.05000802502036095, -0.03083210624754429, 0.00849570520222187, -0.09633008390665054, -0.04695172980427742, -0.07453260570764542, -0.004534887615591288, -0.0815327912569046, -0.03317975252866745, 0.06286448985338211, 0.033957794308662415, -0.0599522590637207, -0.047563739120960236, 0.061562616378068924, -0.03370148688554764, -0.09546402841806412, -0.09596265107393265, -0.02613983117043972, -0.013077684678137302, -0.042439255863428116, 0.03629566729068756, -0.03627060353755951, -0.003109369659796357, -0.02688816376030445, -0.017039570957422256, -0.08450889587402344, -0.07340449094772339, 0.014107444323599339, 0.002911635907366872, -0.03846236318349838, 0.008306899107992649, 0.016194162890315056, -0.05329117551445961, 0.002555419225245714, -0.07202577590942383, 0.050985079258680344, 0.004320449195802212, -0.02505892887711525, 0.014621878042817116, 0.04694458097219467, -0.07930996268987656, 0.04606509208679199, -0.017853669822216034, 0.0030978114809840918, -0.035349175333976746, -0.0626223087310791, -0.02603144943714142, 0.042305007576942444, -0.00826470460742712, -0.023479891940951347, 0.06265029311180115, -0.030506758019328117, 0.04612704738974571, -0.07870893180370331, 0.005199167411774397, -0.06746313720941544, -0.0963158831000328, -0.058555956929922104, -0.09382333606481552, 0.003812654409557581, 0.005188747309148312, -0.07995040714740753, 0.06283488869667053, -0.024724695831537247, 0.05778227001428604, 0.030049102380871773, -0.04434329643845558, 0.03428906574845314, -0.05663654953241348, -0.09521306306123734, 0.008996461518108845, 0.06155633553862572, -0.07704204320907593, -0.09223790466785431, 0.06112482026219368, -0.07641445845365524, 0.0009910862427204847, -0.08841731399297714, -0.09706756472587585, 0.01519652921706438, 0.0613512247800827, -0.0186845064163208, 0.056354571133852005, -0.06280241906642914, -0.09323268383741379, -0.050679225474596024, -0.005060765892267227, -0.08706498146057129, -0.04452674835920334, -0.032738104462623596, -0.04292168840765953, -0.014500357210636139, 0.05373118445277214, -0.007056720554828644, 0.02169313281774521, 0.03686964139342308, -0.010074284859001637, 0.03690574690699577, -0.03738110139966011, -0.09710810333490372, -0.07681092619895935, -0.06698901951313019, -0.02592289075255394, -0.07413305342197418, -0.007392478175461292, 0.023591376841068268, -0.06956440955400467, 0.015795258805155754, -0.004661832936108112, -0.002879003994166851, -0.03306879475712776, 0.027650030329823494, -0.027054253965616226, 0.05475548654794693, -0.0497199147939682, -0.03524360433220863, -0.0576225109398365, -0.0607171356678009, -0.029298415407538414, -0.04966035857796669, 0.03179759532213211, 0.006754420232027769, 0.02771047316491604, 0.05307548865675926, -0.04998161271214485, -0.0035672332160174847, -0.007665672339498997, 0.06152648106217384, 0.06331124156713486, -0.07913389056921005, -0.04597289860248566, -0.03676202520728111, 0.008989809080958366, -0.04863797873258591, -0.09355940669775009, -0.0612359344959259, -0.026260320097208023, -0.05254938825964928, 0.023039236664772034, -0.03631799295544624, 0.04649392142891884, 0.0018411545315757394, 0.0267660953104496, -0.09346634149551392], [0.06987171620130539, -0.08769699186086655, 0.010100376792252064, -0.007387278601527214, -0.07011435925960541, -0.050475332885980606, -0.08736667782068253, -0.002594080287963152, 0.005993414204567671, -0.03855644166469574, 0.013035574927926064, 0.041201431304216385, 0.0056703342124819756, -0.009337336756289005, -0.08849642425775528, -0.08475468307733536, 0.01235777698457241, -0.08853588998317719, -0.016136791557073593, 0.05056842416524887, 0.044886939227581024, 0.060118693858385086, -0.05715321749448776, -0.07625535875558853, -0.004415830597281456, 0.035579632967710495, 0.0687093585729599, -0.014633579179644585, -0.023185592144727707, 0.01029715221375227, 0.021953623741865158, 0.0014132612850517035, -0.04473100230097771, -0.04746720939874649, -0.06462902575731277, 0.05805928260087967, -0.04092501848936081, -0.04264260083436966, -0.08172706514596939, -0.08439850062131882, -0.04388520494103432, 0.06537727266550064, 0.03959348052740097, -0.08730064332485199, -0.0781402513384819, -0.027398616075515747, -0.026885438710451126, 0.01887616701424122, -0.01013687439262867, -0.002249432960525155, 0.05790447071194649, 0.00229701423086226, 0.01163256261497736, 0.006801709532737732, 0.06398708373308182, 0.013777876272797585, -0.059611693024635315, -0.06199534982442856, 0.030112942680716515, 0.041965920478105545, -0.012841127812862396, -0.06802532076835632, -0.04879732429981232, -0.014206396415829659, 0.07014722377061844, -0.0714794173836708, 0.06963218003511429, -0.015765191987156868, 0.0062316409312188625, 0.015763793140649796, -0.040769726037979126, -0.017128946259617805, -0.00878316443413496, -0.04299825057387352, -0.0018807793967425823, 0.0414208248257637, 0.030941596254706383, -0.03640655428171158, -0.024755317717790604, -0.01183970645070076, 0.05321542173624039, -0.02009277045726776, -0.0403747484087944, -0.01851026527583599, 0.018586672842502594, -0.030757257714867592, 0.019301610067486763, -0.03167703002691269, -0.01377301849424839, -0.03394649177789688, 0.044622890651226044, 0.010671628639101982, -0.03141076862812042, 0.056869201362133026, 0.04437658563256264, -0.008447285741567612, 0.012724528089165688, 0.003997031133621931, -0.08230433613061905, 0.07126409560441971, 0.02498413808643818, 0.013738286681473255, -0.05632965266704559, 0.044412221759557724, -0.04241759330034256, -0.07854688912630081, 0.002811857033520937, 0.041096482425928116, 0.07274194806814194, -0.06919077038764954, 0.0651220753788948, -0.039448026567697525, -0.07662493735551834, 0.024098457768559456, -0.03475004807114601, -0.020498109981417656, -0.07155219465494156, 0.05958792194724083, -0.08350954204797745, 0.04325372725725174, 0.03653832525014877, -0.021375050768256187, 0.001463472144678235, -0.0009429228957742453, -0.08233006298542023, -0.005384072195738554, -0.08429428189992905, -0.07481168210506439, -0.08633876591920853, -0.08101439476013184, 0.05631057918071747, 0.0418119840323925, -0.052252620458602905, 0.07206881791353226, 0.04266562685370445, -0.01038825511932373, -0.06858538091182709, -0.0705234557390213, -0.001694119768217206, -0.04370510205626488, 0.05011528357863426, -0.058400992304086685, -0.06648331880569458, -0.007457681465893984, -0.049205482006073, 0.039842814207077026, 0.0017090499168261886, -0.014596544206142426, 0.016598261892795563, 0.0320085771381855, -0.06881019473075867, 0.006529117934405804, -0.08576836436986923, -0.06000424176454544, -0.08449087291955948, -0.07802478969097137, -0.037888526916503906, 0.012841567397117615, 0.019813816994428635, -0.029639486223459244, -0.06459128856658936, -0.03190583735704422, -0.013178379274904728, 0.01516997441649437, -0.03466314449906349, -0.04658496752381325, 0.02738438919186592, 0.056397564709186554, -0.03828072175383568, 0.030190439894795418, 0.02263941615819931, -0.06143476441502571, -0.044004328548908234, -0.036590758711099625, 0.03908189386129379, 0.026966752484440804, -0.06647743284702301, 0.015219478867948055, -0.07683310657739639, -0.07376084476709366, 0.03483603894710541, 0.024696143344044685, 0.030042629688978195, -0.05861109122633934, 0.03380154073238373, -0.05693443864583969, -0.07851662486791611, 0.0004682971048168838, -0.018265508115291595, 0.012882044538855553, 0.02641122415661812, 0.03927820548415184, -0.044990696012973785, 0.04639095067977905, 0.034528426826000214, 0.005831367801874876, -0.06818915158510208, -0.049266692250967026, 0.057504042983055115, -0.07408339530229568, -0.057946283370256424, -0.0214643944054842, -0.027295216917991638, 0.006531205028295517, 0.04941193014383316, -0.06968197226524353, -0.034321241080760956, -0.058166634291410446, 0.0373896025121212, 0.01822630502283573, -0.07074334472417831, -0.08831410109996796, -0.017178919166326523, -0.03775927424430847, -0.07148010283708572, -0.01954258605837822, 0.031038176268339157, -0.022093115374445915, -0.038221824914216995, 0.024819962680339813, -0.016623254865407944, -0.049838919192552567, 0.028329195454716682, -0.05910511314868927, -0.022740885615348816, 0.054314710199832916, 0.007413961458951235, 0.007510807365179062, 0.005251454189419746, 0.024583302438259125, 0.031938690692186356, 0.017809003591537476, -0.043163664638996124, -0.07018064707517624, 0.052813876420259476, 0.07029987871646881, 0.06741582602262497, -0.06729467213153839, -0.04460970312356949, -0.046417564153671265, -0.013518565334379673, 0.06538446992635727, -0.08315470069646835, 0.009035483933985233, -0.024134967476129532, 0.03891424089670181, -0.05991792306303978, 0.0377698577940464, 0.00037898047594353557, 0.04419576749205589, -0.042671289294958115, -0.04211786389350891, -0.08578294515609741, -0.04451647400856018, -0.03562264144420624, 0.014892329461872578, -0.08410374075174332, 0.021632445976138115, -0.03798256814479828, -0.007580936420708895, -0.050187766551971436, -0.01740599051117897, -0.045757610350847244, -0.007054587826132774, -0.043238721787929535, 0.009417830966413021, -0.03287896141409874, 0.04920882359147072, -0.02062278799712658, -0.03704442083835602, 0.045577164739370346, -0.024247298017144203, -0.00021149247186258435, -0.0846048891544342, -0.06880268454551697, -0.003362777642905712, 0.033604446798563004, -0.015660114586353302, 0.041171297430992126, -0.019606880843639374, 0.022332346066832542, -0.007246807217597961, -0.04314041510224342, 0.000764126016292721, -0.06960034370422363, 0.0107263820245862, -0.010361112654209137, -0.06386102735996246, 0.044021714478731155, -0.003789841663092375, 0.050056423991918564, 0.025498516857624054, 0.026349006220698357, 0.06361564993858337, -0.020467238500714302, -0.060352083295583725, -0.0559987835586071, 0.05963727459311485, 0.07190065085887909, 0.0038908503483980894, 0.05219198390841484, 0.056908074766397476, -0.027835920453071594, 0.02640184760093689, -0.07495246827602386, 0.05900438502430916, 0.03131379932165146, 0.05164356902241707, -0.030054213479161263, 0.06514100730419159, -0.002979896729812026, 0.03940369561314583, -0.004260077606886625, 0.03769221156835556, 0.03282706439495087, -0.05523721128702164, 0.029415877535939217, -0.041814956814050674, 0.06807639449834824, -0.042718905955553055, 0.036535829305648804, -0.0231036264449358, -0.08628188073635101, -0.07140979915857315, -0.01812717877328396, 0.05797005072236061, -0.07723619788885117, -0.02659349888563156, 0.06147095933556557, 0.04072544723749161, -0.07516718655824661, 0.050827790051698685, 0.019485363736748695, -0.015650272369384766, -0.04891335219144821, 0.014310769736766815, 0.0672808438539505, -0.0824192464351654, -0.019562551751732826, -0.01233076211065054, 0.05152878910303116, -0.002320724306628108, 0.06307943910360336, -0.047106605023145676, -0.03280274569988251, -0.01922387257218361, -0.07965143769979477, 0.0072749340906739235, -0.08306001871824265, 0.0074436659924685955, -0.08824393898248672, 0.013086690567433834, 0.056136179715394974, 0.06905827671289444, -0.008453592658042908, 0.05552685260772705, 0.030943026766180992, -0.009024971164762974, 0.03345309942960739, -0.06784385442733765, 0.002834975952282548, -0.07662078738212585, -0.05734279379248619, 0.02498583309352398, 0.07241527736186981, -0.04654299095273018, 0.01966446451842785, 0.0723511129617691, -0.0652596578001976, 0.008668472990393639, 0.05424773320555687, 0.023844612762331963, 0.03663007169961929, -0.0022173929028213024, 0.008946213871240616, 0.025196386501193047, -0.04034551978111267, -0.08466463536024094, -0.07850673794746399, -0.0030854479409754276, -0.008221830241382122, 0.0290448609739542, -0.041921909898519516, 0.04497667774558067, -0.07988663017749786, -0.030321521684527397, -0.034844331443309784, 0.0634240061044693, -0.0405120924115181, 0.017163848504424095, -0.08758797496557236, -0.045462608337402344, -0.07711412757635117, -0.06430744379758835, 0.0012579361209645867, -0.07887723296880722, -0.01378327514976263, 0.038324177265167236, 0.02216910943388939, -0.036108776926994324, -0.06624405831098557, 0.003024833742529154, 0.03751764073967934, -0.08353780210018158, -0.045476384460926056, 0.00664046173915267, 0.06702413409948349, -0.011099094524979591, -0.012293754145503044, -0.07730991393327713, -0.03417696803808212, -0.03385373577475548, -0.001506841043010354, -0.04681756719946861, 0.046936117112636566, -0.010045727714896202, -0.04979756847023964, -0.008476432412862778, -0.04965543374419212, -0.08621153980493546, -0.06981873512268066, -0.010297426953911781, 0.011969625018537045, -0.02957749553024769, 0.031038234010338783, -0.03405549004673958, 0.028308631852269173, 0.008222908712923527, 0.00959867425262928, -0.08053959161043167, 0.014571627601981163, -0.0674344077706337, -0.03575480356812477, 0.05329004302620888, -0.03100777417421341, -0.04054412245750427, 0.03660157322883606, -0.020875219255685806, -0.021897878497838974, -0.08499802649021149, -0.06587839126586914, -0.012937149964272976, -0.06672919541597366, -0.0666569173336029, 0.042508527636528015, -0.05826014280319214, -0.06065530329942703, -0.07843177020549774, 0.003628983860835433, -0.06875333935022354, -0.06667287647724152, -0.07516308128833771, -0.07137320935726166, 0.0670209601521492, -0.06181914359331131, -0.0043969713151454926, 0.06617552042007446, -0.03781857341527939, -0.0836675763130188, -0.07267577201128006, -0.01190001331269741, -0.024458840489387512, 0.03731630742549896, 0.06467687338590622, -0.03592942655086517, -0.006969083566218615, -0.059986941516399384, 0.04457088187336922, -0.022932380437850952, 0.009001359343528748, -0.03261418640613556, 0.07214223593473434, -0.07565943896770477, 0.029031425714492798, 0.040749549865722656, -0.007812841795384884, -0.0461697056889534, 0.06121337413787842, 0.0026129484176635742, 0.01740255206823349, 0.06431674212217331, -0.08680426329374313, -0.00264364923350513, -0.06586838513612747, -0.0022215652279555798, 0.0404176227748394, -0.044637326151132584, -0.07347440719604492, 0.010249344632029533, 0.06616774201393127, 0.011981099843978882, -0.05030202120542526, -0.04923617094755173, 0.06784418970346451, 0.05852891504764557, -0.009052847512066364, -0.007340180221945047, 0.00567303691059351, 0.03833494707942009, 0.05897931754589081, 0.02037772908806801, -0.02660445310175419, 0.052005186676979065, 0.025213949382305145, -0.038845863193273544, -0.07567639648914337, 0.002242263639345765, -0.08387504518032074, 0.04902038723230362, -0.02642151713371277, 0.03545023873448372, 0.013767356052994728, -0.022028809413313866, 0.05262069031596184, 0.025378545746207237, 0.06916648149490356, 0.0538070984184742, -0.026525244116783142, -9.290841990150511e-05, -0.058414142578840256, -0.047556135803461075, -0.024348678067326546, -0.06865595281124115, -0.06748217344284058, 0.06578323245048523, 0.027389541268348694, -0.0527404323220253, 0.06583908945322037, 0.056600719690322876, 0.024536237120628357, 0.04204642027616501, 0.0029177034739404917, 0.008654049597680569, -0.05704248324036598, 0.053163859993219376, -0.02758217602968216, -0.027016498148441315, -0.06025973707437515, 0.0547713004052639, 0.016072992235422134, 0.009438210166990757, -0.08208128809928894, -0.017199767753481865, -0.011081906035542488, -0.07037825137376785, -0.0245662871748209, -0.014414341188967228, 0.004222017712891102, 0.054668013006448746, 0.006554748862981796, -0.0824265405535698, 0.054408855736255646, -0.03164871782064438, -0.080864317715168, 0.04721204191446304, -0.07194796949625015, -0.06769213080406189, 0.05859668180346489, 0.013063165359199047, -0.018793612718582153, -0.06332793086767197, 0.0005243925261311233, -0.06828823685646057, 0.045098476111888885, -0.03873131051659584, 0.01714802160859108, 0.013557648286223412, -0.056220948696136475, 0.07011669129133224, -0.029065214097499847, 0.053806643933057785, -0.056527961045503616, 0.0566200390458107, -0.03866400197148323, -0.03916991129517555, -0.010748900473117828, -0.01993664726614952, 0.05111335590481758, -0.06193503737449646, -0.015267561189830303, 0.06792455166578293, -0.012017042376101017, -0.08649928867816925, -0.07104101777076721, 0.01827268861234188, -0.010326431132853031, -0.07158930599689484, -0.04695930704474449, -0.05560150742530823, 0.02630646340548992, -0.05675668641924858, 0.02475869655609131, -0.05664203315973282, -0.062453072518110275, -0.0710333064198494, 0.05975189805030823, -0.01040444802492857, 0.07089506089687347, 0.012485087849199772, 0.006311687640845776, 0.037210769951343536, 0.011375616304576397, -0.0605325773358345, -0.022618016228079796, 0.06964076310396194, -0.03870076313614845, 0.027159327641129494, -0.045634787529706955, -0.08183316886425018, -0.03320515528321266, 0.04088417813181877, -0.0057516684755682945, 0.07216240465641022, -0.0019698727410286665, 0.0354163683950901, -0.05313612148165703, -0.05154035612940788, 0.01010003313422203, 0.014790684916079044, 0.019454888999462128, -0.01713760755956173, 0.06027898192405701, 0.04106982797384262, -0.013386014848947525, 0.022312799468636513, 0.030872950330376625, -0.04643276333808899, -0.009581211023032665, -0.06003816798329353, 0.0338960662484169, 0.06697586923837662, -0.005195984151214361, -0.05242522060871124, -0.006220084615051746, 0.058199718594551086, 0.061389464884996414, 0.07233269512653351, -0.08717235922813416, -0.04640353098511696, -0.033253107219934464, 0.07085080444812775, -0.06205456703901291, 0.025979235768318176, -0.06707920879125595, -0.03466670960187912, -0.028877144679427147, 0.012027344666421413, -0.07307878881692886, 0.034168798476457596, 0.006461995653808117, 0.05574652925133705, -0.07518084347248077, -0.0611845925450325, 0.03745377063751221, 0.025601278990507126, 