{"sizes": [784, 30, 30, 10, 1], "weights": [[[0.012186069737563573, -0.007306692104322182, 0.008241544066320215, 0.0005659837185683229, 0.016542081582319193, -0.0007116203595339955, -0.003571315440248227, -0.0069124365168660926, 0.006564847307925978, 0.003943644047516182, 0.003942005108216283, -0.0005229443503380362, -0.005366937697209506, -0.0026599777743910084, 0.0038778912866563363, 0.01036009240356075, 0.006081255643458315, -0.019523115712530213, 0.005801249421821331, -3.392982174447789e-05, 0.01220016470841382, 0.0054629566195111695, 0.004913523525553755, -0.010097440629495141, 0.004374832196957496, -0.006434435585071508, -0.017839045342591165, 0.017695552406813756, 0.002588547464429982, -0.001540452528631657, 0.010781394913350359, 0.005667220599933566, -0.008163054694294389, -0.00159201450769393, 0.013308619087221503, -0.008331628036830534, -0.002200592540924638, -0.018782643001943284, -0.0062144798712893915, -0.018008432000031143, 0.0015132595039024377, 0.008059696662087718, -0.005665020865284059, 0.010326915136582753, -0.005854550637191051, 0.0022281457620479286, -0.011091652443167082, -0.004122161855130899, -0.008815680887487829, 0.0012384071826421247, 0.007231798068498273, 0.0061397249676133055, -0.0056375344402514104, 0.006663270595538752, 0.0010887657482721324, -0.00960539574268603, 0.021105679712251076, 0.0012994540981158232, 0.0002718470753433839, -0.000373754758474373, 0.002990113542077788, -0.013240856163686459, 8.484335887455067e-06, 0.017461868617134856, -0.007106402853527072, 0.005458661608335722, 0.0016350347981294454, -0.0009555449828111844, -0.006630448173938086, -0.0004866062419882241, -0.003132755327725837, -0.0036211567897396434, -0.0005953750655996465, -0.005660868195095873, -0.002436503295164086, -0.011950125945267159, -0.011259438652014514, 0.0001915613468596127, -0.009373466411064698, -0.0044423562835929605, -0.002670832818444276, 0.007465111417461824, 0.009945250571512777, 0.005519705320553102, 0.012132876746970504, -0.012666428727430153, -0.003601292316875653, 0.005231853946493034, -0.0035416245266351076, 0.0015208287724335554, -0.012757307252921821, 0.013779864753764616, -0.011220561368800246, 0.0011672821014527836, 0.012770598321942984, -0.001782088288516567, 0.0011910290798442774, -0.014105843206028246, 0.014387910320671117, -0.010848470886421336, -0.008201999633255434, 0.013876018660011868, 0.0034481659460328866, 0.003044478284488732, -0.003806740176362058, 0.011661512880277666, 0.0002968430223538679, -0.003981805975522874, -0.006323156106988838, 0.002803809174442894, 0.0024191689400308676, -0.004199121922157268, 0.010937316369670222, -0.021732340724477002, 0.002574392000316757, -0.0041798079309053006, -0.006920049408578959, 0.008759872565440977, 0.002242077674028013, 0.005254446332703169, 0.009446066779887968, 0.007419121587449083, -0.0058374825937109074, -0.004947295318917413, -0.008670740728368693, -0.0016601770061831654, -0.003027549668221311, 0.004537711801046496, -0.013152670354779388, -0.004502735212687255, -0.0021247022239275193, 0.01718416005694261, -0.002756653073375549, -0.0008856400483192895, -0.0019005593566079975, -0.0015137684668618222, 0.0007772130063879627, 0.01099755021883352, -0.011206219297897727, 0.00879200801379208, 0.008304540667821783, 0.0007170177230727882, -0.0041270467553219305, 0.0022227906958835124, -0.00040790195385217336, 0.005367480469011234, 0.0032378799114814527, 0.00871362499740967, -0.009252211335871641, -0.004194661704314706, 0.004103579137510989, -0.0034155104096349094, 0.009258619205199764, -0.009025860971804925, -0.0031990955785023535, -0.0035851130190135377, -0.007170460297978688, 0.0003482829194750321, -0.0035603427110081857, 0.014046368433402855, -0.009613074224723376, -0.00333982743802469, -0.01253752812115955, -0.016799088424922164, 0.016937466005282422, 0.010402068090903622, 0.002622609316311159, 0.00875024157265817, 4.979380397796654e-05, 0.01171155588774845, -0.015458189041931854, -0.00696684028214976, 0.0017104759735713563, 0.013030329749965007, 0.004587102710030529, 0.001401369383778868, 0.003733249388944838, -0.013715057057387159, 0.018045834714172867, -0.010788089168602195, 0.005192619620330368, 0.006022612943872197, -0.0007975466339425355, -0.00019961499850725542, 0.010882263667328888, -0.00044659156213287896, 0.0021500196541154124, -0.0010546579750045138, -0.006920323616138301, -6.177820333298451e-05, -0.005811221967606922, -0.002706398217842088, -0.008433449314498829, 0.0021197194874029864, 0.00805883074633822, -0.0023737084533036242, -0.0021936059070613067, 0.00604665352568436, -0.011231885241579115, -0.007611698542932224, -0.007376736511878284, 0.012090566622045093, -0.002028964732084502, -0.009023554070124847, 0.0035704319806024484, 0.015725871927773485, -0.003928815842218475, 0.0040479689543685814, 0.014085741044639853, 0.005226595193003541, -0.012342308725719195, 0.012073576308538598, -0.004418654570010634, -0.0013863526665386467, 0.0036554590650472113, -0.007418406568492475, -0.000675042610362294, 0.005986857881947215, 0.003047175273659611, -0.0011174055675828454, -0.006451070582297795, -0.0034836588850203935, 0.0007400080604393272, -0.003703147723469199, -0.005412380597899794, 0.003218771813083914, -0.0001425511969661383, 0.008381612208952607, -0.003704127789017085, 0.0027407751139054202, 0.002459216841676799, 0.0001450425869562858, -0.0032698270760525873, 0.0014803320542493574, 0.006051629418170942, 0.004545583649307397, -0.010552855304089451, 0.0036293256329240488, 0.00476619378516711, 0.01201224444310297, 0.010669603662477187, -3.1515112588470426e-05, -0.01044163600147502, 0.012802592723453837, -0.00658021262067458, -0.004163374186689497, 0.009554740886328468, -0.0065221616999493115, -0.011320448504829049, -0.004413332288978234, -0.01356395148343295, -0.006898132368001504, 0.0009209156996796767, 0.0026184899581373385, 0.003190096462238058, -0.012307161127233044, 0.017106447505197644, 0.0033232118027695934, -0.0007046838718347699, -0.0042618462269581265, -0.008242466096762041, -0.00973559293258278, -0.0004985224290383365, -0.017534315386157573, 0.00813608809531924, 0.0018146445699409785, -0.008092367372638383, -0.0016961338798952756, 0.015833705257067256, 0.000654220317902343, 0.008115061402727596, -0.004891502544187484, 0.01702007453446327, -0.008825411565902533, 0.0006618962604889162, 0.008287163079112684, 0.001540552924018084, -0.009281366992446683, -0.014550227371692313, -0.010581605056628517, -0.0005237232038325651, 0.00508417928120621, -0.005359830833724423, 0.014976260585822665, -0.009447392771406032, -0.00771995086690616, 0.0011114844759894486, 0.007953290354772755, 0.013639573747368334, -0.0037562877424489826, -0.011553664697069454, 0.017006740040981082, -0.005116916797118685, 0.016787271255479935, -0.010668607314122362, 0.0007756726533499454, 0.011480028653143171, 0.013899809887627136, -0.006707893402679071, -0.003118334455921291, 2.7636880353334215e-05, -0.00475821732343321, 0.0023161742605254565, 0.003081436951984903, 0.006279899375548793, 0.007770444088811416, 0.00331246149505094, -0.003262275796225482, -0.006156085953434464, 0.0021452081519212317, -0.007386300900139453, -0.011256732701907324, -0.003184788784712973, 0.011013029135396937, 0.0008960704884884324, 0.010251833743504893, -0.0013499048802788636, -0.011403488706335703, -0.013235024922644709, -0.012653018680133656, 0.018412041024881146, 0.000582900708879853, 0.006022140169750415, -0.0027556187155185026, -0.001573026075422303, 0.0033740775555390033, -0.011597850436122792, 0.0011795858555713771, -0.0067070301963314816, 0.009473673375451398, 0.008113514790109074, -0.007989140442260954, 0.004443846649134723, -0.01393752484781092, 0.0075195881838330545, 0.0027347427852222423, 0.00037527332465246753, 0.000951387816361656, -0.0005221516701674752, 0.0021593675934369646, 0.0004389823151935459, 0.0011061848240582603, -0.012614558610458702, 0.008367279805940724, -0.012292672699798342, 0.000578514922835402, -0.00018321567153727137, 0.00809677028208296, 0.005916300530985054, -0.0003786802975079733, 0.02091717654588969, 0.00693358270162498, 0.011262064066454198, -0.00014873372422172405, -0.001401767854423623, 0.0014089048342778305, -0.0038737987221120446, -0.013525289385961866, 0.010678586263139238, 0.004450957748531994, -0.0027790014638923656, 0.00033502947656115597, -0.009789493785632139, -0.008392532424954757, -0.010381590392928644, -0.009514663287019597, 0.011831194655507393, -0.02398461721415569, 0.01414127695200754, -4.697523961775041e-05, -0.006941950403228786, 0.010912323667731212, -0.004244173210313147, -0.0143843779213942, -0.004505401784831467, 0.007266751784942169, 0.008070003845878774, -0.007525800555571987, 0.00796838399276624, 0.0014508596875588114, 0.00047115484639209166, -0.0033378766037404617, 0.007637367023391257, -0.013936342897673641, 0.003963929902351327, -0.005134559187258485, 0.0011758792674019184, -0.010842572855625069, -0.0017457117283125442, 0.00011214446619426375, -0.00643203364920551, -0.0009715910933087949, 0.0091657124755424, 0.002650386112617745, 0.01345627226776172, -0.005522771987758948, -0.0045493213947956496, 0.006449689310838733, -0.006515400612343604, 0.00925406187235795, 0.01287805817506044, 0.0033801566136594835, 0.0018557354383814224, 0.0016960403438894122, 0.005146383255470343, 0.006741222331180801, 0.0012454556155538981, 0.008886537634659483, -0.005382325529121013, 0.002983930249157947, -0.0019788764235737144, 0.016212209235407577, 0.005229198878037785, -0.0068965793472359534, -0.002050619775002526, 0.002860201690281575, -0.008114287875697512, 0.009920069104629267, 0.0058159131955602865, 0.006788699128086545, -6.206742884019909e-06, 0.009272546764058335, -0.01156742304217891, -0.001660460725550407, -0.0006241040186424795, 0.002104261105354787, -0.0019349627406607772, 0.008053406167464852, 0.007309220900191001, -0.0037165091882850965, 0.0021075416564712833, 0.002123817903908733, 0.013674240247778748, 0.0012291506578866478, -0.007504406308883831, -0.0038415291430965283, 0.006048552108990464, 0.003534654769786933, -0.0011075157211472009, 0.0006671098102934041, -0.008072088080385592, 0.0018433275607358617, -0.004132400284412147, -0.0020470948330996645, 0.002334443876504729, 0.00810375168976215, -0.015632656006906488, -0.00377159595224845, -0.007171333420156456, 0.010790197617134591, -0.006880652860967118, -0.00647756826800686, -0.0004897001590034751, -0.004101902679074278, -0.007464042939445942, -0.0019102543333780753, -0.009488939206298983, -0.009781149265732586, -0.002106706401977254, -0.006108031572160274, -0.011113503558459727, 0.009384195850339911, -0.007926794485503218, 0.006275993324023323, 0.004419219313454417, -0.006893867410288717, 0.007586723277986347, -0.0020678989218165483, -0.012051437013901356, 0.007344695378191179, 0.003260013983218401, -0.003594473044632897, -0.00665018408073346, 0.0027817638001160594, 0.0019299347913898162, 0.00862797454671292, -0.0011091493131873947, -0.011171833504952176, -0.002494350862116738, -0.0030786145057924486, 0.005620575454181384, 0.006974125778737343, 0.01241478273344245, -0.0016614932564453875, 0.010515545191509133, -0.006678066964171814, -0.009552642775472762, -0.003051193391878583, -0.007234582029317209, 0.0072866670851185825, 0.007267345837581088, -0.006663799457141654, -0.003379225101976218, -0.00043512456107344135, -0.0008433152183521005, -0.000493339783310529, -0.01115801669119257, 0.0014014818596552814, 0.01197348573384113, 0.008215353828673663, -0.003334472555179107, -0.0022625505518513414, 0.007251738398878328, 0.011034765664505352, 0.0026798790914669512, 0.00014089179154713456, 0.013136085781065135, 0.0034615131343956025, -0.0006878414954285729, -0.006565583360174007, -0.0050219942080378475, -0.002406266599038825, -0.0038078400584928384, -0.011516826003035939, -0.007299874884989513, 0.0061882074830005036, -0.0055016501689979175, -0.0007116933087681689, 0.011148080821742075, 0.01011829584297062, -0.010951642194948251, -0.009198053904413342, 0.005366972796259702, -0.003049262321510707, 0.008413261118784609, 0.0031646358105900034, -0.007182182756188245, -0.0038862015847132827, 0.0024975012615143046, 0.005114889138323676, 0.005420939271862994, -0.0025340283538144545, 0.004053455602408479, 0.013225071484998713, 0.006678151560424207, -0.001959500565439156, -0.008747966647403724, 0.004781733452685459, 0.0054748127594873046, 0.013783702275868026, 0.006850980133748836, -0.0033309965136446664, 0.003628901288827701, -0.012824643913594932, 0.00145409895998223, -0.00026801108437039134, -0.0006235447936542577, -0.002665156420524988, 0.008054834927082463, 0.009440830726585745, -0.0043184712455961345, -0.001963412949472824, 0.012560112155233836, -0.0060694312193070995, 0.010765360773658438, 0.0010263166969460003, -0.00885113790194779, 0.0014614706248834845, 0.0007986764527811003, 0.007360888859507451, -0.002808172846493937, -0.0013788841599765857, -0.01238247030201855, -0.011194544777374138, 0.003491394014258862, 0.011217613036538104, 0.010212468528786014, -0.0038893068893776457, -0.006276548628120479, -0.0012227703454376836, -0.010265146737225561, 0.007705700992033965, -0.00424541298952902, 0.008779699596210718, -0.006942503958365196, -0.0007295161313571977, -0.006726002148508011, -0.009834365116529735, -0.005615845630313574, -0.015978675377654614, -0.00148942583649835, -0.012556897199604362, -0.009008194632295696, 0.0036791599352122206, 0.007476392185079253, -0.015284303550722486, 0.017378901480349335, 0.004281393458733598, 0.006184403479719249, 0.0016039565567980104, 0.00048155318461388447, -0.0006116602312986127, -0.012157765482865289, -0.005097131886701355, -0.004892536478267112, -0.0029050936906241946, 0.0019508866600981317, 0.015177231162204258, 0.012490833476288536, 0.00936649645638162, 0.0063033020009078755, -0.00547451051344039, -0.007919249944529028, -0.0013448464905284703, -0.0006830243819753024, 0.004430832816575534, 0.0022762596169085382, -0.00701254707904334, -0.01020198344765866, -0.0011953316297729736, -0.011410840284256735, 0.0063734338717445485, -0.0005857948668183226, -0.003562159110838566, 0.003042590627243202, -0.008616220256174648, -0.0012812491254673077, -0.012874701445920681, -0.002571550055233136, 0.0022255464467948374, 0.009381288544951186, -0.004120452922129475, -0.007734482878390044, -0.010599360017357855, -0.004389897209322424, -0.0005042792477191778, -0.010178042025053943, -0.009662806305350437, 0.004907054960673001, 0.0004974632617777375, 0.000564845791756251, -0.016054875569067095, -0.009294582510034816, -0.006529791790322599, -0.011423760339554105, -0.011588810545896234, -0.005549918576860893, -0.009362823574314253, -0.008024254305969534, 0.0063727387899692265, 0.013092987162316473, 0.005921421002874246, 0.0028440414250539606, 0.0016982264487644908, 0.009035433218209026, 0.0057982522195025145, -0.015743936367395794, 0.018621338973450113, -0.003589321931673752, -0.00250599064668873, 0.0065310658311094495, -0.010663799913488656, 0.00629284486955407, 0.020826938049454773, 0.01158006810439941, -0.018380457368716224, -0.0009388480932168095, -0.0018529113752095185, -0.001736247272763283, -0.004850314975643489, 0.0028879590671443394, -0.008754561783148417, -0.015168069937242684, 0.008883159264289776, -0.008538887929809237, 0.010701524466324077, -0.007493731667679308, -0.002204445198974691, 0.002004354647482432, -0.01306261051885275, -0.009353867401573504, 0.004060649206025328, -0.015196632996443245, -0.008838146872590335, 0.0033511056000241663, 0.004209826667953079, -0.005514386156508135, -0.0030695052653266826, 0.0050140822647160195, -0.010323019263105802, -0.00367967016615489, 0.004540728085847853, -0.005265432224050219, -0.00033744414763820033, -0.006933461931214583, -0.00706023482641007, 0.0058730069907229395, 0.007382206220404052, -0.007834157195335553, 0.005305229766780526, -0.006469326916188691, 0.008649433748514776, -0.002385697242360575, -0.004560041306168269, 0.004128279141132376, -0.0032834117914719465, 0.007834180442281862, -0.0036918646326569663, -0.0038595947479784895, 0.0035205333126320845, -0.0076497857749645475, 0.002571863378260142, -0.0006910201694307427, 0.008709135104768086, 0.0040266538966962405, 0.009239655130522835, 0.004303065598682727, -0.00216603275434743, 0.0013544564503996256, 0.013379672321482409, -0.0069063689953033905, -0.008844044736986153, -0.01589702051481636, -0.0020756766961615974, 0.0013369968020108863, 0.004435694742872691, -0.006014735678849401, 0.011256154231545083, 0.0028205590445848, 0.0035560392309710626, 0.001022120224513149, 0.009400961777392898, 0.005461372313610572, 0.00390140016609972, -0.0031411251203443016, 0.008354613356573625, -0.003507710933674146, -0.005764210911542811, -0.0008795533799688019, 0.003011146294943735, -0.002580181646465336, 0.00839082867502451, -0.0064148249839481196, -0.010452754407096464, -0.004106163480880284, 0.009030974197302968, -0.007981941887572666, -0.00026095257001480923, -0.00379135640094094, -0.0039264142830483136, -0.0015916017391387068, 0.0021083188058116384, -0.00195680250646267, 0.002183301138808622, -0.007245318232901256, 0.00586251263920429, 0.010708022543921138, -0.0013781923631340073, -0.0064240059348081085, 0.012559229764979009, -0.004915477431520025, -0.007653897501975054, -0.009968981929546804, 0.007609060774386233, 0.008393487662452298, 0.0003624073740415491, -0.0022572674162587136, -0.0030122858935584967, 0.0032227243763641653, -0.000586116430002596, 0.010469882728440466, -0.008806050448596317, -0.017586703819002666, 0.004837435152151008, -0.009525672732257316, -0.0026325241823378144, 0.0013184669407794686, 0.007489607918457127, -0.0026831983877297454, 0.004530373416468092, 0.006155049431618594, -0.002192184207109279, -0.0006671884505548251, 0.004687818969912538, -0.006360927809762838, -0.011155932645761698, 0.0119640513743461, 0.001959694355645989, 0.01690223415390799, 0.016091569994708368, -0.0034327181157194687, 0.006819409860310933, -0.008052888009632832, -0.005839090740413211], [0.009169175212375532, 0.005122944046377226, 0.000627012865582931, 0.006916443924252515, -0.007406898915205163, -0.018349127291001088, 0.008496839667807772, -0.00828802056693088, -0.007401357721673086, -0.0003249355312310994, -0.013761495438327043, -0.004807117122236636, 0.0018656064995255781, 0.000307800034650643, 0.0013936963794033707, -0.007444588917904153, -0.0007502369867769402, -0.003115416069404088, 0.009341972398170303, 0.009815449182465803, -0.0006308991333961604, 0.006774006219636562, -0.00393096546318458, 0.0048179974087764164, -0.01033154521288651, -0.0018668120759353648, 0.0018179699531469574, -0.016454865278491927, 0.004104910040512665, 0.0015207898011009187, 0.00010312629504962582, -0.003568910506661537, -0.014763015578084258, -0.0076408085864499, 0.004032454867923113, 0.007864862040156831, -0.003464605241159812, -0.010367513131690412, -0.003191252746390117, -0.009056428805684299, -0.004158550386081319, 0.002771881547365074, 0.002559589447772123, 0.006392608271915732, -0.0026508288222099824, -0.005833266730157145, 0.0012414624447088553, -0.004438711340128586, -0.01322109962009436, -0.0018649268224197133, 0.005940142836489047, 0.011352773107636053, 0.004608919968216703, -0.0030245735451465616, 0.006110895960603183, -0.005578911465957166, 0.024082784331896614, -0.004353891214146262, 0.006912427910831288, -0.011651160617980109, 0.008367687506362412, 0.005239246705359537, -0.0009301434685834634, 0.001472422523362472, -0.011125143291025293, -0.004012150993776637, 0.0027286640093071987, -0.002278038552371239, 0.00011864950119927454, -0.015404409887072056, -0.0068642048434479205, -0.0015988879939267202, -0.0025430284024208927, -0.000558360511933246, -0.002032633249847586, -0.003059291652209423, 0.006257082773531354, 0.012307614384240235, -0.015542689636363976, -0.0014441522695394532, 0.005368797920705006, 0.003583585492335743, -0.006263973438857697, -0.010655952611681197, -0.007284501516356863, -0.005221985520575064, 0.006959910845816499, -0.00255065113230499, -0.007450963644525528, -0.0022145137843953243, -0.0066423752796588445, -0.0113873813648366, 0.0011304959939634528, -0.0014880969137323035, -0.012809357721118625, 0.0003688835717098487, -0.016527770252305857, 0.0073783859111093775, 0.011266963593614829, 0.006080940615388402, 0.0023865516221646494, 0.0007123935853771273, -0.0010543630734677657, 0.0011165377747061952, 0.0008771811842821849, -0.004883375206787838, 0.0008543795767964309, -0.002196312401110823, 0.003968481651230951, 0.00410932096840251, -0.005984964243521167, 0.011800945892418565, 0.0037404919324828118, 0.007448690784998964, 0.006461501531152721, 0.009803028486422845, 0.0001071158154414642, 0.0010407638616874652, 0.002835803295324905, 0.00465076704231636, -0.011710653440817445, 0.003215758119754041, 0.007906451462493056, 0.012417743200651773, -0.00016994271666960319, 0.005311339165874187, -0.02156910914769481, 0.00450117662146015, -0.015267797244194402, -0.005105965574040492, -0.0031129166726259227, -0.0021507331115194145, 0.0034419222404702345, -0.011431377303102943, 0.011948956133313688, -0.004942654880144075, 0.00343643545659028, 0.010198890541962519, -0.01309691176600277, -0.002421399081310623, 0.0008900693448118512, 0.013667481212105403, 0.004111207527405279, -0.006633689153512911, 0.001518514505910802, 0.00607717214911539, -0.004784289503793752, 0.0012211282325241895, -0.012725056404980006, 0.006628692774865978, -0.0037541595679711796, 0.002989734356483496, -0.015037741657548159, 0.004715156195817823, 0.0023368685159432094, -0.005454865249366203, -0.0005846306439328227, -0.013818646726163447, 0.0050335266048766245, -0.016467472241348344, -0.0015099107314971725, -0.0005699707915726172, -0.002551464952865214, -0.0031232335048436573, 0.012113233143674825, 0.010127108684403991, 0.000432559866148277, 0.004180429659527246, -0.009108799790737846, -0.0008939031717924125, -0.004618662698336987, 0.001590097957760244, 0.011110898145825245, 0.00020375000440486858, 0.0005385002136086284, -0.007261680524106938, 0.007148440743857468, 0.008938519080283893, 0.0031337860500163183, -0.007600457720190134, 0.0008834415097893089, 0.015008596799272621, -0.01468769964517102, 0.0019948263249184, -0.004750874107834677, -0.005009560801326071, 0.0006319796794330305, 0.002792403954486286, -0.0003961766247038075, 0.006253088792774153, -0.0029203875850715632, -0.005140186237339456, -0.011765781134675149, -0.002373869399472703, -0.0026687628372348347, 0.00484078700011682, -0.001753927811092489, 0.009488343810765219, -0.0009463957693970912, -0.020069982171092616, -0.00862089235866535, -0.010715533632558902, -0.004919192864649856, 0.0023274264176033226, -0.0035704508612398093, -0.010121091916641983, -0.013483704084428423, 0.007100788525315669, 0.00415920396704617, 0.007083855200359107, 0.0021309927009721136, 0.003726547193704072, 0.000509323269438249, -0.004997598201320914, -0.00016380903089999044, -0.00017117541931333045, 0.004861722984378466, -0.0039059547823128414, 0.007450207149912845, -0.009869519939806028, 0.0014401010589191897, 0.014335536747774534, 0.0009457673391478475, -0.007686042320885681, -0.0037117619247991444, 0.004328354756192957, -0.0008959517096492804, -0.003201794846316964, -0.004503151206193611, 0.005926340350965977, 0.008642603570385364, 0.006211068266472188, -0.001996205167320701, -0.00013722342783702572, -0.005870721380028378, -0.009805134567339037, 0.007075552203192112, 0.0066144327526838406, -0.0025299963549144933, -0.0034545492314523598, 0.005056438789658282, 0.0056684152388779855, 0.0013594016737959182, -0.0037746624961746875, 0.0031330956002395736, -0.006766285538691301, 0.015590318066569391, 0.0077959506894618395, 0.0007861406746136202, -0.007036958183540905, -0.0018057477267645905, 0.002118455104744996, 0.007628895948251507, 0.0015572649518572363, 0.009046425398377944, -0.011451265199471067, 0.014944945055542174, -0.014994786939147695, -0.012588197335140463, -0.009485912926757429, 0.00483107206003043, 0.011336353339064183, -0.004882153437876332, -0.002834406297986946, 0.014069229095265581, 0.0018537768541818202, -0.002549160597597692, -0.002741381527845076, -0.014343941303705322, 0.005709931208541195, 0.002394437819875998, -0.0029746525057611573, -0.006066309060507435, -0.005191422156818486, 0.0030246996503446037, 0.0026333195291585567, -0.008509772629910737, 0.008265926909272503, 0.004104889052770091, 0.0026873737156227285, 0.004649613012862638, 0.002293390089156198, 0.007962553166603418, 0.009850097218041079, -0.0035396887052013743, 0.008140388637072412, 0.005915245250119806, 0.002547207181233778, 0.01122710283185771, -0.002163815867560409, -0.0023925117510255464, -0.0011975363816317133, 0.0024033056530290103, 0.005308029859594213, -0.001010970084088725, 0.0008766689040688123, 0.006527148743316436, -0.01733507250037265, 0.000554046781714154, 0.008147864016001448, 0.0017207308746174546, 0.003130269792209044, 0.00063988587254102, 0.0012549995786930684, -0.019006335163912723, -0.007666171268277328, 0.007696087603933474, 0.003044965069232216, 0.02033897832759694, -0.005527146963865954, -0.015630146414421914, -0.018081025546903114, 0.007653322455568753, 0.006579156601576066, 0.0008416754072944288, -0.001015075630210614, 0.0019308130999393745, -0.004022535066985084, 0.0006039051853138517, 0.00031336634765849757, -0.00818795231769741, 0.008886297970848889, 0.001703742644880887, -0.008853994530470472, -0.00561995931399514, -0.0008064682298041527, 0.0031077504657457864, -0.003912124223355536, 0.00038185143964828365, -0.00028387820092439035, 0.008080303930023371, 0.0009148011153753765, 0.007925136866087422, -0.005339269301954766, -0.0036077315015442413, -0.004713204552146114, 0.00036262807499847747, -0.007108785460870548, -0.005369265399016517, -0.0073304287295285235, 0.005774217297066195, -0.0029790657020547597, 0.004356607264285625, 0.001733949340153293, 0.009186157531853832, 0.00548292265855119, -0.01755804721067832, -0.004041992975553201, -0.0100476227876648, 0.010035171333922895, -0.0005544167253898369, 0.0012110686326508256, 0.014255613661334652, -0.006513620519541019, 0.004742873832620228, 0.0034077647215741023, -0.005793623507934484, -0.0033556830096767754, -0.014443593517048365, -0.008908512995272537, -0.0075909161530605, 0.008627550752666758, 0.005028200633492736, -0.01275950651777835, -0.0008705306048128476, 0.012898913819706488, 0.00448274716463203, -0.008593901698597708, 0.00858050486096396, -0.00025741883193711374, 0.010198110010900254, -0.006624177648433201, -0.010823124131474338, -0.0022735816983966337, 0.00853683166381246, -0.01170221036213645, -0.006765451194019126, 0.0028761957466751256, -0.007576320251780371, -0.0024399260561424126, -0.006500589485862946, -0.0031491249370403525, 0.004447195614445589, -0.008860385232633543, -0.022286051938871863, -0.00996366174349966, 0.014318669083586736, 0.0012595047400427329, 0.005833089535484731, -0.0007170176323587187, 0.01796806913150332, 0.006817852330363865, 0.004624882979848536, 0.012503135648269957, -0.003476359746887556, 0.005374564827838725, -0.0007693079957595004, -0.007315387394463938, 0.009307518964666086, -0.00034689501988059934, 0.00030331775641942823, -0.008313274165822667, 0.008017658726225126, -0.0023977953650973077, -0.008474809531875816, -0.01171017901015807, 0.002138435246275841, -0.0037134115665357994, 0.0014622805534504025, 0.002100356234403455, 0.006607000960469702, 0.007690772259474666, -0.007016845612368381, 0.010148722080995822, -0.009372688130721977, -0.0025405441535500902, -0.003084619242140538, 0.003381349016539886, -0.007739177228957814, 0.008084670951775104, -0.021739856893588608, 0.007244689734570329, -0.006849631728939211, -5.007493257090319e-05, -0.0028710831366995197, 0.012051035340695434, -0.0004288118007675208, 0.0005311494523816861, -0.00725010610006789, -0.004171132499558599, -0.0016723866363139994, -0.010721299425655006, 0.0060948472075003585, -0.009422736900878298, -0.0067333738216653815, 0.010434410309051371, 0.00946539261311463, -0.007612718868733086, -0.009140721873959977, -0.004556007601457917, 0.006704521640146598, 0.006608708889992933, -0.007070254283925693, 0.004482759730634289, 0.0021834528862243723, 0.004693213409966693, 0.0008663304251477446, 0.00694338171377805, -0.007528652117051354, 0.00034969255340908985, 0.0070839731042042055, -0.0026006802830516105, 0.00719940353151891, -0.011889520294536535, -0.005163674810454287, 0.0007883232846828817, -0.0030266373193570347, 0.008550725038515249, -0.004485277592569022, 0.006370493878923691, -0.004790089003839435, 0.0034261860680957655, 0.003982302686955777, 0.009332300210142511, 0.001504574984520473, 0.008148456313646295, 0.006001694352203034, 0.0015631342354052384, -0.0021560470759299, 0.00492039610024371, 0.001371631454347113, -0.0015698690700766363, -0.015872707084808507, -0.0034197404259335516, 0.002386195666108215, -0.003865074343410414, 0.0017472461452232965, -0.01581452801874244, -0.009464636027209733, -0.015059648881104155, -0.0011821709345744625, 0.005730843483221588, 0.007496344629921106, -0.00545759021569932, 0.020104175121287038, -0.005917798645508017, 0.0002644878667555862, -0.004412898379803926, -0.007692429384640231, 0.010439931538021467, 0.0012053975194710486, -0.005602689030511701, 0.0037968853481120716, -0.016036495035590504, -0.002709107784042136, 0.005744581770659188, 0.003839553028705413, -0.009851755107612525, -0.005180597992571468, 0.006024298565824158, -0.0013207380457749887, -0.007798566840290776, -0.0030140101442201594, 0.008391266657572494, -0.005643267814146803, -0.0006221079101826652, 0.009930748663559918, 0.002089285563206613, -0.013796099507334474, -0.007594217728605044, 0.00017300504120652775, -0.0068010691837200555, 0.0015290467107868064, 0.008337962899822355, 0.0009852076983659296, -0.0015185638301070628, -0.02010067826074235, -0.005651704275907962, -0.0014170277609053257, -0.0036323459710669486, -0.00799425291354598, -0.007642270887268035, -0.001143958035944435, -0.004675541830397903, 0.008045811771402225, 0.007564526555436875, 0.0007902734192556527, -0.004685798664776422, 0.003281373661662186, -0.010554029671109962, -0.004918914774137047, 0.005677812184246701, 0.009253408116006334, 0.00651266820469619, 0.004455596401407246, -0.00834681429219011, -7.996775102846846e-05, 0.011097564540791301, 0.0012522421188956288, 0.0006369529132656302, -0.004163522179333281, -0.009850856251563726, -0.004199561768798876, 0.014598211469181816, -0.005793074557306863, -0.00036724333632535375, 0.00429355864093377, -0.009241706144126997, -0.0020367580328626783, -0.0007978365687985866, -0.005316452799849499, -3.52887319356517e-05, 0.018488744520378145, 0.004272112609420296, -0.008462781635583297, 0.007845293785345379, -0.006174238049607348, 0.0012710255098731715, -0.012752474454272732, 0.0014379424011890915, 0.007841232248804307, -0.007934795512426585, 0.0064570152517100165, 0.001466647357322068, 0.011191394688725034, 0.004518976689505779, -0.008064982581406777, 0.003107104980055704, -0.00724327230422923, 0.003873027931014215, 0.004573076674422849, 0.004749780617447358, 0.01195164382107895, 0.0026131420339050282, 0.016250973940532515, 0.007641773403896566, -0.0014145036872401668, 0.0010248140715395787, 0.010403743445228443, 0.004974189883557493, 0.003922755799761568, -0.006333340647974281, 0.014586950543077461, -0.007580941361022326, 0.0008151269052390459, 0.006588157376373876, -0.0017496414537766349, 0.009462020768309772, 0.0007374558786959724, -0.01461341736410687, -0.007142976246680501, -0.0005239067676777967, 0.005825014571072008, -0.007942612248324049, 0.0024822325910403217, 0.004208930446724783, 0.007340392662998555, -0.0021591933278391462, 0.004313494249264659, -0.00358783651391652, -0.013416576174123793, 0.0022286400971004965, -0.008146723729679534, -0.020864193983482993, -0.0020886807829531406, -0.00564226528032833, 0.0027716897790566386, -0.009585826346116454, -0.0033145291839173376, -0.0002421111650653452, 0.000759608606135997, -0.006189934856486128, 0.0019929889582081216, 0.012595803861730325, 0.002155656512826096, -0.0021336758875938485, -0.013624368089000919, -0.002005224325515362, -0.0018199387371238467, 0.006129546346395502, 0.00019948768961432342, -0.0065923715651051385, -0.010292463631018305, 0.0037431947570104873, 0.0024014367842498685, 0.010551255299976392, 0.008808368140984162, -0.007007830993223681, 0.007533853829674609, -0.0007630392809823567, 0.0030545440202300357, -0.0010256941031702546, 0.0019321015883764089, 0.010949035879731712, 0.009981578246100518, 0.0016675516292900296, 0.0015667460310676076, 0.0018535251426615496, -0.0009565140654152948, -0.007145750303423856, 0.0026825364632686814, 0.0016564346022504967, -0.0037767027067114704, -0.0020463804857156725, 0.003946370882726234, -0.0010775333021306602, -0.00517387557834902, 0.0015885622443901656, 0.009474041783881415, -0.0004641102734472922, 0.006536423467942292, 0.0043924908629219515, 0.0003247640057711057, 0.0002861472721607915, 0.0037420400023368593, 0.0029704529570170226, 0.0029284526878260325, 0.009366876305418074, -0.004762035760121619, -0.0023714714753298592, 0.026357696090814918, -0.008647751683844749, 0.0022905329297827244, 0.01100047253186642, 0.0012587394656024395, -0.0018942516689436214, 0.004486983859248964, -0.009860098999229742, 0.01683498777775373, -0.0181527986724538, -0.003978064717215598, 0.0024914802981609897, -0.006797479924938257, 0.009302709859993803, -0.0021681428451898396, -0.0028053956379967635, 0.013977530372581612, 0.0010923650372877398, -0.007014271146008364, -0.00708092808371822, -0.0029567123152793506, 0.0005135420686927971, -0.003652011197692956, -0.009680653085217868, 0.007647622483347661, 0.008329496911996127, 0.0008544133002033694, 0.002889313516010836, -0.009172438716957916, 0.011757595100593798, 0.0014133607163202414, -0.0026364392323632645, 0.0051901111323853135, 0.0039408984202600516, -0.0035157069252776912, 0.0019240802495051404, -0.0044470012821123455, 0.0010758681817220185, -0.007383166907664871, -0.00020266302845422434, -0.013884188295085772, 0.0005744754266222812, -0.015108530393613954, -1.9434038975885806e-05, -0.0030368709068956676, 0.0037122723935982898, 0.015487196960843153, -0.00702644785062778, -0.003730211747977038, -0.002221112471487994, -0.0044314845286081254, 0.012097924788297562, -0.0006192124302915348, 0.0027764596125824247, -0.00022616596490295302, -0.0060437854932910125, -1.5297956266798934e-05, -0.0044070717889201135, -0.0024678443963793177, -0.004089313314916079, 0.0067064071552498765, 0.011822872841256122, 0.007915331412498788, 0.007308900753221131, -0.005397584594070325, -0.0016943731655286118, -0.0016224432537776453, 0.014252042878620894, 0.013917754080194987, -0.005571700838500268, 0.01768127891307138, -0.011716490710222826, -0.015352460896272013, -0.007211059716204513, -0.012306196803680855, 0.00985935639669196, 0.005914386157098423, 0.006463796490248707, 0.007717364527464967, -0.007746049313532104, -0.005520528600072622, -0.013041363148681494, -0.0033648935481772344, -0.009643766305160652, -0.005130947343200034, -0.01412756452880592, 1.539734076568899e-05, -0.00816702710633441, -0.010191675062498688, 0.0047887153211770535, -0.007153545045156592, -0.007399774945058001, -0.012847702359784762, -0.003245688407907887, 0.01479092550501185, -0.002738338144342619, -0.006208898206054244, 0.001732308761503697, -0.0033148305953496627, -0.004066964631499246, -0.009089890690145283, -0.0047236226323359954, 0.002384926379925935, 0.01300822474417732, -0.005522065135740973, 0.001683340206991957, 0.005850167309160823, -0.016243373730056496, -0.006908735854313183, 0.0037445208696600075, -0.011117207896324446, 0.0026198878914665564, -0.00577890721008353, 0.0009851752642691099, 0.006824571261376235, 0.004313185087999664, 0.006210092179765554, -0.0015980955268731448, 0.005192841137664924, 0.0011067943423239358, 0.011864362230509217, -0.00900982553178135, -0.0008887207744432289, 0.00854000836461981], [0.0014222650114778378, -0.003165968714226375, 0.013142066230349936, 0.00024003487907424788, 0.004638844419035848, -0.005847801055022979, -0.0038482413815188023, 0.001716779129069299, 0.0014303017690373502, -0.006448886554721231, -0.004855809969347505, -0.013371756594164877, -0.011674416912928552, -0.011119968665539983, 0.0026245140859934134, -0.006648142423007899, 0.009143662129382838, -0.004597425133907822, -0.006761620994309659, -0.0021513807250552203, 0.006142418920666394, -0.007187011354955638, 0.0105447827302572, -0.0036812660521272187, 0.00394318534296518, 0.007754335207049869, 0.01514418282189257, 0.010065808957077479, -0.011301602443152876, -0.001161372035080645, 0.0003272470572168055, 0.0062404387899420155, -0.0005322872748839517, 0.013841794414451516, 0.012497084951468174, 0.010430122811384184, -0.00858048172099525, -0.001703454506971574, -0.007157857501410847, 0.02418913945871869, 0.0027742340771260334, -0.0061990719804043476, 0.004999867815971756, 0.008016068307931825, -0.006490180473351591, -0.0015985680345354176, -0.0056794254650158905, 0.0031947993584344686, -0.0014288980293537248, 0.004994832238746699, -0.002984930955532665, 0.009193262789247791, 0.00421424787929887, -0.008384479464039238, -0.009134203132851597, 0.003367065307936096, -0.005112716628989245, -0.01649214577688851, -0.002507072975494041, 0.004621875127740805, -0.002961967126529422, 0.0011422066683045246, 0.007782551670590358, -0.012040152457515165, -0.012683437142914294, 0.0020385189236913825, 0.010500527945515944, 0.017291142535963346, -0.009014452488476361, -0.01738172255744747, 0.011134211193119524, -0.0008662336363980277, -0.006629272395432757, -0.02166087924978349, -0.009044261645537276, 0.002814508145839487, -0.006696013217635238, 0.001029003351636461, -0.0038975091269894, -0.008800799337663364, -0.00200248106826626, 0.0019901562757094573, -0.0019647727615079765, -0.0025416206916037713, -0.0043366622596664245, -0.002715317046054877, 0.00922445316113186, 0.0007558800266643243, 0.0069211055608234635, 0.005426751089871907, -1.919736865254482e-05, -0.00946489909187622, -0.005832608996739861, 0.00460904898030394, -0.012613753366722404, 0.0019044910021500567, 0.018294671450702276, -0.010321594068553557, -0.01522979538307224, 0.0006103450234419978, -0.002334277533140014, -0.009886129862209865, -0.0019222216169617573, -0.00038184779018962835, 0.002945465819164678, 0.001807648170028279, 0.00020526336659772696, 0.009816336148212628, -0.005080682903890492, 0.00019032344346135827, 0.004225636264006398, 0.002567382106096406, 0.0012972314716095013, 0.0007814547573015875, -0.019394985474476486, 0.014500856171811596, 0.013391326449794802, 0.003849404414856215, 0.001422660380947704, 0.011465826812750593, -0.011998345392407652, 0.002355484636147147, 0.0038484760513525645, -0.00022077111398691247, 0.0008446598437476489, 0.010622591878005284, 0.0033287046046147064, -0.0037009237786349188, -0.0029240411064557093, 0.0035412436244900342, -0.007427061319080561, 0.0033996528495470087, 8.972660177703809e-05, -0.011973925066718887, 0.012079401224114127, -0.009301968312859555, -0.003331503406349886, 0.004465489978147919, 0.011367204815574579, -0.0072931326782052, -0.0020792955836505755, -0.007372006838828773, 0.0010648916660553648, -0.003885404516524206, -0.008897500048949474, -0.0139227759131001, -0.0072102408217687534, 0.0017938653476393845, -0.0011637390873410532, 0.00488309978813109, -0.0007244538978205496, -0.002087432846240346, -0.00618189108683093, -0.01668997524383288, -0.011207992553306713, -0.0009784080456420774, 0.015497847556002411, -0.0026945075829322112, -0.006836756209734459, 0.01658040109992473, -0.01147845130802709, 0.0034217137911290866, -0.0024881018412748423, -0.003158720168450582, -0.0032150840328109146, -0.00993588714206949, 0.009307223661854732, -0.00050168050381203, 0.0033676034386347373, 0.0004518081585604643, 0.006502712044434327, -0.00445862604819237, -0.005537357060163664, -0.008529874580110687, -0.006126522565676666, -0.008725142501778088, 0.015074088651362947, -0.0030510480353653133, 0.005668157750882022, 0.003289731581033265, 0.004478467025457009, -0.005263213229474675, 0.0029581794583995132, -0.0018800101132169563, 0.012555468689114568, -0.0017176700410922875, 0.011843073327118037, 0.005791259696304005, -0.006474125308180982, 0.0030514059171210892, 0.00274915494036891, -0.0053636844749967785, -0.011070712527108919, -0.0030030621051373237, -0.004066138150869896, -0.00042823407674216703, -0.006555714454122074, -0.0016153466354779475, -0.004026994400603035, 0.018767180245956337, 0.009512846576721109, -0.009819975749043247, 0.008343848145037561, 0.0002800029990453237, 0.009367247130902574, -0.012973973552753863, 0.005708427768802659, -0.01778307425090037, -0.006101068567998314, 0.005656648869731697, -0.012522436160379655, -0.005348819103681147, 0.011427014264502475, -0.014331432701941831, 0.015351926066013205, -0.0026913720711632698, -0.014797001649940755, -0.007424591440755885, 0.0036963106030724296, -0.0054667989787493465, -0.0025558132225644127, 0.007324062096135103, 0.01663198025607725, -0.0053950358578356925, 0.01449902519800951, 0.0005520559081527738, -0.009019885536291551, -0.005301874388843735, 0.0002941349074843965, -0.008879166915148975, -0.010073192806206286, -0.0022511241492795303, 0.015933406725836586, 0.012954386588189561, -0.00012097571161319997, -0.010474259711265825, -0.006555478044595068, 0.003905398253868247, 0.0020032145389018772, 0.0040009346311606865, 0.011746747657868142, 0.0006547451300556906, -0.0172602695531646, 0.006967404797528202, 0.014947600456701234, -0.0032262700766356616, -0.0008733075651106736, 0.011468378963975782, 0.00391634980409551, 0.0012307495486146968, -0.002112144874078739, 0.01231943557811015, 0.0007950659438144288, -0.0034549211634365457, -0.0004992387561556778, 0.0023628267117940397, 0.010486105821618448, 0.0002616301912316875, 0.004272435973860637, -0.0060522771589164035, 0.010221492036123735, 0.0011712399439077449, -0.009215416134907345, 0.004685533177227683, -0.013406718347780833, 0.0016937169229234769, -0.028453210299994747, -8.756179327721572e-05, 0.006282214534869544, 0.007035804899872217, 0.0016634193848069545, -0.0024007184772320777, 0.019206159691087233, 0.010911196203255454, 0.00424121761895858, -0.007405961707770047, 0.003464221791718717, -0.007746523125383993, 0.00328562341344557, -0.003911329465225525, -0.016101733733591517, -0.01646138287470104, -0.0008965055078946963, 0.00839056206763239, 0.006910794550065088, -0.0048699840598540114, 0.007257253922237265, -0.008537830281438858, 0.002270721492949184, 0.012578919127063642, -0.001992135014172678, -0.0072177129071293354, 0.01378177972531985, -0.009394811023305156, 0.004082954282488346, -0.0028150960373124613, 1.9454941743515117e-05, 0.007073452916140626, 0.0029284920108418266, 0.0005132665825451223, -0.02156078021353578, 0.0001509119836996403, -0.0024777410706837873, -0.0018098139023731748, -0.0047345628696466744, -0.0064281617645295976, -0.006733585983934662, 0.0016903513093570325, -0.006788107075931637, 0.004894823197627652, 0.011308683928498693, 0.003696481557991422, -0.012731413392740443, 0.005468117108858871, -0.006274553809123404, 0.008136613481825178, -0.005479184034940656, -0.0018722141439507613, -0.013292355290656695, 0.00794137762544879, 0.0007513507058627819, -0.009154588253593084, -0.00013103692067928307, 0.00045734727957049055, 0.006653643127616841, -0.015602190453645134, 0.0019155889515494364, 0.013331329381994729, 0.00789317219550392, 0.0067195839018962585, -0.00781111003486023, -0.0034874534519855707, -0.00017110957170395107, 0.0009275339652370126, 0.006505804200884053, -0.009915486715130348, 0.00898351843524909, -0.00032894438163217813, -0.0008517105640044265, -0.00786455092147326, 0.0012158275191681532, -0.02557115285372952, -0.002242511360648646, -0.002144581840200431, 0.0013353187436747488, -0.005672983111999906, -0.007333227929495714, 0.007197307359679984, -0.010145360316036273, -0.0007526997940098345, 0.005911785552056277, 0.0036540870054677494, 0.012953652748159107, -0.001643472409430539, 0.009313363665125411, -0.004107714856956597, 0.0004944764131133996, 0.007153960046504507, -0.0008518890876243805, 0.0027547623585797453, 0.005313889289411557, -0.0007194212823273049, 0.01810212929016335, -0.002300480918341824, -0.008609604735043744, -0.00035021451465176907, 0.01426527773025717, 0.00519331851782211, -0.013799984763372597, -0.004425971381633183, 0.002454206756867268, 0.01485087964283199, 0.0036821846483791666, 0.001527626823618827, -0.009827068794263196, -0.00032174760509866594, 0.0011396655471093914, -0.005606511528176824, 0.014111349511258297, -0.0112090657271056, -0.007432703621654343, -0.0022395208469335685, 0.0037522335092044605, -0.011883996777810978, 0.010550945078222128, -0.0014181577919324892, -0.001815387750700365, 0.009003415252261835, 0.006145183444569166, -0.005460857042934718, -0.0015360640911404723, -0.0006677625150848352, -0.0005288107976751794, -0.0061284371513988635, 0.004752620027456939, 0.0007223065344727399, -0.0072260804662853135, -0.005342049283744632, -0.0006312649847792138, -0.014365806262479946, -0.002895449525531914, -0.0024508578735814436, 0.00200976163496007, -0.0029223444322303655, 0.0005172158696240979, -0.004240540207413936, 0.004182431664158351, 0.0047173053035250686, 0.0021446179333188685, 0.009740022750357529, 0.011384415361620005, -0.0036967576516790304, 0.00387122722754943, 0.012713733962950054, 0.008168226208113373, 0.010241568423533697, -0.007624397002655511, 0.005754795012943436, 0.011194055535700576, -0.011761923173850282, 0.006710373736037438, 0.0022036729380342113, -0.0025775555499374684, 0.00692241286658226, 0.0014723186586100847, -0.004849403061405933, 0.005182510649220082, 0.011363043685974353, -0.005328993332876723, -0.013869312980778637, -0.00915739289726384, -0.010156861997458943, -0.0037526401387611174, -0.005487771157412111, 0.013244864435262453, 0.00011009452233681354, 0.0001147484114950203, 0.007614006013166594, -0.0007346907024495866, 0.017583277301943204, 0.0007684138865864114, -0.0005683463336052109, 0.0031362978591850197, 0.006502042590522213, 0.017632616724211694, -0.0013829466593680674, 0.019088621481660933, 0.003109227174120678, 0.006006572211641591, -0.011034607143949738, -0.002090952410833007, -0.017120808201679955, 0.01828535439387654, -0.0015126902992355783, -0.008228213926642178, -0.008685739531993973, 0.012276890140326829, -0.0009080391814020695, 0.00044644825170760295, 0.0004113000601008235, 0.011445676751921261, 0.002902622626163282, -0.008740825354884236, -0.005213015912967169, 0.0018934083037913051, 0.0017521893205113936, -0.0006971222128131204, -0.00578610090270025, 0.004932861774755457, 0.007952477655605037, -0.023761194054376298, 0.001653182451725863, 0.003043069583909458, -0.001086413918374678, 0.007064858105528321, -0.011818310093288119, -0.0029273891255908813, -0.0032407180837578245, 0.0018184273450016204, -0.0030506513611572575, -0.010893568321347611, 0.0044326729490556955, 0.006604824137632258, -0.000936371986276408, 0.0005194156575187076, 0.014307654640773668, 0.014699356306039411, 0.0018650483326955883, 0.0023099283401690103, -0.012930823258756078, -0.01367231597741224, -0.014283842673053125, 0.014436637773147028, -0.00522405185247896, 0.0014397300428991855, 0.004619434748287273, -0.011444582797049019, 0.0012647584635775728, -0.005466404091050987, 0.008463025721141442, -0.004377752949234226, -0.012452159910492793, 0.0018424063746479706, -0.009527058771657649, -0.00792034854122613, -0.006858928295703836, -0.007458313211351151, -0.006106673125372773, 0.0022867882737792806, 0.009492847553587527, 0.014935646580370648, -0.008601819948544868, 0.004022373857165803, 0.006331240372642851, 0.012304517807445382, 0.006913569674647737, 0.004489103253976407, -0.002237274634816339, -0.002022457409118061, 0.007980080955100628, -0.00327584322953624, -0.007925450036671612, -0.00336906143529939, -0.004991382440566357, -0.0019146009458770562, 0.0013202990802719747, 0.002432329175446131, -0.0032522802867665473, 0.004613270787589818, -0.010793703607418178, 0.011680064276815384, 0.0006396157001256747, -0.007599455128882015, 0.007618629807734075, -0.006969471584589061, -0.0014233892871784548, 0.002244544952912883, 0.020935356489363902, 0.008563941374118346, -0.0009594198529760593, 0.0007445413559263019, -0.004017341784684437, -0.01168209353933052, 0.005170787433804993, -0.01116111747821972, -0.004792016035167483, -0.00182856099578877, -0.008614060286878365, -0.0008812563108411811, -0.005519942028140132, 0.00829052796635411, -0.001287958931836791, -0.0026711796677277373, -0.009267526660685574, 0.0015319465667639352, 0.005417260978912255, 0.0022833422451135443, 0.003275495991286629, -0.011018650990342382, 0.006208981043099561, -0.016240623704388207, -0.0036660476590042574, 0.0027651924629893054, 0.006118373572327348, 0.0005260896740865716, 0.006760751887532881, 0.009713917274417054, -0.005723632883058829, -0.005219333895947756, -0.01408349297099114, 0.0012608171171860896, 0.006875532791785997, 0.0022412876923261203, 0.00045738175182380366, -0.010502830409833065, -0.0034033082425625233, 0.01601182324640205, -0.006240657161486147, 0.0062726654321609825, -0.005339460878951929, -0.004061246104380877, 0.00413122462548952, 0.004879325435893273, 0.0031869365001398232, -0.006126595438508835, -0.005379453439350584, 0.016613876371640485, -0.0012752070693984377, 0.004898009029881268, -0.001718962926753307, -0.00687050997216178, 0.013037455624879776, 0.0007317470225786907, -0.00945641909635769, -0.006671322033078788, -0.0067088160582889364, 0.0006597529207486884, -0.008176420743486092, 0.016586380066426595, -0.0003786495315420103, 0.012163458446072563, 0.006341184517915182, 0.01308447528136253, -0.0048657585861828735, 0.0029934829862646706, -0.004479201672843411, -0.0006953687235201199, 0.001887498505619661, 0.003672526021344512, 0.00033230293664482103, -0.004370949641445107, -0.0014073860776524423, -0.013063717619086184, 0.005149149465447891, -0.010991376292251616, 0.004760106593508982, 0.002468631728798004, -0.0030535767983429626, 0.0014216122582755555, 0.004994166152880204, -0.008673759492661115, 0.002371017637262194, -0.011996936422057293, 0.0013613114570506521, -0.010434671862722303, -0.0025154112566812123, 0.014647779748582163, -0.0043165834242380255, -0.0068679574575123015, -0.008009469454334785, 0.009674455126489394, 0.0102938696619587, 0.002330195817838527, 0.009437411198337806, 0.01253205925200171, -0.007076483671773359, -0.008573972204964721, 0.01126159482340867, 0.002029744420334877, -0.0010677038597317091, 0.0038102518166346694, 0.0021277848553160348, -0.005725507886798676, 0.00020936337292164447, 0.004085015308887995, -0.006480830843574894, -0.0096884863619378, -0.02035404600957663, -0.007347990945415443, -0.00822877234969047, -0.0021739566883583203, 0.01377903836490222, 0.008106713837513041, 0.007332912264456481, 0.008094223345467177, -0.011313625497266102, -0.016858023687519538, 0.0015783420360348287, -0.0025618119133900595, -0.0062720994024802815, 0.005142571617274644, -0.005246205642068878, -0.002868938534088934, 0.003080467133947185, 0.00811602186715639, 0.009039357231244187, -0.004947531688258296, -0.006825571749618915, -0.009810884458389499, -0.008410899405809566, -0.0021815486093229317, 0.00041668682860581557, 0.003433306734789849, -0.004719921168942488, -0.0014927537386064636, -0.01391935304828599, -0.0024797685988201977, -0.011432935135186333, -0.0029946729448326347, -0.0008512104535927932, -0.00048767029227422034, 0.0005640291117609771, 0.010797755024527575, -0.005059885350263944, 0.0042465656037592465, 0.007944029446753514, 0.009082596581354045, -0.006102272410046271, 0.0033767264605996917, -0.0005147720635575915, 0.011287228647039608, -0.004141449971088402, 0.00037277973025765394, 0.0121669267130708, -0.015090209331831698, 7.874327774637497e-05, -0.005711715870589593, -0.0011724795352076438, 0.007796914727297834, -0.0029823405958275422, -0.0024856065587656817, 0.020277666177926718, -0.0040709289549908535, 0.0026314166680011706, -0.0037212704248477052, -0.00819800747456159, 0.005918726200185122, -0.00013294333749869759, -0.004709954311010234, -0.011696370455690951, -0.010684449201443447, 0.0037919354464201363, -0.002786845259346941, -0.017245764043746885, -0.008497186853094108, 9.254951215103803e-05, 0.004302110263793091, 0.00984818223996795, -0.0069956908836874485, 0.003271830388920192, 0.00034154928033783966, 0.0049473008252386855, 0.0009477927227027135, 0.00381236367640466, 0.007295972839283509, -0.012498775335858298, -0.011362895040544715, -0.0040677490291145, 0.008650078120040837, 0.01053476005186947, 0.013627709014164265, -0.0133709279802674, 0.0038114324090826614, 0.00471306086136984, -0.008323516337359445, 0.0002647438189513464, -0.005123718015085871, -0.007301123894560372, 0.005822457652939381, -0.0015913309661942277, -0.0065608150888907535, 0.012445119331456055, 0.006399847402255324, -0.0038785667653773873, 0.0037772394126076125, 0.0036888363996771664, -0.019385195255749856, -0.007163960302426541, -0.010720096689876456, 0.0077407711918660626, -0.006948649241863308, -0.00921055773569987, -0.008939475666817938, 0.015219854639523057, 0.004528809927095674, 0.003081885748235563, 0.0010835440616193549, -0.008629075114988194, 0.01410565840001378, 0.00030115454695076017, 0.0007026497528947858, 0.015047802905433796, 0.007293482985781184, 0.0080168166823809, -0.00020553437543871479, 0.009226454876087756, 0.00043243564565669434, 0.0004693171818509006, -0.015985481897199595, -0.008344167769210084, 0.0023409092758713513, -0.00973700944572472, -0.004092651515172996, -0.0023859925521111224, 0.0009955477005394065, -0.0037988408775320244, 0.006025882919087377, 4.2515570694190115e-05, -0.01833839134428615, -0.012171638911939042, 0.001674743233354781, 0.0032759884594231554, -0.002390557209060811, -0.012309346275695297], [0.00051591333972778, -0.004632351174457616, -0.005038495004396406, -0.010896899985750873, -0.0026782793868329667, -0.010319781069638382, 0.009102375771209792, 0.0006114390808420279, 0.010954896875869953, 0.02906846291602473, -0.0142342697831122, -0.008448334545073795, -0.0009096248637967827, -0.002346780816961643, -0.011128760894485515, 0.0021085007002537254, 0.0013182785421660482, -0.0006858239035702922, -0.010027061975982599, 0.0024094361211260567, -0.010063024257763897, 0.004656779960420639, 0.00974811436722694, -0.005049987036119053, -0.004287983534441026, -0.00430601692659729, 0.01068353247179865, 0.008655418307475387, 0.004329074636373942, -0.0013207340287697516, 0.009566360708725451, -0.005628268918055462, 0.004157201413731179, 0.01020001432308352, 0.0030927795312355195, -0.001617640239441821, -0.005561078346582891, 0.010890331350090071, -0.012240406601834172, -0.013468901987634087, 0.009007823415990459, -0.0028731040034131352, 0.0004461911568428743, 0.007207123446238845, 0.00816434093133924, 0.004450166224474977, -0.0006667473298932053, -0.003043549869207193, -0.012729124415551516, 0.0017715366131480243, -0.001540024679790837, -0.0092203155116082, -0.0016464817375278994, 0.0014187399824217588, 0.0068101630900295, 0.003994396086672027, 0.006706261494655575, -0.008738071516963005, 0.006664926382008078, 0.0043822677502315275, 0.007051567897239445, 0.002176607746782616, 0.0016871295005073807, -0.010674369776814836, 0.001806672826295432, 0.006312921292397029, -0.005702072669571545, 0.009375264046974571, 0.006661806618033595, -0.007944701591246198, -0.007976810831896228, 0.01067845784653067, 0.006372766648621034, -0.010610142658674118, -0.0035734474729541763, -0.007539232967457385, 0.005918493016299521, -0.013384318288568344, 0.007825764913206823, 0.004662754222682321, -0.015614474716299025, -0.0015100960245762662, -0.0059745279453917825, -0.010980293780664, 0.005573169815348719, -0.009175169102891213, -0.002179648171270596, -0.0008743808230136765, -0.0035877959489032676, -0.0013108285855355257, 0.008232552247036957, -0.011350432940830987, -0.008003902824627663, 0.0030564437978020096, -0.006970241698791251, -0.003050152666254641, 0.01232255519467248, 0.011403497893637902, 0.01352697572924749, -0.001709111828981353, 0.005163933886948346, 0.0011471347427699735, -0.006934465773135808, -0.003998459394170893, -0.00588608614244307, -0.017965829341059524, 0.004565997681254586, -0.007097596235099999, -0.0075867286432907705, -0.0007176169065489116, -0.014407673650012479, -0.005145532341344594, -0.010115999163663682, 0.003071948165964913, -0.012631068339427334, 0.001449471243957889, -0.006413793121604645, 0.007701254277900934, 0.004964795707683277, 0.00815102276367936, 0.001937371410882218, 0.021638020607168573, -0.002464687064827609, 0.002447418686893519, -0.00036058203641260413, 0.00739709992234633, -0.0044878998902702985, 0.007549363079971362, 0.002494401591479324, 0.0014048075328765295, 0.003395196791647714, -0.004159833017738373, 0.0059520324231944295, 0.00742581353691685, -0.020908227739299665, -0.00513435217741827, -0.004980489022404646, 0.005835418748396763, -0.004054013854493219, -0.013077341077639734, 0.006349605311840775, 0.016295186428574904, 0.00473013492865496, 0.004557614777171099, -0.006493231482774908, 0.0007840586748019126, -0.0011954514157303962, 0.0010089960287055593, -0.011763843763018785, -0.009315797998581657, 0.002213544030458611, -0.0003524459318851582, 0.0006441114101876028, 0.006550577506167151, 0.0004651685208650346, 0.009623095031066745, -0.004413446729051107, -0.012339373060127971, -0.004465828240592519, -0.0006496079797389624, 0.004920519078206381, -0.02113046032774893, -0.006618111851355484, -0.00013173987778923528, 0.00047446362309408544, -0.00659033741136307, -0.0017746209856089265, 0.0015861007966328467, -0.0017432040030416188, -0.008407243839292792, 0.001967513892087932, 0.00240834631477458, 0.015341568772292135, -0.010129903113270639, -0.007575894340261961, -0.0019456104575426229, -0.0032500175971127265, 0.0073438029118870285, 0.006187119148138736, 0.0017379021557725439, 0.006486162999828046, 0.003241618610156697, -0.008886435537439681, -6.946299954664364e-05, 0.010692890435521836, 0.0022928295750197017, 0.008566135304122435, -0.00017565304860267005, -0.001370920105740984, 0.0027808441670259263, 0.0019180239890003166, 0.009784261321561266, -0.003373089962559796, 0.0022537471727366617, -0.002720544703074657, 0.01604747299615709, -0.018221651231045164, 0.0005011514594577139, 0.0009530557327616142, -0.014055360375182195, 0.010703192118442468, 0.0013035787072656283, 0.0015231681318407608, 4.961769342310801e-05, 0.00898670690485061, -0.0011676213125093563, 0.01204014754361389, 0.009707502810130164, 0.0018647851655635126, 0.009699365343425744, -0.003966525661642024, 0.00505723236000099, -0.018703832689788386, 0.012087570720349144, 0.017969250661587378, 0.0002015241707386935, -0.008439065342871952, -0.004496590633566259, 0.004023502224088863, 0.004254188671046523, -0.015273998817832802, 0.010290624445739523, 0.014472353548085808, -0.002986398084741995, -0.003299143689890085, 0.006776225262358657, -0.0005616236378954628, -0.014556751572335639, -0.002809915872275094, -0.007613448143530652, -0.005025238695448986, 0.006201177925676176, 0.0032326366721874425, 0.003107682616485307, -0.006683028313121774, -0.008491696988364992, 0.008468335357214578, -0.006439372369452392, -0.005656041656407738, 0.009781704789093059, -0.009302095676072033, 0.004206364904912491, -0.0008998982772531099, 0.0028941804757942865, -0.008225121237446367, -0.013475773168590428, -0.009009079596798064, 0.005284309074433376, 0.006442842044001938, -0.004289957167701763, -0.006806624337722589, -0.005569826846286634, -0.01470517321077104, 0.018037066338284665, 0.00018359814229478803, 0.00044383135872347757, 0.003355821396778352, -0.008316396533015582, 0.012143431319871554, -0.008552640219738306, 0.0036052386125165303, 0.0031306768827111097, 0.0015673954970676736, 0.006322774711759444, -0.009032953900038181, -0.012675214999871155, -0.0045028001855044785, 0.0004623306969156362, 0.015130170131206575, -0.008434848877401991, -0.0022331370740569507, 0.012270524799185346, 0.006115255300999144, 0.003855529945634529, -0.008829886384918216, 0.006143714947226423, 0.005024769719517517, 0.014935919365787398, -0.003221814115057607, -0.00457551459013814, 0.006864421475251001, -0.007075926256430983, 0.0006958659802350563, 0.0002635628115622812, -0.002541513975634211, -0.0053313839215441625, -0.0039208853547463875, -0.0014957855129515269, -0.0015484285289996934, 0.007275723091755514, -0.007777014871060596, -0.0031554857590148705, -0.008542883101151965, 0.006542154314883423, 0.01059798828519051, -0.0020449286184048747, 0.0026235151572604055, -0.004918883046358786, -0.0013254602285183768, -0.008003813150675795, -0.00060811106101189, -0.0024838365281530427, -0.013321782109901682, 0.004608577241827765, -0.008532370826618067, 0.010204793124202586, 0.013233515242327647, 0.007675827753162928, -0.0038611208685275446, 0.002874234929602485, -0.0069174200821682415, -0.008240455324981877, 0.019102270021172017, 0.018129528090165378, 0.011094829778469298, 0.015217285183884406, -0.0005467022883654491, -0.0005694005898640514, 4.265037177902241e-05, -0.0008830157572169896, 0.010043106165581656, -0.008415674771586862, -0.003862381639071991, 0.0005315720652344396, 0.006952828065309422, -0.000325122945810437, 0.0047451803887343215, 0.003998721623558593, 0.0060041842122837506, -0.015575956058656805, 0.0002753193542230938, -0.009833561896042276, -0.013827974738135922, 0.009205395405720776, 0.011090629633072033, -0.004101738486555559, -0.007318706814257973, -0.0012044010731080735, 0.0037180430688543193, 0.008154040887055571, -0.00693035107235638, -0.018276822492820574, -0.001001178359619877, 0.001423561179089846, -0.010146967680081494, -0.0076781003340279305, -0.01100563111940223, -0.012762529628582417, 0.006189583624753577, 0.0005990585203265138, -0.016353165482514236, 0.0013798193567869017, 0.009636571964379085, 0.0038765312668882284, 0.0017575485372156377, -0.0029080529352412433, -0.008109601887518266, -0.01941485812077937, 0.005274867349248377, -0.003185380807600857, -0.0036366982419145416, 0.02419916839848617, -0.016389508005575672, 0.0227504560133015, 0.001109546685940653, -0.01072916337501953, -0.005113415548597885, -0.00818936713987645, 0.002985302448928275, -0.003853440588321368, 0.004125834816496228, 0.00970011106269416, -0.0031757103163354552, 0.005053481971783187, -0.004266430151954288, 0.018312613012296697, 0.01159034728209508, 0.012338917525593924, 0.009507353396288293, -0.00897438143284156, 0.0013907409061259773, 0.014209326120142704, -0.0011996989491057327, 0.01129663687748773, 0.002912518385986616, -0.012535911313938303, 0.002652371887897871, 0.00909226368537278, -0.020588134704125936, -0.0034329435233242276, -0.0021428487468310407, 0.009992298597869521, 0.015122729871207346, 0.009844857263358238, 0.0074146559128150874, -0.0029262222978286177, -0.016937150252986092, -0.00029018288661587083, 0.001366121769808669, -0.004340810029063751, -0.008706122776763752, 0.009744272502035387, -0.0037121939141671373, 0.008218034486434694, -0.010045238882486046, -0.00302522802295088, 0.006249947283368691, -4.16844357896901e-05, 0.006845108154896109, -0.0036157314785271837, 0.003020230238429704, 0.0033580153146349923, -0.0005263378019354337, 0.00842819495604367, 0.0023365103170584485, 0.019385965917789988, -0.010427241991286248, 0.0006675639346729547, -0.008738477929390824, 0.009470843852414368, -0.004488650079030423, -0.0037342933728617264, -0.01009229576884099, 0.026213357770581015, 0.0013090482842744659, -0.003969743646479255, 0.006180132260697987, 0.0031878506370105653, -0.005345420380255548, -1.7256143277130854e-05, 0.019087928916069908, -0.0043231387410462094, -0.02036681720789982, 0.014047380053115087, -0.006531880430938328, 0.00587280856888009, -0.0019434092775042235, 0.004090911169322464, -0.01046898180857572, 0.008346123233953366, 0.004527851781301551, 0.0005650373887282452, 0.009748320540972948, 0.00659230685664061, 0.011442367410286158, 0.007226856102630733, 0.001180317053029881, -0.003374405485192763, -0.007728980646190382, 0.0030026585836260646, -0.005843656423513904, -0.021237746255540875, -0.0030831470128887518, 0.005312052767363938, -0.0134136047201534, 0.0016820995513176552, 0.008284653856362716, 0.002593321697626418, 0.0019066746560927946, -0.0027297362341470823, -0.00470623273592034, 0.006502411599164661, -0.0047697329659134625, 0.00030577495690369016, -0.007027923906408764, 0.0120530503518491, -0.010013582819964739, -0.004232312390411612, 0.0013197341895837835, 0.007267775685895755, 0.0207454620295299, 0.0006520255517417957, 0.01348762572188603, 0.002549330136848704, 0.011710016062376693, -0.0017933643674740145, 0.005642893248028338, -0.009221244454266768, -0.014068152620933687, -0.010582639925790126, 0.016238300705659417, -0.0018460702108388267, -0.0032276836719061053, 0.006834210228180469, 0.010661573368394319, -0.0034064331605733987, -0.012201686750533222, -0.0031315654720539586, 0.007681126268820569, 0.0021825914893914096, -0.008119116292413305, -0.02217718358435045, 0.005573456334540363, 0.0010021183453563945, 0.007046531979119275, 0.008684527992633802, 0.007635723495211699, 0.007086515828367425, -0.0014366430350417762, -0.004675373560123608, 0.007885606555658361, -0.007479468506233777, -0.0009550756395327385, 0.005928401355129261, 0.001627233599075786, -0.0028245890326648224, -0.0005017849990862157, 0.015101433826245797, -0.0017337959401029967, -0.012627722988648228, -0.000581142364912824, -0.0005617273566392942, 0.011758322675388847, -0.006895407148910443, -0.00404363962933255, 0.007372362016929917, 0.011121714276007574, 0.004180091023801496, 0.0006073429237572518, -0.002178839846776885, -0.011336817776743812, -0.0018551107839783914, 0.0023266596543178686, 0.004592674141252087, 0.004065692528080183, 0.010419356947183172, 0.002328259427093252, -0.011543546888381918, -0.006216523240523128, 0.007667635959343919, -0.0027219222532280643, 0.013351132441305442, 0.0043266158125594145, 0.00227427032724948, 0.008379819488136715, 0.009138554109276852, -0.013092153050296524, -0.0028303003969659254, 0.017051936710391066, -0.013369004785451229, -0.010117344172486865, 0.009815507854457443, 0.0003780788235941621, -0.0024578306300426056, 0.0046462840471020225, -0.012646891247474274, -0.010972407814122846, 0.0009710803548151869, 0.008165264298082718, -0.002202977856148668, 0.00986531750568352, 0.0059649767470108615, 0.010373707492428715, -0.01410987007689997, -0.006371675019580212, 0.00041159000569402303, -0.0019679096070245737, 0.0140114814666648, -0.0030472569233791157, 0.017392189289717235, -0.020178528225468947, 0.0037435357142320013, 0.005510428871227692, 0.001660126650435184, 0.01055143498905236, -0.0013810942701530794, -0.0027498929183692477, 0.0027340674813571752, -0.0008652937838557619, 0.007945872515435546, -0.0028924528188071907, -0.00344895124829648, 0.00028958126150770006, 0.0003182736557890068, 0.010989279909270365, 0.007755414434680496, 0.006716878802768797, 0.0028983858624225386, 0.010734889244331516, 0.004217776554465662, 0.007328473560346472, -0.006217529793705056, 0.0029084270643683573, -0.002665221795870004, 0.010916572048485907, 0.004014213961009237, -0.0022971220659930547, 0.007453646412993768, -0.002276606351343059, -0.008173480325995252, 0.006199278086738829, 0.006401059018981446, 0.005678115600112042, 0.002372738724965539, 0.001136883036756574, 0.008728321603660211, -0.010797287499828258, 0.005564934706946782, 0.0006317215851874973, -0.014042926411243977, 0.007182051494607939, -0.01318233731933802, 0.0016838604735752397, 0.007050700767377241, 0.0008100115608380313, 0.003111535470012988, -0.005699625290902774, 0.005764478158325785, -0.000996855544041384, 0.0031947572158767456, -0.01443933658011369, 0.00197557097492321, 0.006621093728516527, -0.00023589604615419497, 0.0068672342655134375, 0.005711368807908783, -0.0059864803195811, 0.008479485192770931, 0.004212952912842576, 0.01544535188508803, -0.00038751051807013197, 0.017396046375290734, 0.009589695650975248, -0.0074615168223098344, -0.012651029161348398, -0.0049134513188226515, -0.0064538436911256635, -0.0035991483429279113, -0.004201429663415335, -0.008229616083021031, 0.004336308887571401, 0.00852791335626935, -0.00801557817103104, 0.013157668243450767, 0.01377293326335093, 0.002209636881514653, -0.014280176587054109, 0.002323693288545426, 0.009029213031578673, 0.004707826861633673, -0.009005232084018275, -0.0011092573312249032, -0.0019998780629830576, 0.009218532777447816, 0.008911024141680504, -0.005590297629735626, 0.00953196069039427, 0.0002652336271277698, 0.022054292907524038, -0.004075854177775867, 0.003644524128246484, -0.002503800429158557, 0.00024032312305846877, -0.005634612913173638, 0.004194820845233826, -0.008899587264850026, -0.0010712482816095984, -0.0008046401149673694, -0.0028183447558785663, 0.004864052662491149, 0.009549467880578859, -0.0030774901429197177, -0.004885799225811928, 0.0028681372060800022, 0.0080781803513756, -0.004896066993720987, 0.003200987830339113, -0.008654437818960723, -0.01022891169851194, -0.00901086485683733, -0.001607087371171866, 0.00038087770505080746, 0.012702944491813885, -0.005738573340338284, 0.002976469086856622, -0.011582046053174347, 0.0054407420452844395, 0.008624933506096328, -0.004036937229684946, 0.0028510755726886073, 0.008613659337890068, 0.009278137689500926, 0.0008941043824799108, 0.0014458929096944394, 0.0033339565716575103, -0.013517687839621734, 0.0006346547225548648, 0.008272771521100246, 0.0033134668866233994, -0.011060030923394769, -0.0022472896216251194, 0.0015286310184098322, 0.005137398911613729, -0.003182604125131994, 0.005409371216157049, -0.007620417985540727, 0.008342871558652138, -0.0033470310709887885, 0.0068326302293536655, -0.00804196554655295, 0.007998527636146785, 0.003125460498607334, 0.003396767099701781, -0.00027732955206904807, 0.0005505597377378884, 0.0007445769065789828, 0.022850381554996593, 0.00013657911423390495, 0.00298689890324948, 0.0029054386740535562, 0.01047587061126505, 0.005433986422151594, -0.010254124658684667, 0.0037823639837787667, 0.006355181522433979, 0.0009262633277576832, -0.0015564958317003585, -0.002613355637995228, 0.006897115030812852, 0.005583311352959681, 0.0029432231445156213, 0.003432828169804522, -0.003487186485220415, 0.003617902232680382, -0.009696185151679663, -0.015606871058578064, -0.0052435584988621345, 0.003918699531053696, 0.012743103601934837, 0.00871010864871544, -0.009905220835878088, 0.0024320272819426023, 0.006368557126319709, 0.010219613043750804, -0.009874113149840895, 0.009618415582039406, -0.009336390185040696, -0.01115770366182615, 0.007716669660110453, -0.009125910113028672, 0.003779748337071292, 0.01312347885642566, -0.003902860228905218, 0.0030691253935127643, 0.007168096976212052, -0.020271044421780036, -0.011420695854680621, 0.005305759053361158, 0.0050638122539319605, -0.014080885223698165, -0.006629360032929162, 0.0019459284180921405, -0.004963855889705775, -0.0031385603125569364, -0.0022881263634790473, 0.0024172674581961905, -0.006124517286620005, -0.0067887029810527995, -0.00490082453144874, 0.0011771446065740908, -0.005734614232342397, -0.008292133675496935, -0.004174264124977373, 0.006654026630563806, -0.015519780669754459, -0.0010264713773765809, 0.006228616745229804, -0.002723794594116978, -0.0038038533952209084, -0.006746859789105571, -0.004342395237495069, 0.007753167992689385, 0.0012435803159571354, 0.011149979489282766, 0.003550475148632721, 0.010334039315816505, 0.01741463367106884, 0.010510081432269183, -0.001314282885439165, -0.006818175350855099, 3.9979275712302545e-06, 0.012440508556464105, -0.007788152716873931, 0.009450621942191604], [-0.010833993012018586, 0.003799003987598517, 0.0012583455340091079, 0.004618083101397616, 0.0006305451180088347, 0.01082043231449042, 0.0017795103149057497, 0.007481312647405529, -0.00348948563372984, -0.0036164849754215384, 0.008214436848665449, -0.009798562091717212, -0.0018564556984036365, -0.0044436368380157245, -0.0027395009889419845, 0.0031582181605493563, 0.010671039036663886, 0.012309902359225718, -0.005961375373803125, -0.004349131959996913, 0.008501578245450602, -0.006784126843574, -0.004465758773439579, 0.020502137195378693, 0.006143383478744401, 0.0021379630526281016, 0.000784058694707685, -0.011069126886045187, -0.0036067529178075916, 0.005569454806619024, -0.0007934011884833299, -0.012222051448918763, 0.017422843289006864, 0.005218686406661388, -0.005504295640423696, -0.006248562808021078, 0.002562248251242617, 0.0030257906068779134, -0.0016638077681684165, 0.013251956068195837, -0.0010569539889808718, 0.006348503555438116, -0.006712592505191498, 0.0030870047959564617, -0.003508661163808325, -0.012582069480003002, -0.010779703766296042, 0.0007985610833784843, -0.0007715674205952223, -0.014979560346803297, -0.006470569233959441, 0.0029484523565763083, -0.007795072057350201, -0.012792400798192603, -0.0035083354352451906, 0.005645601178056486, -0.02050912821828025, 0.012436075693361665, -0.0004808625433219466, -0.008021955584397196, 0.0012354584980834996, -0.0115106831981876, -0.010074032667270631, 0.008588456449022034, -0.0013807922834719762, -0.002322815174614808, 0.003128627570281709, 0.005041291296866427, 0.0038227982072320953, 0.0019259778281948256, -0.00941586492468753, 0.00434325807338936, -0.0033466810444652854, -0.006666091961103833, -0.009416890579500582, -0.00042420411688644764, -0.015702042067849545, -0.005493591365284736, -0.0016101928674255004, 0.010561059597449192, 0.0013607042163593154, 0.001440760664914401, 0.006443048480002685, 0.001147782668318404, 0.002408203276777342, -0.001093219717410021, 0.009163378721816886, -0.005528517644121066, 0.006650136280254021, -0.02017165927489043, 0.004962833382110186, 0.003668822224229772, -0.0010331117994839014, -0.010793766344704511, -0.0028756891036925097, 0.011070332052386908, -0.010966692568277276, 0.01784444042129454, 0.00546343613994519, 4.8191488814691605e-05, -0.004463952542342752, 0.00551461087653027, 0.0027607238182175264, -0.006797587970806787, -0.0017894957295713665, 0.009634174411982745, -0.003935935162365248, -0.002424201895999162, -0.009354238807044706, -0.004679271786381336, -0.007018465658099079, 0.008077932317698171, 0.0011362349854316103, -0.017336953577267313, 0.0037579877526122234, 0.003669464383652334, -0.027909878356123605, 0.019606832707633005, 0.007388837370184424, -0.03309154490244939, -0.0012953684957028903, -0.011050326277916593, -0.0004615809793678895, -0.0022680103124871308, 0.006450361695803669, 0.008342216083582876, -0.0059560633273849205, -0.0027277054885818408, 0.004697181814178092, -0.009497586727803951, -0.008458324973202933, 0.0068064505774833245, -0.00588227706062157, -0.003525886042970367, 0.005379840660620538, 0.0005162007692854478, -0.004082728022953952, 0.0036385155418063413, -0.00484568866130909, 0.007918789079654064, -0.005647195353529628, 0.015812405481902707, 0.011423568632199475, 0.0032686205602766795, -0.016668529801893286, -0.003494418436369177, -0.01191446381591809, 0.011752556815077043, -0.004860887066482774, -0.007221501575043712, 0.0007721228990836521, -0.011790833730494821, 0.007879450774594347, 0.002591949150142055, -0.005525005545579256, 0.00558316328203254, 0.003790721238525502, 0.003528335850473554, -0.012439775057274506, 0.005740252179707578, -0.001348913246839934, 0.003533855519915108, -0.016445652966382604, -0.010565618336311271, -0.006143170262462108, 0.0033582493236847593, 0.008217941361162167, 0.013707947055590298, 0.003992102407092921, 0.008565307264966033, 0.011943634353056476, 0.00035193246509860807, 0.005409217481982123, -0.011086222516597645, 0.005960881265301978, 0.007572353222214675, -0.00833720855177168, -0.008156740467985864, -0.0009461151271551622, 0.01726083390102788, -0.01058257185347763, -0.006745875814325943, 0.009929428422343461, -0.004090125352540814, -0.0023896710044479645, 0.0007014943502307931, -0.0018601857649196128, 0.01184254736311276, -0.011692949824540725, -0.004367238190741808, 0.002330725402551295, -0.005328412357959465, 0.0015506083733718998, -0.007468763715425188, 0.006530948185573774, 0.0039111657603711015, 0.006269597435404067, -0.004973536513810625, -0.004921676623691071, -0.014494315492393878, -0.0017239775757542568, -0.0011927448963590292, -0.005249281281651628, 0.006745409764498934, -0.003888682355682715, 0.0026891277705918763, 0.00030707469905421724, 0.01658596782872888, -0.0007922434952718219, -0.00014891165678457868, 0.006148567535750829, -0.0010475587304235253, -0.0061049388951452295, 0.0018712031014500722, -0.008446545126438559, 0.0046782977385166685, 0.00099703383883238, 0.011197378327455465, 0.005061810538216334, 0.012613292476533733, -0.011872861492619138, 0.012862508687878483, -0.0051235366370010705, -0.006087422911263848, -0.012546389314272266, -0.0034397262319360747, -0.005738500355054419, 0.013278417226450354, 0.00019711174270391468, -0.0004471504921431652, 0.0017608131168875196, -0.014273147340256857, -0.006168616694823103, 0.0032575658478458647, -0.005543867855734954, -0.013089164022578918, 0.0004503106325119525, 0.002248632813693035, -0.00853611180065425, 0.01308973983636038, -0.0017316138206318287, -0.008757448599437287, -0.0006041914877552048, -9.497342684558915e-05, -0.004300738449685893, 0.01333970197500056, -0.004095651596790352, 0.0036758798595820158, -0.0002925579175868708, -0.01472581503178723, -0.0037348556758000626, 0.006969467736462725, -0.009304254759565941, -0.006939363751832216, -0.000650200120480996, 0.010009783250371104, 0.00526935664885048, -4.311701682836084e-05, -0.0093295893451794, -0.0022153824987357655, -0.002116560978272181, -0.010452686181918146, 0.008844675435697884, 0.0006722854505745076, -0.0015197981527462652, -0.007089777812509056, -0.011257092771220436, -0.0048307896626743315, 0.011365356689721037, -0.0036484881959526405, -0.001851702296496838, 0.009228359707843721, 0.0010815923489559387, 0.004838296685198439, 0.0037227373550654187, -0.013423355913039009, 0.003916935183516763, -0.005061009951012147, -0.01905089247684626, 0.005859278390124792, -0.004181996561225188, 0.0009499451001955635, -0.0007236077765497447, -0.00941058473046127, -0.0075013758098226024, -0.003612404069427669, -0.0017330049613001998, 0.008392805515111698, -0.0028862121649728713, 0.012455081976371732, -0.00909282744538379, 0.0038210304474457844, -0.007864582499923039, -0.0039916822110367504, 0.006833500289715045, 0.014409151869831707, -0.0030399515710784167, 0.008555864420835647, -0.005321454806418373, -0.006546166636487089, 0.0027723582481555963, -0.0007494904629940414, -0.0009761828925308201, 0.010312913383109185, -0.004611486730874658, -0.007699572988892527, -0.012224806872626521, -0.0004628237186978378, 0.0026821333080677143, -0.011250966201958817, 0.0022907389025080614, -0.009100088776782166, -0.00676281518128936, 0.0031619510886813492, 0.0032741625456391378, 0.0018908150445224995, 0.0006323757971074055, 0.00914552140664079, 0.0046956776853833175, 0.0007452015382334423, -0.003769649360384091, 0.006947269950407715, -0.005796993815844795, -0.014511320434314919, -0.018078421986565434, 0.01187616223211431, 0.006314342332981508, -0.0032402905162505894, -0.003365133772480157, -0.007188092399365994, -0.005216742544178594, -0.0050367196246687935, 0.002779962618678742, -0.00452445992213733, -0.004613235148422561, -0.002977575435692495, 0.002462275684106531, 0.0013178694021434934, 0.0024161149481084073, 0.00942973399358904, 0.0016256042447559311, -0.00827380139101488, -0.008313378902499884, -0.007739713201809113, 0.020802089869961515, 0.004430750875703116, -0.01585072421772175, -0.0007257510759773666, 0.002860266620557403, 0.00931309782554653, 0.015514840947019286, 0.004082788636321949, -0.003358429120842475, -0.007255286124600248, -0.002691927157917118, -0.006565178471020806, -0.005556924873789772, 0.003510595530983858, 0.0024677276855709766, -0.009604236958905617, -0.018157680394272475, -0.003555387641959917, 0.009461513643248457, 0.002587174398011474, 0.00090625797061287, -0.0017999318769240035, 0.010086309583795658, 0.004293189593073973, -0.007784184806214754, 0.002910443061197611, -0.0043621535156097065, -0.0014913636566514874, 0.006331986362068534, 0.00043258549601661085, -0.006633826765238585, -0.009951651735802786, -0.00039662766797922655, -0.00430698800309376, 0.00027045345921429493, 0.0015481469584729846, 0.0036340070652151127, 0.007543731207129703, 2.9026601860671455e-05, 0.010095631130430544, -0.00982934334079674, -0.003531923229028504, 0.011641122451511873, -0.003990041608751064, -0.009377014412738572, 0.00025826955718738064, -0.00014764572112692097, 0.002903097623875034, 0.00927537383529068, 0.0006348893739291897, 0.01156891667653536, 0.008136373208384551, -0.004053389390739766, 0.0014260227696455481, -0.0016607398117237306, 0.012430017589903145, -0.013385186474848643, -0.004851854060933545, 0.0038271807572247485, 0.002965876780051079, 0.008077377978222068, 0.011776179078472409, -0.0017854102515192617, 0.003653139846638786, -0.0069232654916860596, 0.0016161339773401449, 0.009861557091457198, -0.007593348781057389, 0.012339622973151134, -0.000661217701934114, 0.004355917783366467, 0.007093570944516002, -0.0004991909120442977, -0.009405341712691131, -0.001284120348570429, -0.002018023063482743, 0.006188065472097899, -0.020132791866713663, -0.003581777176131171, -0.006173128146646747, 0.011774443896431952, -0.0061056342958741945, -0.007417677267274083, 0.007261350564231382, -0.0008083531810598023, 0.005523566674975169, -0.004671702671960386, 0.0015852145783765124, 0.0039792241760699095, -0.010473970599672184, 0.006772270117795102, 0.000994639469046072, -0.006049097029376176, 0.006623408633884436, 0.0033576139078948524, 0.00014543196528958173, 0.016910778796682145, 0.010851054652218603, 0.0015888332602357006, 0.00026832009588178, -0.007714057668310876, 0.003944135239598169, -0.007408064168660984, -0.006697432814535121, -0.0038971738947651633, 0.0030774971568076313, 0.00558661708400206, -0.0103409556017263, 0.012352424669525054, 0.0034042071025895595, 0.011305815516691813, -0.003854220884320886, -0.016971744743033444, -0.002491310838018562, 0.0008757849364738087, -0.005996156211288179, -0.0002937881285161911, -0.008008811689658488, 0.003476025069280739, -0.011201038411726582, -0.004037234197158116, 0.00307614538711375, 0.012305273288971812, 0.004861863086373692, 0.0023204300720824785, 0.0018207945668207025, 0.004578658840805966, 0.00287455807559813, -0.004344846000596185, 0.005030114686883352, 0.007013548331012325, -0.0041987478957150335, 0.001081658993343069, -0.009346039059230048, 0.009279920132003428, 0.005875879747960199, -0.005016130310581946, 0.009805010283266071, -0.0025890728230619567, 0.017284423727440462, -0.00391498660261248, 0.0013849312872392461, -0.007909137176606679, 0.0022745352997204766, 0.00938198928209726, 0.0034629775948421017, 0.002014126571662373, 0.0067672222966293095, 0.012993923594630299, -0.0036144384397303777, 0.008001641942560084, 0.005984951620108798, 0.002470706004758261, -0.008115530838050597, 0.0054204308868269786, 0.0022377932800942534, 0.0005303874575289055, -0.024811480069020626, -0.01335217094202628, -0.011891030273767865, -0.003414520226394456, -0.0046792334393270935, -0.009042903188260648, 0.0026058746213334216, -0.0036574456185758126, -0.01934967157270225, -6.045931937161846e-05, 0.003435678874081103, -0.007323396714060073, 0.0006795247268249614, -0.005016657861167877, 0.017002357582548068, 0.013194076774502808, 0.006274455677088716, -0.0014409193441735464, -0.0028369177794014093, 0.011194711825942902, -0.0075158111214372264, -0.012686711017950256, 0.0021665581375394714, -0.013878079689183736, -0.003410644387024666, 0.006455005828630004, -0.002141857494460644, -0.0006428669549509051, 0.008106015721555357, 0.004556629779089383, -0.02027832749864718, -0.0075024365988526805, 0.0016363944927607337, 0.0037783429722287316, 0.004181667067634019, 0.010300673564999262, 0.012505094525463592, -0.005007094204456815, -0.0108020523469333, -0.004734718894140376, 0.006745600739791562, 0.010496079212137407, -0.009627277427889614, 0.010600735007429671, -0.00015899074055382575, 0.0016308819932585885, 0.003101352750565903, 0.009412396703517784, 0.005061718183927162, -0.004624730681656066, 0.004953721109101664, 0.012524319311128703, -0.003539203458734843, 0.011102109361864069, -0.0017914260586967138, -0.010753746806153722, 0.010339457162771654, 0.007847088799528251, -0.0013703840209856042, -0.0004970032311571859, -0.0047724063558690424, -0.005111336453561473, 0.008261863250893411, 0.008221219123713949, -0.00278875941219088, -0.0058191697280476394, 0.0027843169369768314, 0.007941856100802946, 0.0017246895286489239, -0.008407197067483954, 0.003219234598459619, 0.008645129035840225, 0.004444582747648794, -0.004985221473861422, -0.006366288811654399, 0.019006026421830354, 0.0065344570017395465, 0.00678503907516288, -0.0009301619319439507, 0.0030308764246780515, -1.0287088208472554e-05, 0.011210675954341543, 0.005365436119189611, -0.001844707638633894, -0.00179375499681273, 0.0004501979314983352, 0.017194140474087485, 0.010987027190368967, -0.004584228284537466, 0.010837136111644762, -0.003498755140109459, 0.0020181222090813787, 0.003810020045005549, -0.003920650143610357, -0.0030280689756014153, -0.009839604502848572, -0.00028444285351470524, 0.006993790664677396, -0.001293836574554022, 0.004624492194871265, -0.011691408309157582, -0.002791751354678124, 0.007062340366455958, 0.000148383642442095, -0.00048281352723431004, -0.0027401407982868436, -0.009373915736270864, 0.009460960081345499, 0.010833780756274532, 0.0023373785157172425, -0.0012552143456644582, 0.007191788614539572, -0.004386566195874405, -0.008503522847080527, 0.0029885243466771247, 0.008646803231094242, 0.004001192924694603, 0.010982252645392815, 0.0012739795883540833, -0.002855912192729153, -0.007510387500139797, 0.004322228980231689, 0.007990865613626098, -0.0068581725635067725, 0.002634148344925954, -0.0023887716531975993, 0.011612182037494258, 0.0044249413262821774, -0.00461873203614469, -0.022940159976435417, -0.00574689130301593, -0.0027676600336597468, 0.005683428769552138, -0.01174263958424402, 0.006244015252283486, 0.0012883265910502229, -0.010816339144721479, 0.008727577988983113, -0.0027577929845888985, -0.005467578755347483, 0.013078161012368668, -0.0005116196661615107, 0.010197759202488128, -0.00337246204740382, 0.00462029922345636, 0.0031830065556656974, 0.007329810589597475, 0.004813372613851049, -0.0046217997162412375, -0.0026131886083279915, -0.006977628389860792, 0.007098352619558365, 0.004437884423426294, -0.003320568004381867, -0.006068499012659129, 0.0034355211994022755, -0.004558144371671817, -0.007229903998358106, -0.0014099607248771737, 0.011013825327221845, -0.0012784397852814914, -0.003147905144175663, 0.0008891919898297803, -0.003106553543187508, 0.01186679224798076, -0.0035672481990521292, 0.016542920634838563, -0.0008151159191986198, -0.007009425533151916, -0.0018751690093188678, -0.011284131943399238, -0.011159808589357379, 0.012431279607847212, 0.004543863169186762, -0.0008700079846612312, 0.0055827316773315065, 0.003511513501938316, -0.00851377975143322, 0.003833622599048513, -0.004261984994099039, -0.0023682096694704153, -0.0010897850547794327, -0.019399594305841022, 0.007610724158109431, 0.00858147835466465, -0.004072181952083185, -0.0029030594566377393, -0.0008355868867811341, -0.02322487698345695, -0.008808981534327338, 0.006775862995532119, -0.0014432204454731619, -0.006746575196824337, 0.00012019549514425638, 0.0018524010076993995, -0.007739400276983077, -0.012956739293134779, 0.00956926988452076, 0.014697182936882535, 0.0041763069036800365, 0.008410065824646531, -0.012754681009325664, -0.003038624228214426, 0.0119795433336586, -0.019110564655464728, 0.0011010061596280086, -0.0018075745027251568, -0.004983776769032949, -0.007293719169015257, 0.012347219288584258, 0.00138173832951468, 0.004784721618691498, -0.003854462066533418, -0.004243799038118623, -0.0015422114954652577, -0.013831351793895564, -0.005591150982035148, 0.012004095477232272, 0.00962418517857493, 0.0011065853952912002, -0.002610792875582992, 0.004472158873863784, -0.004936210215310954, 0.006076263665317, 0.008144699843847926, 0.002900052716094443, 0.004639883657458727, 0.011610488683937978, 0.0018684893370032602, -0.005635843259442247, -0.00613126628420194, 0.002299582233633972, -0.011335497495912136, -0.0038399149853776417, -0.0028373372198055935, 0.0015046076513114998, -0.0023031819871351684, -0.007896498590233536, -0.005625708160310403, -0.005653338134134333, 0.003368510898109544, -0.0044453903474861445, -0.012140770188108852, 0.006801450929910527, -0.017310066497282558, -0.0006991453831730265, 0.004536953435437134, -0.007025873631115741, 0.0019235485367337126, 0.00846763266678155, 0.009818497144500478, 0.005338598810628669, -0.0023977959848352818, -0.003694460009912956, 0.004778876693955472, -0.0014801757808852666, -0.003646389404445513, -0.003393132504390615, -0.0050018320990983375, -0.0074659872392414455, 0.007059383579552473, 0.0007433860298172225, 0.008521089011096425, 0.014454833705748266, 0.023788295340347248, -0.015129268504041163, 0.0008444288553131161, 0.0033960017287551544, -2.725820057279972e-05, 0.001994691716325707, 0.0019666292637966136, 0.0012557132855057949, 0.007753318797055334, 0.003568214399507238, 0.0029120302486224958, -0.00022991142391596135, 0.022116691097183398, -0.007288326863102721, 0.00231324268073871, -0.008833478443035196, 0.012183378301388527, -0.0023641736583011486, 0.0073624159284971045], [-0.012861963447233903, -0.0028980750177347737, -0.0030402152290710084, -0.001917284620603064, -0.004285218982008184, 0.004895037052072218, -0.0008458128432129991, -0.002078782034184513, 0.00912788329980448, -0.0021411932633272606, -0.003406061535190138, -0.005046835975077926, -0.0033437570962220574, 2.6225154504101594e-06, -0.007121965972975137, 0.007112734160925491, -0.006708609491963792, 0.001071290132714266, 0.00395212704987612, -0.002339241497924229, 0.010069965524497152, -0.012361657514310039, 0.0032349103678543196, 0.0008699262080464174, 0.013935375952713009, -0.009071375620376666, -0.006450374099644557, 0.012778600769691163, -0.008397239313848308, -0.005158660781420948, 0.019740718239104508, -0.0005708828017488056, 0.0067818768411526415, 0.0015961875710951258, 0.009328288478994662, -0.005189059842459642, 0.005810907408946439, 0.004942988048978783, 0.0014741486741851493, 0.006146216595749942, 0.009898820733534573, 0.008838507129776985, -0.00037268719074461896, -0.006586558540594398, -0.0034456736336781766, -0.015294179117799036, -0.002687769903056818, 0.004535567207220442, 0.007818561244307428, 0.008047313487873423, -0.00756042991751881, -0.0018221414173072885, -0.0008773192940520474, 0.017648354356422525, 0.003656734601189154, 0.0006283569099575395, -0.012716551633811144, -0.022334311779389694, -0.005782031236883479, -0.0068393602907493405, -0.0009770606360208886, -0.009898566845015468, -0.010650714527888216, 0.014256369989481932, 0.0072905956163770895, 0.00964657249851581, -0.0036503949406483027, 0.014127878720777002, -0.01745317102304007, -0.0031416935475980946, 0.006754061506222596, -0.009065315112033562, -0.006566106066403888, -0.0033311512515087766, -0.012351619875404306, 0.005061475958437369, 0.004215202111858692, -0.003288919277697053, 0.009542971468267986, -0.0059649347525242485, 0.005164893220333468, -0.003554492325059957, 0.0028299920372325824, 0.004181915357797851, -0.003091726398914638, -0.003201526941209391, -0.0022898551000584914, -0.002979378224431952, -0.0058394308367883604, 0.017289090706891077, 0.006137078547262329, -0.010519265430777842, -0.010832494537528504, -0.00856450991647165, 0.0040112630242854115, -0.01757751582096807, 0.013554881045604008, -0.0003971474197792193, -0.01397470645735559, -0.017781228570407252, -0.0009113578224884347, -0.005138001153462662, -0.008128414954404646, 0.0014502439391474843, 0.013140237367525398, 0.015049695406861905, 0.001114259007351319, -0.003481204998477381, -0.015453178419780085, -0.013648233298453646, -0.00718375470768879, -0.00878723560356377, 0.0031118214005532462, 0.010036557742930906, 0.008772852752079495, -0.004725629603014675, 0.003097414430830801, 0.0080765852914916, -0.004075845330846555, -0.005822703616226288, -0.004537797782218616, 0.0007190447459170073, 0.000798082477303044, -0.0021258968985611586, 0.004787448881965168, -0.0014462660792536265, 0.005621246573650236, 0.0013333136313852605, -0.016620416071366488, -0.002692491305460062, -0.003064435577320193, 0.001233547772626312, -0.006923360971395707, -0.012691101865589537, 0.0054399951912351896, -0.00890756432547838, -0.0018652572247168447, -0.011981160695401682, -0.010221915212424602, 0.0007747733995430148, -0.0018088407372013882, 0.006073257901170247, 0.0059848252343619075, -0.01243028519456112, -0.009631498919566467, 0.0010354579810397183, -0.0025631983562343225, -0.006091361677375747, -0.00855228300076332, -0.0045893039778897166, 0.004321057158870907, 0.007638606400694916, -0.004064670823259895, -0.0024933296696894917, 0.01579136679728517, -0.0008901704346703839, -0.006898898350829826, 0.017320866455620993, 0.0030242278586876505, -0.005375958457901287, 0.004420875374848642, -0.0009081523897543313, 0.0052003464108714235, 0.004662853131623862, 0.0004464597797185526, -0.005815314696868663, 0.005706125294387086, 0.008151605538635809, 0.0002666126258123721, -0.005800082585900551, -0.021097788453941484, -0.00584548479779191, -0.0025827765352270915, 0.004358750594624292, 0.002589573516194288, -0.011174528266656167, -0.003233131721386275, 0.013999227544415167, -0.00423561422447609, 0.0011342343322774248, -0.0011139936734302473, -0.004170973058256471, -0.006681654269305796, 0.00797743184961279, 0.007313735103002093, -0.004896018445600191, -0.008181213906231815, 0.0031984024082423058, 0.002292562268059003, 0.001979334120132634, 0.004244148015660979, 0.006156632340379867, -0.006554572212843039, -0.006765873065069952, -0.0033720725295205665, 0.004020100130563097, -0.0010700069565591028, 0.005963781678465313, 0.00247311506826364, 0.004176053499075214, -0.0012470070592271705, 0.001602539211569192, -0.003961896461827135, 0.0020475189090020354, -0.00041633800032886154, -0.003681352177537951, 0.010277473928037104, -0.0016711230263979004, -0.007933509466636018, 0.004103334428671898, 0.02120685818436961, 0.013276137536077632, -0.0011164412947501246, 0.016425053753627322, -0.001791244295753798, 0.0018688418739976433, 0.01942956442860369, -0.0033846955818130934, 0.002387726408694158, -0.009327444384208378, 0.014067270251396171, -0.00582628007242237, -0.0015086211025825591, -0.003747763985837698, 0.01100389702733944, 0.008377459848971536, -0.022929977562799637, 0.011116573519032544, -0.0014523759588851918, 0.0029806748203287273, 0.0029154522108868356, -0.018584633796836465, 0.005089714038156496, 0.002069961070165563, 0.0055120363449371905, -0.013829804244746157, 0.000489568441719209, 0.004872268976217121, -0.003537934269981801, 0.003516437663582359, -0.00030500481111386644, -0.012394801806203877, -0.01016049632780495, 0.002953824253103877, 0.0024283739129466755, 0.011256850284566172, -0.0007599112492380053, -0.0003575563466146721, -0.005216519443009795, -0.0006541198023651917, -0.007193654761867408, 0.0018729878594989932, 0.002562882445790175, -0.0032402279792386563, 0.002416533501162319, 0.001126626139228182, 0.003946242053935991, 0.0020010084609931407, -0.0011126418878272585, -0.003135909019322063, 0.002087204198193647, 0.0012394122502262525, -0.0009754311013458273, 0.002027270857969388, -0.0026773299317704446, -0.0010900613024704294, -0.005473033709561709, 0.024810552307418157, 0.00579392006733468, 0.006484401343539528, 0.022097823270836762, -0.0006491896086251645, 0.0012265100845212423, 0.004788324301106033, -0.015495081843289684, 0.006875225706965803, -0.006376376172304531, -0.006997044161502856, -0.001487539857314408, -0.007157943623752376, -0.006009151745141839, -0.0010255202423843444, -0.0008083766078424264, 0.005379795805005276, 0.016866457823740653, 0.0016113543830422721, -0.011540136055042852, -0.015129473407843208, 0.0017506384436014805, 0.005681819210565861, -0.0002856969157827869, -0.011927034501181884, -0.014262076570864844, -0.007127510710833284, 0.0028786884051921003, 0.0163060369576955, -0.022582458692269033, 0.004159427571952415, 0.00880973577279111, -0.009241648097255976, -0.0063107995525713435, -0.0028727771070017733, -0.012014962048610658, -0.0009538679877540355, -0.0012380947869591677, -0.008905396492042186, -0.015222820885163073, -0.000559187862818818, -0.01200130032609446, 0.01518539669392871, 0.005728956704727492, 0.0012116407365271196, 0.00176900429145324, -0.0034081055689298393, -0.007890372375706112, 0.007293679101144094, 0.00029234891551604394, 0.014187624788529682, 0.0014027847175229426, -0.004507239990831298, -0.006669336332181786, 0.0006200287265136063, 0.00982538417364411, 7.319935217142439e-06, -0.005744767992960084, -0.0005438984553723128, -0.0024394969410883776, 0.0026865034103216523, -0.014431144581916489, 0.0011461884799542454, 0.006097904868584302, 0.006115717585615207, -0.008555504895703952, 0.006214598502471224, -0.00018151756552212207, -0.007782062235951741, 0.005010244362530124, 0.0009987871830290755, -0.01788334122597596, -0.007355448282487665, 0.0044045532970940415, 0.0014679985037995553, -0.004717752285409423, 0.0014100543816712146, -0.00615107554074386, -0.001375949827937179, -0.010908549087744334, -0.005171178989961107, -0.005465965486769735, 0.010458806933716432, -0.012079152006535433, 0.0033680614260733423, 0.0036182415127821556, 0.012626042270594608, -0.0066044144411519755, -0.014249277338237701, 0.016509837350252264, -0.0035534539672070166, -0.0036389452926762433, -0.007287019665800408, 3.438015045433939e-05, 0.011568481395558133, -0.004842345766252413, -0.00549089117632991, -0.01691236131641814, -0.0037356259073064806, -0.011114403818672958, 0.002102222784778594, -0.0009405103617089853, -0.013003208625066844, -0.004077041495383362, 0.004052608712710197, 0.0041954626141339196, 0.002603303885197624, 0.005563691343058861, -0.0013033951991747502, 0.024053284313637346, 0.019866859062525014, -0.017173320262725007, 0.0013481642544350518, 0.014685025586418238, 0.008330591939107899, -0.005944806265349039, 0.004428900636017677, -4.658008696815777e-05, -0.0007313020767599375, -0.0035245004740319746, -0.011958350121176756, 0.0025455148867892527, 0.0024578360269743413, 0.0065829510707711885, -0.003126082456964355, -0.004070281856435604, 0.007144935783803598, 0.0045923354715435615, -0.006125171000120666, -0.007407617199262398, 0.01632834886026837, -0.0019485725347632467, -0.0027569610451903576, 0.016562719578899786, 0.00486575836598173, -0.005806271695426251, 0.0057480236123232265, -0.0012943839286097152, -0.0036490684292155634, 0.002088516119948067, 0.01099268636553401, -0.009528646132401838, -0.0029435396916751436, -0.00484512111900686, 0.006166394413785007, 0.004592528353314887, -0.005573308238979404, 0.01482327339645728, -0.004814218263105274, -0.009184799219871352, 0.0049067482020690835, -0.006686928396959241, 0.004919523975810921, 0.005799077567756871, 0.007939594462834574, 0.012939075965231502, 0.011342209144433221, -0.002514992607543964, 0.012077264743299999, 0.015769384743396495, 0.01225136946014424, -0.005319686993175379, 0.00983137037109895, 0.0003931045742601839, 0.013374208126678456, -0.0009063101387780512, -0.016234831037354652, 0.00016860996536003677, 0.0002774925413319984, -0.01567643161192018, 0.0027500989171422613, 0.0004554004146512587, -0.005961322265347358, -0.014704169503942908, -0.005864620735073093, -0.02080181977327894, 0.014420482906124155, 0.002142848592554697, -0.003093999260652573, 0.008143598023009102, 0.00886548876758627, 0.004126511099608521, -7.053475530738275e-05, -0.003716038148881685, -0.017167701998760956, 0.0017367077331317384, 0.005336657974594554, 0.006061463259911884, 0.004868932084509228, -0.01405892848599015, -0.0008951633335297403, 0.01221525914145172, -0.0043679915770256685, 0.012996926134948765, 0.008832885997667241, -0.010171498623049535, 0.008189774194958067, 0.014289590154949992, -0.009460069258860762, -0.0034666855107224545, -0.011621763320545342, -0.0014290624254161852, 0.004529686214975126, -0.00048397200973782935, -0.011340322643724534, -0.0014379701748884763, 0.0005491721565068004, 0.0008073516652625666, -0.0011983160322250911, 