{"weights": [[[0.0856272429227829, 0.09447573125362396, 0.0028083177749067545, 0.07193976640701294, -0.0514402762055397, 0.04485446214675903, -0.004095279145985842, 0.026167912408709526, 0.0015759068774059415, -0.05377652496099472, -0.03576728329062462, 0.05809013918042183, 0.05964798480272293, -0.007416273932904005, 0.043021321296691895, 0.08225484192371368, 0.029045995324850082, 0.030475303530693054, -0.03159305453300476, 0.05247447267174721, 0.005400216672569513, -0.043424490839242935, 0.058730434626340866, 0.08225631713867188, -0.0366319864988327, 0.016117751598358154, 0.10053197294473648, -0.023752737790346146, -0.03733687102794647, 0.036939553916454315, 0.08644973486661911, 0.10099494457244873, 0.09095627069473267, 0.056552015244960785, 0.09512657672166824, 0.10358069092035294, 0.08345260471105576, 0.059479400515556335, -0.015563580207526684, 0.06512796133756638, 0.02243371121585369, 0.04694616422057152, -0.04413978382945061, 0.03739262372255325, -0.04788386821746826, -0.01750258542597294, 0.052029043436050415, -0.007180037908256054, -0.014895600266754627, 0.06155484914779663, -0.02317362278699875, -0.046406738460063934, 0.04395497962832451, -0.015936942771077156, -0.037989530712366104, 0.04018372297286987, 0.04329608753323555, -0.024062983691692352, 0.008784346282482147, -0.04622206836938858, -0.011213396675884724, 0.07617699354887009, 0.06190290302038193, 0.06971705704927444, -0.04057411104440689, -0.00030585768399760127, -0.012117298319935799, 0.09103155881166458, 0.08405676484107971, 0.08601389080286026, -0.02322709560394287, 0.04364980384707451, 0.0448891744017601, -0.032350245863199234, 0.02730882540345192, 0.09451112151145935, -0.04109068214893341, 0.09717606008052826, 0.0506846085190773, -0.02330319955945015, 0.0365680530667305, -0.005057447589933872, 0.04094625636935234, -0.04735804349184036, 0.05546196922659874, -0.01428917981684208, 0.002669521840289235, 0.0831066220998764, 0.06597653031349182, -0.023681340739130974, -0.04918130114674568, -0.04747505486011505, 0.032873932272195816, -0.025312088429927826, -0.030967719852924347, -0.0005746207316406071, 0.0810011699795723, 0.04691941291093826, -4.41709635197185e-05, 0.10157518088817596, 0.027613654732704163, -0.03319551795721054, 0.03492705896496773, 0.019753918051719666, 0.05282275378704071, 0.018048668280243874, -0.02465345710515976, -0.010961939580738544, 0.003885577665641904, 0.06664186716079712, -0.0024980525486171246, 0.05114451423287392, -0.030544880777597427, 0.10564187169075012, -0.044408168643713, 0.06428570300340652, -0.05079960450530052, -0.026572823524475098, 0.03429863601922989, 0.07641860097646713, 0.08917399495840073, 0.009821509942412376, 0.0642775148153305, -0.04075618460774422, 0.09359943866729736, 0.0940394327044487, -0.030440056696534157, 0.02247082255780697, -0.0016038976609706879, -0.01619822159409523, 0.06640709936618805, 0.05582217127084732, 0.0650709941983223, -0.05271065980195999, -0.002603683853521943, -0.02395082637667656, -0.051526933908462524, 0.03820008784532547, 0.0007613081252202392, 0.07664439082145691, 0.09070541709661484, 0.01258641667664051, -0.02193703129887581, 0.06999485939741135, 0.048525404185056686, -0.0020816822070628405, 0.08721069246530533, -0.02135191485285759, 0.07908528298139572, -0.03370189294219017, 0.007093220017850399, -0.05443747341632843, -0.03873100131750107, -0.04459959268569946, 0.061110664159059525, 0.10251543670892715, -0.0348525233566761, 0.07796899229288101, 0.032842960208654404, -0.039515234529972076, -0.03467561677098274, -0.04612911865115166, -0.007997462525963783, -0.024304179474711418, -0.04236777871847153, -0.02262618951499462, 0.0366818793118, 0.031559400260448456, -0.04527835547924042, 0.09226196259260178, 0.07974624633789062, -0.04774227738380432, -0.038475848734378815, -0.011012472212314606, -0.0030388375744223595, 0.06965964287519455, -0.011278259567916393, 0.08410526067018509, 0.06270597875118256, 0.06580272316932678, -0.03028704971075058, 0.04610159993171692, 0.015414658933877945, -0.009880025871098042, 0.05145943537354469, -0.015015271492302418, 0.0769481211900711, 0.04296589270234108, -0.01825082115828991, 0.030307084321975708, -0.038146741688251495, -0.009770164266228676, 0.08913564682006836, 0.03069348633289337, -0.03265782445669174, 0.0744764432311058, 0.04640014097094536, 0.10123053938150406, 0.017549637705087662, 0.024021325632929802, -0.03350716084241867, 0.0010709762573242188, -0.050032131373882294, 0.029196491464972496, -0.03557601198554039, 0.09689313173294067, 0.02365056425333023, 0.03054632619023323, 0.02854495868086815, 0.1044599786400795, 0.04835590720176697, 0.10382403433322906, 0.10099557787179947, 0.05493655055761337, -0.005875465925782919, 0.029409920796751976, 0.09032867848873138, -0.0229075588285923, 0.03315398097038269, 0.09328080713748932, -0.052567511796951294, -0.036969009786844254, 0.08675514906644821, -0.04029873386025429, 0.10185098648071289, 0.061948176473379135, 0.04223649576306343, 0.047976307570934296, 0.09546727687120438, 0.03255664184689522, 0.09926991909742355, 0.01025147270411253, 0.09402359277009964, 0.08001481741666794, -0.0009260594379156828, 0.028857825323939323, 0.07274205982685089, 0.08617105334997177, 0.04091685265302658, 0.028776906430721283, 0.07756506651639938, 0.004072145558893681, 0.03455311805009842, -0.04643291234970093, 0.046650346368551254, 0.0859149619936943, 0.02406160533428192, 0.07865175604820251, -0.01407421100884676, 0.09726059436798096, 0.0836034044623375, -0.001660047215409577, 0.10428374260663986, 0.048510223627090454, 0.030091363936662674, 0.011280410923063755, 0.024055328220129013, 0.09584178775548935, 0.050671108067035675, 0.06302398443222046, 0.0738781988620758, -0.011202218011021614, 0.1016325056552887, 0.08907882869243622, 0.07118191570043564, 0.008496485650539398, 0.07102224975824356, -0.040002938359975815, 0.0696924477815628, 0.082756407558918, -0.03624633699655533, 0.06413504481315613, 0.08118291944265366, -0.027240844443440437, -0.050178609788417816, 0.05774330720305443, 0.01595175266265869, -0.02574235200881958, -0.02954394929111004, 0.030758799985051155, 0.05319904908537865, 0.07243655622005463, -0.03129325062036514, -0.002465933794155717, 0.07425820827484131, 0.046400684863328934, -0.044836100190877914, 0.10326128453016281, 0.048981763422489166, -0.022777024656534195, 0.02387259341776371, -0.014441132545471191, -0.045979660004377365, 0.04701060801744461, 0.023769591003656387, -0.042718976736068726, 0.0038275811821222305, -0.05374739691615105, 0.02208167500793934, -0.0012729541631415486, 0.07839389145374298, 0.0415412038564682, 0.06825870275497437, 0.056514788419008255, 0.03734946623444557, -0.03820991888642311, -0.013730772770941257, 0.03511153161525726, 0.04454096779227257, 0.044826675206422806, 0.043983109295368195, 0.047380417585372925, 0.041462190449237823, 0.09543159604072571, -0.00948298443108797, 0.002341188956052065, 0.08615744113922119, 0.06611855328083038, -0.031116439029574394, 0.014955391176044941, 0.10608556866645813, -0.013123609125614166, 0.019260384142398834, -0.012437683530151844, -0.03158120438456535, 0.005446375347673893, 0.025003857910633087, 0.029705338180065155, -0.05106884613633156, 0.0856914296746254, 0.016091445460915565, 0.006109348498284817, -0.022540533915162086, -0.012640655040740967, -0.05049526318907738, 0.07749197632074356, 0.09012885391712189, -0.028566822409629822, 0.02517980895936489, -0.03149779886007309, 0.00011730959522537887, -0.0048970310017466545, 0.03567340224981308, -0.03736937418580055, 0.04667732119560242, 0.03914175182580948, 0.03434323891997337, 0.000148556602653116, -0.01707935705780983, 0.0464325025677681, 0.06883352994918823, 0.09363342821598053, 0.0028588278219103813, 0.07643815875053406, 0.010243595577776432, 0.009117810055613518, -0.0403609536588192, 0.01761241815984249, -0.013504506088793278, 0.08425388485193253, -0.027590829879045486, -0.01052971463650465, 0.10635479539632797, 0.02236657217144966, 0.0491073913872242, 0.0974092036485672, -0.004645814187824726, -0.050672128796577454, -0.05317097157239914, 0.05586623027920723, 0.07908981293439865, -0.031422629952430725, 0.006499618757516146, 0.10152218490839005, 0.015179366804659367, 0.06895707547664642, 0.004586420487612486, 0.022740939632058144, -0.03584066405892372, 0.06503498554229736, 0.0029418517369776964, 0.10557092726230621, 0.06735433638095856, -0.012769287452101707, -0.050234921276569366, 0.05682293325662613, 0.023153413087129593, -0.025952015072107315, -0.03026995062828064, 0.052965983748435974, 0.010279533453285694, -0.003752071876078844, -0.014669801108539104, -0.02111336961388588, 0.09413012862205505, -0.030139900743961334, 0.015518802218139172, -0.024789469316601753, 0.00993819534778595, 0.09504798799753189, -0.005129239056259394, 0.04075271636247635, -0.01969880796968937, 0.01778571866452694, 0.06515578925609589, 0.06458067148923874, 0.09918291866779327, -0.020528655499219894, 0.08418189734220505, 0.052741341292858124, 0.09830612689256668, 0.03145696967840195, -0.053495898842811584, 0.02789667248725891, 0.056658852845430374, -0.015615644864737988, 0.009361405856907368, 0.026015087962150574, 0.06521777808666229, 0.040629301220178604, -0.012777724303305149, 0.08163424581289291, 0.075232595205307, 0.0397251658141613, 0.10413213819265366, -0.04347049072384834, 0.0551779605448246, 0.023595329374074936, -0.048510611057281494, 0.05826590210199356, 0.03660873696208, 0.04895356670022011, -0.032240986824035645, 0.10616106539964676, -0.010098753497004509, 0.05829321965575218, -0.01172405295073986, -0.003086433047428727, 0.006829294841736555, -0.00935791153460741, -0.03416004404425621, -0.04723347723484039, 0.04370252415537834, 0.061172302812337875, -0.0344415083527565, -0.03543519973754883, 0.07028090208768845, 0.01835494488477707, 0.016132190823554993, 0.050962816923856735, 0.10078757256269455, -0.03870558738708496, -0.029348701238632202, 0.021654892712831497, 0.02691090665757656, 0.10607133060693741, -0.027710741385817528, 0.00032686267513781786, 0.05516999959945679, 0.023481540381908417, 0.04332124814391136, 0.022884074598550797, 0.05188664048910141, 0.013202326372265816, 0.10513608157634735, -0.002137242816388607, -0.04778062179684639, 0.03163990005850792, -0.0226530060172081, -0.012583540752530098, 0.048143286257982254, 0.041675761342048645, 0.040214892476797104, -0.04058035463094711, -0.0007837541634216905, 0.09112326055765152, 0.005563891492784023, 0.041210100054740906, -0.008935201913118362, 0.01925714500248432, 0.10174128413200378, -0.0466674342751503, 0.09214448928833008, 0.08024707436561584, 0.05685868486762047, 0.08174663037061691, -0.02487296052277088, 0.07307011634111404, 0.0013133245520293713, 0.01761784218251705, 0.053597591817379, -0.021562954410910606, -0.04169151559472084, -0.034881193190813065, 0.012591574341058731, 0.06074508652091026, 0.02354438230395317, 0.02286635711789131, -0.049225568771362305, 0.031226621940732002, 0.052469540387392044, 0.09071256965398788, 0.040916457772254944, 0.012215245515108109, 0.08450746536254883, 0.008423075079917908, 0.03296022117137909, 0.017337186262011528, 0.02895091474056244, -0.01935199275612831, 0.020838754251599312, 0.03836893290281296, 0.008530300110578537, -0.029229773208498955, -0.034449804574251175, 0.0436190627515316, 0.016111165285110474, 0.06491601467132568, 0.0780399739742279, 0.0990912988781929, -0.018861325457692146, 0.053262051194906235, 0.06269517540931702, 0.09131903201341629, 0.041014477610588074, 0.006656799465417862, 0.009237236343324184, 0.015984240919351578, -0.0006887104827910662, 0.09141476452350616, 0.0551120825111866, -0.035310715436935425, 0.023223819211125374, 0.10343912243843079, 0.10092885792255402, -0.015535709448158741, 0.07271029055118561, -0.04406695067882538, 0.01392428483814001, 0.037850964814424515, -0.001786262495443225, 0.031248735263943672, 0.020986398681998253, 0.02528182417154312, 0.08763435482978821, 0.0844133272767067, -0.04600280895829201, 0.014595944434404373, 0.054030850529670715, -0.05074466019868851, 0.004610489122569561, -0.04703103005886078, 0.08403182029724121, -0.052243154495954514, 0.054387371987104416, 0.09050028771162033, -0.019702713936567307, 0.08430765569210052, -0.048101600259542465, 0.07624057680368423, 0.008170003071427345, -0.027756482362747192, -0.04580637067556381, 0.02555311657488346, 0.0891357809305191, -0.004724270198494196, 0.01439983956515789, 0.024649104103446007, 0.038716871291399, -0.030047165229916573, -0.04387659952044487, -0.013482212089002132, -0.05074317380785942, -0.0019474659347906709, 0.005351051688194275, 0.02450527809560299, -0.05309797450900078, 0.05940689519047737, 0.024448320269584656, 0.04671886935830116, -0.028925582766532898, 0.08073579519987106, 0.04499543085694313, 0.007598888128995895, 0.020697539672255516, -0.0030061285942792892, -0.027057230472564697, -0.0008102550054900348, 0.08513146638870239, 0.05591193214058876, 0.09826591610908508, 0.02603006362915039, 0.09256290644407272, -0.04450400173664093, 0.08680412918329239, 0.012486317194998264, -0.006873557809740305, 0.09727702289819717, 0.0018866065656766295, -0.04850498214364052, -0.0054873512126505375, 0.002590206917375326, -0.03461051359772682, 0.00840090773999691, 0.004893775563687086, 0.021067209541797638, 0.011442389339208603, -0.0018463159212842584, 0.0865873321890831, -0.04043107479810715, 0.10071304440498352, 0.04497814178466797, 0.06025883927941322, 0.01477880496531725, 0.10208883881568909, -0.022812603041529655, 0.08247658610343933, 0.03382251784205437, -0.048945773392915726, 0.05731556937098503, 0.07494547963142395, -0.038021087646484375, 0.08651738613843918, 0.044800348579883575, -0.007991037331521511, -0.03891846537590027, 0.03273410722613335, 0.04069345444440842, 0.029147285968065262, 0.04043819382786751, 0.07449586689472198, 0.0958956629037857, -0.03782607614994049, 0.07809965312480927, -0.021466238424181938, 0.011400485411286354, 0.030099965631961823, 0.08533300459384918, 0.029206907376646996, 0.06301940232515335, -0.035912562161684036, -0.04231784865260124, -0.010347737930715084, 0.03564678132534027, 0.0745246484875679, 0.08780704438686371, 0.0703548863530159, 0.06374143809080124, 0.05028027668595314, 0.07318352162837982, -0.030258962884545326, 0.007119154557585716, -0.012132524512708187, 0.06047786399722099, -0.03534979745745659, -0.043202053755521774, 0.06727872043848038, -0.037097711116075516, -0.035662587732076645, 0.002599539002403617, 0.06471743434667587, -0.05522282049059868, -0.049412067979574203, 0.07377323508262634, -0.038260567933321, -0.022062338888645172, -0.05488281697034836, 0.0953441932797432, 0.07092607021331787, -0.022723814472556114, 0.08317706733942032, 0.024669935926795006, 0.029301848262548447, -0.03943702578544617, -0.03497789055109024, -0.006939550396054983, -0.0037613140884786844, 0.06746906042098999, 0.06166158989071846, 0.04647964611649513, -0.006846089847385883, -0.03241632506251335, -0.054645173251628876, 0.10472168773412704, 0.024310320615768433, 0.07899895310401917, 0.028981441631913185, 0.10273827612400055, -0.008629536256194115, 0.057622503489255905, 0.047831274569034576, -0.05411556735634804, 0.1028960570693016, 0.10618668049573898, -0.051983680576086044, -0.002781824441626668, 0.031767938286066055, 0.020371107384562492, 0.02939377725124359, 0.013058518059551716, 0.07061049342155457, 0.07162903249263763, 0.1062704473733902, 0.08413395285606384, 0.04031176492571831, -0.04910650476813316, 0.09119769930839539, -0.0318882055580616, 0.1048201471567154, -0.006784756667912006, 0.0724990963935852, 0.018643474206328392, -0.02445492334663868, 0.08636114746332169, 0.056593216955661774, 0.060477711260318756, 0.048087820410728455, 0.06513265520334244, 0.03658747300505638, 0.0496857613325119, 0.020115364342927933, 0.054745160043239594, 0.029739495366811752, 0.04056481271982193, 0.027696821838617325, 0.025902701541781425, 0.014795662835240364, 0.06721656024456024, 0.09106682240962982, 0.008885285817086697, 0.021039403975009918, -0.04530386999249458, 0.0714021772146225, -0.011954844929277897, -0.018581926822662354, 0.059572115540504456, -0.04674721509218216, -0.04952484369277954, 0.033852580934762955, 0.05761086940765381, -0.024874672293663025, -0.02562624029815197, 0.10357950627803802, 0.0713382214307785, 0.05989938974380493, -0.046932876110076904, 0.09668400883674622, 0.009238425642251968, 0.06628569215536118, -0.0005648154765367508, 0.05926022678613663, 0.07791375368833542, -0.030538497492671013, 0.008264432661235332, 0.00044507067650556564, 0.052412908524274826, -0.038630783557891846, -0.045247212052345276, 0.07914130389690399, 0.04767609015107155, 0.013288568705320358, 0.059749335050582886, 0.06638442724943161, -0.01205246988683939, 0.004865375813096762, -0.02813383936882019, 0.041196223348379135, 0.030429163947701454, 0.0788351371884346, 0.06683236360549927, 0.051496874541044235, 0.08185774087905884, 0.04117141291499138, 0.06545887142419815, -0.05267539992928505, 0.06896333396434784, -0.05198397487401962, -0.004235320258885622, 0.04741430655121803, 0.09842552244663239, -0.03671199828386307, 0.10207677632570267, 0.05137254297733307, -0.005095258820801973], [0.008195783942937851, -0.09403470158576965, 0.030287714675068855, 0.046879250556230545, 0.015835115686058998, -0.02635718323290348, -0.057551320642232895, -0.06537428498268127, -0.030447671189904213, 0.04822290316224098, -0.08254161477088928, -0.07017039507627487, -0.07423410564661026, -0.02827807143330574, -0.03187200054526329, -0.03678349032998085, 0.011494572274386883, -0.0294976606965065, -0.06454652547836304, -0.03261924907565117, 0.02423088252544403, -0.048268746584653854, 0.019907109439373016, 0.05347869172692299, -0.083258718252182, -0.06721348315477371, -0.03747853264212608, -0.019712356850504875, -0.04822021722793579, -0.07628002017736435, 0.03816215693950653, 0.03403836116194725, 0.04985632374882698, -0.07229461520910263, -0.09348395466804504, -0.01270572654902935, -0.024961862713098526, 0.005182245280593634, 0.057808130979537964, 0.007154261227697134, -0.005168818403035402, 0.02491104044020176, 0.011623318307101727, 0.06564333289861679, -0.02874855324625969, 0.043876975774765015, -0.013002412393689156, -0.05362171679735184, 0.016937099397182465, -0.09173800051212311, 0.02185724303126335, -0.026811949908733368, -0.022648582234978676, -0.034612663090229034, -0.07092595845460892, 0.043486934155225754, -0.07272586226463318, -0.05931248143315315, -0.04116116464138031, 0.035872843116521835, 0.058340005576610565, -0.016851071268320084, -0.0834089145064354, -0.05019793286919594, 0.05814926698803902, 0.008773243986070156, 0.05959884077310562, -0.09383709728717804, -0.024388957768678665, -0.04370944947004318, 0.026288194581866264, 0.04618353024125099, 0.014880981296300888, -0.05912424251437187, -0.04482732713222504, 0.000991545501165092, -0.012292243540287018, 0.023903705179691315, -0.0186933521181345, -0.06941510736942291, -0.004144979175180197, -0.03239969164133072, 0.01826629973948002, 0.03406786546111107, 0.02390200085937977, -0.06308616697788239, 0.013803054578602314, -0.028875496238470078, -0.01243334636092186, -0.019876696169376373, -0.005139932036399841, -0.02244323492050171, 0.05886334553360939, -0.015120558440685272, -0.04245192930102348, 0.0042866007424890995, -0.04848271608352661, 0.0013679162366315722, 0.013707626610994339, 0.05865280702710152, -0.02831781655550003, -0.02953396365046501, -0.06115088611841202, 0.030166607350111008, 0.028505466878414154, 0.03258109092712402, -0.051175542175769806, -0.08951357007026672, 0.03055063635110855, 0.05112314224243164, 0.002369464607909322, -0.014112127013504505, 0.020518872886896133, -0.028668683022260666, -0.08620424568653107, -0.031031779944896698, 0.0003812086069956422, -0.08236780017614365, 0.025888122618198395, 0.021918103098869324, 0.04461650550365448, 0.033960115164518356, -0.0474102683365345, 0.01858592964708805, -0.0957547202706337, -0.009569751098752022, 0.05474824830889702, -0.09259586781263351, -0.045633841305971146, 0.0002560126013122499, 0.031675681471824646, 0.016109749674797058, -0.0715300515294075, -0.03183614835143089, -0.026467841118574142, -0.012622524984180927, -0.060453787446022034, 0.012837360613048077, -0.002705508377403021, 0.04230180382728577, -0.0920136421918869, -0.02617829479277134, -0.06848511844873428, 0.013270710594952106, -0.07659398019313812, -0.002873074496164918, -0.04459773004055023, 0.02590356022119522, -0.060170818120241165, 0.03716251254081726, 0.04692523926496506, 0.005846660118550062, 0.06304418295621872, -0.007914046756923199, 0.0028985722456127405, -0.03129151090979576, -0.0018684170208871365, -0.0027671356219798326, -0.05947723984718323, -0.04525882005691528, -0.09094629436731339, -0.054994940757751465, 0.04183492437005043, -0.03752895072102547, -0.09162046760320663, 0.0026663276366889477, -0.07589839398860931, 0.057991087436676025, -0.07986696809530258, -0.04035456106066704, -0.019857848063111305, -0.08780423551797867, -0.061382923275232315, -0.09051957726478577, 0.045228373259305954, 0.06530017405748367, 0.033848367631435394, -0.04543117433786392, -0.04709978029131889, 0.03534889221191406, -0.01404577400535345, -0.05649808794260025, -0.05446523055434227, -0.019538065418601036, 0.036809682846069336, 0.044653527438640594, 0.015241551212966442, 0.0383966825902462, 0.02956612966954708, -0.06980512291193008, -0.03649894893169403, -0.07651457190513611, -0.06562626361846924, 0.01321644801646471, -0.002079831436276436, -0.08679594844579697, -0.022951146587729454, -0.04346037283539772, -0.019730910658836365, 0.03814039006829262, -0.0281487088650465, 0.011781726963818073, -0.07143545895814896, -0.005375707522034645, -0.0474080890417099, 0.05890146270394325, 0.046253178268671036, 0.027978796511888504, -0.026504559442400932, 0.044407811015844345, 0.0018399128457531333, 0.04354771226644516, 0.018382271751761436, -0.03875388205051422, 0.0499875582754612, 0.010533931665122509, 0.035330794751644135, -0.08631589263677597, -0.00437997467815876, -0.06446950137615204, -0.09289218485355377, 0.04728402942419052, 0.060570064932107925, -0.02349114418029785, 0.0075756399892270565, 0.02394270710647106, -0.015536041930317879, -0.09537044167518616, -0.03345349431037903, 0.04737410694360733, -0.02075384557247162, -0.08571259677410126, -0.0005548705230467021, -0.006136119365692139, 0.0005527482135221362, 0.005647319834679365, 0.007093803025782108, -0.040650494396686554, -0.08840945363044739, -0.075260691344738, 0.03000948578119278, 0.040022384375333786, 0.03849078714847565, -0.042179644107818604, 0.05752472206950188, -0.09402032196521759, -0.09552611410617828, -0.029346993193030357, -0.0063940114341676235, -0.09479429572820663, 0.034453894942998886, 0.02720247209072113, -0.038175225257873535, -0.034535229206085205, -0.019765308126807213, 0.013633344322443008, 0.0204485934227705, -0.029884591698646545, -0.08027997612953186, 0.023008983582258224, 0.02230125479400158, -0.030828353017568588, 0.06225832179188728, -0.08372832834720612, -0.003355971537530422, -0.0805099755525589, -0.01284925639629364, -0.08644699305295944, 0.04302114620804787, -0.04870014637708664, -0.021682074293494225, -0.06650294363498688, -0.08351559937000275, -0.010117587633430958, -0.04374297335743904, 0.043409861624240875, -0.015974611043930054, -0.08853114396333694, 0.014920185320079327, -0.009848003275692463, 0.032039131969213486, -0.08688988536596298, -0.08910466730594635, 0.05590895190834999, -0.05083966255187988, -0.021860452368855476, -0.07658084481954575, 0.05462122708559036, -0.010248159058392048, 0.006426551844924688, -0.0866287350654602, -0.026129651814699173, -0.003456068690866232, 0.04457724839448929, -0.013712299056351185, 0.02149980328977108, -0.07880505174398422, -0.047660354524850845, 0.0016421385807916522, -0.017526866868138313, 0.02550439164042473, 0.05997820943593979, -0.02958630956709385, -0.01840333081781864, 0.02630595676600933, -0.06026507541537285, -0.005888598505407572, 0.0041631069034338, -0.052524957805871964, -0.08730896562337875, 0.05995723232626915, -0.056508004665374756, -0.058727338910102844, 0.03510294109582901, -0.022277766838669777, 0.044085726141929626, -0.013046709820628166, -0.013805815950036049, 0.0008322431822307408, -0.09038630872964859, -0.015949713066220284, -0.04736894741654396, -0.05641321465373039, -0.018579676747322083, -0.04512318968772888, -0.04427327215671539, -0.05783703178167343, 0.009374408051371574, -0.04031835123896599, 0.06224905699491501, 0.028985347598791122, 0.025482598692178726, -0.05908092483878136, -0.07786702364683151, -0.04086586460471153, 0.05703018978238106, 0.042206503450870514, -0.01810065656900406, -0.0066146510653197765, -0.0019419515738263726, -0.001783099491149187, 0.010980981402099133, -0.013106178492307663, 0.05138969421386719, -0.059664446860551834, -0.09272480756044388, -0.09007199108600616, -0.03312893211841583, -0.03514811024069786, -0.07392355054616928, -0.054579805582761765, -0.032406602054834366, -0.058909524232149124, -0.09189026057720184, 0.03476224094629288, -0.03423718363046646, 0.0005474010249599814, 0.02110772579908371, 0.006193859502673149, 0.02518123760819435, 0.03138027712702751, -0.07469101995229721, -0.01184946857392788, -0.05619782581925392, -0.03212786465883255, -0.07959349453449249, -0.06992777436971664, -0.08388308435678482, 0.03615419194102287, 0.011178506538271904, -0.019641432911157608, 0.01644917204976082, -0.025868356227874756, -0.0455218069255352, -0.0015844890149310231, -0.003521811915561557, -0.03301510587334633, -0.07362015545368195, 0.054309677332639694, 0.032985009253025055, -0.0745711550116539, -0.0138844083994627, -0.06602530181407928, -0.08588121831417084, 0.003403485519811511, -0.06361346691846848, -0.0296363215893507, 0.014647291041910648, 0.016119908541440964, -0.06563975661993027, -0.035015448927879333, 0.010809822008013725, 0.0408613346517086, -0.07387675344944, -0.08371570706367493, 0.06522639840841293, 0.016111547127366066, -0.006263465154916048, -0.036268606781959534, -0.09172189980745316, -0.033348243683576584, -0.006586082279682159, -0.05797740817070007, -0.0056228358298540115, 0.01824062690138817, -0.09559445083141327, -0.033517517149448395, 0.05870180204510689, -0.0454372800886631, 0.0656910166144371, -0.0043427650816738605, 0.03464091941714287, 0.04301713779568672, -0.06768704950809479, 0.020916646346449852, 0.020406335592269897, -0.06774663925170898, -0.05412181094288826, 0.05310794338583946, 0.05400899425148964, 0.0007859403267502785, -0.05610805004835129, -0.05719417333602905, 0.005749617703258991, -0.003876694245263934, -0.06839732825756073, 0.011040433309972286, -0.07351472973823547, -0.016712840646505356, -0.032506197690963745, -0.013843157328665257, -0.030398322269320488, -0.019242797046899796, 0.06411002576351166, -0.026510652154684067, 0.0397820770740509, -0.07248714566230774, 0.012581603601574898, 0.04891212657094002, -0.07192172110080719, 0.007718764245510101, -0.04655507951974869, -0.07825256139039993, 0.002435897709801793, -0.08244085311889648, 0.027354789897799492, -0.03693908825516701, -0.09143692255020142, 0.014361165463924408, 0.06203613430261612, -0.06022430211305618, -0.0422028973698616, -0.06833662837743759, 0.03657935932278633, 0.04364106431603432, 0.008808777667582035, 0.04476252198219299, -0.06683757156133652, 0.0016557466005906463, -0.003287442261353135, 0.06523729860782623, -0.05298931524157524, -0.04438510909676552, -0.013285776600241661, -0.06060574948787689, 0.03494957461953163, -0.04333054646849632, 0.01448005624115467, -0.09298714250326157, 0.062177930027246475, 0.026590978726744652, 0.028193069621920586, -0.04043888300657272, -0.033060841262340546, -0.07128597050905228, 0.04883695766329765, -0.00013390665117185563, -0.08949984610080719, -0.0371030829846859, -0.034053996205329895, -0.010892434976994991, 0.0476125106215477, 0.03706332668662071, -0.03752326965332031, -0.0837891548871994, -0.08565495908260345, 0.02605641633272171, -0.09004046022891998, -0.006494922563433647, -0.06294479966163635, -0.06367242336273193, -0.015878962352871895, -0.05611526593565941, -0.028320221230387688, 0.04568858444690704, 0.0529247410595417, -0.028957977890968323, -0.07944163680076599, 0.06479626148939133, -0.08602089434862137, 0.03866853937506676, -0.08332231640815735, 0.013455272652208805, -0.01319873332977295, -0.07582584768533707, 0.03153037279844284, 0.016523636877536774, 0.05044341832399368, -0.07737874239683151, -0.020981015637516975, -0.07315642386674881, -0.08723107725381851, -0.04686390981078148, 0.04540642350912094, 0.045274581760168076, -0.05175996199250221, 0.007683087140321732, -0.05379531532526016, 0.047673940658569336, 0.0409875251352787, -0.06751246750354767, -0.022316712886095047, -0.09461022168397903, -0.00511343264952302, -0.004121464677155018, -0.08922500908374786, -0.0793355256319046, 0.01010342687368393, 0.00956737995147705, -0.024934057146310806, -0.009738295339047909, -0.09418632835149765, 0.021343005821108818, -0.07966255396604538, -0.07405032962560654, -0.030390508472919464, 0.0188390351831913, -0.030679898336529732, 0.034912992268800735, -0.07172935456037521, 0.0065385038033127785, 0.015377877280116081, 0.021005313843488693, 0.04676508530974388, -0.0176398828625679, 0.02882659062743187, -0.05616205185651779, -0.05212569609284401, 0.02562306448817253, 0.045108526945114136, 0.04691760614514351, -0.0025386549532413483, 0.010178724303841591, 0.031789395958185196, -0.04585880786180496, 0.05709698423743248, -0.06771259009838104, 0.012516035698354244, 0.03248327225446701, -0.016441360116004944, -0.01191694475710392, 0.013921168632805347, 0.04106605798006058, 0.03909172862768173, -0.0309137012809515, -0.0637212023139, -0.09216734766960144, -0.04550992324948311, -0.030155722051858902, 0.001642110524699092, 0.05185404047369957, -0.006218489725142717, -0.038200102746486664, 0.018917808309197426, 0.021018102765083313, -0.08000500500202179, 0.012393542565405369, 0.050949953496456146, -0.011213685385882854, -0.029533186927437782, 0.03780486807227135, 0.019302552565932274, 0.048248402774333954, -0.016925320029258728, -0.07943151891231537, 0.05988078564405441, -0.05180876702070236, 0.04661004990339279, -0.0355018675327301, 0.06255728006362915, -0.025789914652705193, -0.02456751838326454, -0.015545054338872433, 0.012684023007750511, -0.08298149704933167, -0.0731063187122345, -0.0736367404460907, 0.00960017554461956, 0.05843950808048248, -0.003976370673626661, -0.06821151077747345, -0.07042989879846573, -0.04472687467932701, 0.05502431467175484, 0.0629616379737854, -0.0706925019621849, -0.02197233773767948, -0.018857816234230995, 0.012857205234467983, 0.02693992108106613, 0.06474744528532028, 0.005545962601900101, -0.07778479903936386, -0.03732236474752426, -0.05879528447985649, -0.08105174452066422, -0.00896503683179617, -0.04252926632761955, -0.0281936377286911, -0.08507926762104034, 0.007671975996345282, -0.06859656423330307, -0.0384814478456974, -0.015153870917856693, -0.07365231215953827, -0.018192075192928314, 0.04724868759512901, 0.02771296352148056, -0.0672309398651123, -0.05276867374777794, -0.049997005611658096, -0.010155675932765007, 0.04076454043388367, -0.0037323394790291786, -0.04960756003856659, -0.04571085423231125, 0.007248078938573599, 0.01608416438102722, 0.04739130660891533, 0.044959500432014465, 0.06248178333044052, -0.03749644383788109, -0.050447288900613785, -0.044019173830747604, -0.06301767379045486, -0.0766211673617363, 0.01634444110095501, 0.03195870295166969, -0.06054588407278061, 0.021933555603027344, -0.06615915894508362, -0.009964028373360634, -0.004176013637334108, 0.01339784637093544, -0.05354746803641319, -0.0804850235581398, -0.086769238114357, -0.07775146514177322, 0.041287120431661606, -0.05744033306837082, -0.07778492569923401, 0.010296175256371498, -0.08354497700929642, -0.07795115560293198, -0.061335377395153046, -0.07022757828235626, 0.004198404494673014, -0.0034117524046450853, 0.004971717484295368, 0.008871445432305336, -0.0877196192741394, 0.01653842069208622, -0.06851048022508621, 0.01675167866051197, -0.02577543444931507, 0.026064958423376083, -0.06255893409252167, -0.04391470178961754, -0.09320326894521713, -0.0776909813284874, -0.032760150730609894, -0.08203084021806717, -0.0317571721971035, -0.07453009486198425, -0.08366463333368301, 0.008822914212942123, 0.04259880259633064, -0.09461954236030579, -0.03762052208185196, -0.07457458227872849, 0.03704452142119408, 0.016978727653622627, -0.018157025799155235, -0.0262509323656559, 0.01796833425760269, 0.030290095135569572, -0.08941986411809921, -0.04880490526556969, -0.023159120231866837, -0.0839502289891243, -0.07140933722257614, -0.0684591680765152, -0.06969109177589417, 0.02896636724472046, 0.0014019147492945194, 0.038975395262241364, -0.05959007143974304, -0.07417111098766327, -0.06896757334470749, 0.003804760752245784, 0.05084337294101715, -0.022747932001948357, -0.09127281606197357, 0.04168209433555603, 0.05867356061935425, 0.03374428302049637, -0.06137963384389877, -0.020939113572239876, -0.0016206642612814903, -0.07373945415019989, -0.03957546129822731, -0.0012158931931480765, -0.06116976588964462, -0.04809057340025902, -0.0800873413681984, -0.031481027603149414, 0.011208223178982735, -0.06731719523668289, 0.0534990057349205, -0.0790686309337616, -0.07246272265911102, 0.03979446366429329, 0.02321983315050602, -0.028768496587872505, -0.030926520004868507, 0.05490368977189064, -0.03015408292412758, -0.08506954461336136, -0.05474960431456566, 0.04909813776612282, -0.0016102506779134274, -0.047032713890075684, 0.015599907375872135, 0.0009600151097401977, -0.08721719682216644, -0.05161813274025917, 0.04743586853146553, -0.028982777148485184, 0.019969748333096504, 0.03613265976309776, -0.04405567795038223, -0.03729372099041939, -0.09030608087778091, -0.048059917986392975, -0.0761428251862526, 0.012946163304150105, -0.0277538001537323, -0.0595281757414341, -0.0756499245762825, 0.005281532183289528, 0.0005406136042438447, -0.028564628213644028, -0.08047299832105637, -0.010741434060037136, -0.05270428955554962, 0.010280849412083626, 0.019673718139529228, 0.009146603755652905, 0.041278064250946045, -0.062408626079559326, -0.09615211933851242, -0.0727696642279625, -0.09279847890138626, 0.007822992280125618, 0.013082451187074184, -0.016624892130494118, 0.017803208902478218, -0.0007161558605730534, 0.04834970831871033, -0.07505585253238678, -0.0437859483063221, -0.051175475120544434, -0.013304926455020905, -0.0816403329372406], [0.018268896266818047, -0.06109928712248802, 0.06019194424152374, 0.055624138563871384, 0.055237431079149246, -0.048979371786117554, -0.08589047938585281, -0.034328579902648926, -0.029508352279663086, -0.061949875205755234, -0.001125378767028451, -0.013580151833593845, 0.01969408616423607, 0.0016891042469069362, -0.012328710407018661, -0.08204396814107895, 0.014549276791512966, -0.07944022119045258, -0.08453898131847382, 0.0272277370095253, -0.05480752885341644, 0.006075046956539154, 0.058520156890153885, 0.04865776747465134, -0.036976467818021774, 0.0587952695786953, -0.08319205790758133, -0.0365002416074276, 0.007819226942956448, -0.04524632543325424, 0.05418575555086136, 0.033967047929763794, -0.06306209415197372, 0.018464677035808563, -0.04693973809480667, 0.03138379007577896, -0.026521585881710052, -0.03972592577338219, 0.03443143889307976, -0.06199687346816063, 0.03342999890446663, -0.09660325944423676, -0.06672132760286331, -0.019262313842773438, 0.025562290102243423, -0.07127499580383301, 0.00023777839669492096, -0.060137439519166946, -0.07841931283473969, -0.03995906189084053, 0.028257446363568306, -0.003457609796896577, -0.06544598191976547, -0.08721114695072174, -0.09193158149719238, -0.08427680283784866, -0.03534186631441116, -0.058118678629398346, -0.02424539439380169, -0.04801294207572937, 0.058131806552410126, -0.057724229991436005, 0.004079568199813366, -0.07412879914045334, -0.06600654870271683, -0.07083483040332794, 0.04474172741174698, 0.009088457562029362, 0.024112382903695107, -0.008529076352715492, -0.0237449798732996, -0.08795477449893951, -0.016533393412828445, -0.08633224666118622, -0.02288389950990677, 0.03154802322387695, 0.06414346396923065, 0.0038094252813607454, 0.025790130719542503, -0.0776866003870964, 0.027823349460959435, -0.037590913474559784, 0.03818073123693466, -0.057239171117544174, 0.051420826464891434, -0.043209850788116455, 0.06242118403315544, -0.027877122163772583, -0.0873098149895668, 0.05382921174168587, 0.020905179902911186, -0.0667528510093689, -0.013496599160134792, 0.05729386955499649, 0.009307888336479664, -0.005042942240834236, 0.062074799090623856, -0.024258648976683617, -0.09289338439702988, -0.01046578399837017, 0.049867238849401474, 0.04182080924510956, 0.05269712582230568, -0.01719808019697666, -0.06035708263516426, -0.06944869458675385, -0.06625455617904663, 0.003670871490612626, -0.02592451684176922, 0.014228451065719128, 0.040958013385534286, -0.07224821299314499, 0.0544569306075573, 0.024062611162662506, -0.001967963296920061, -0.008277946151793003, 0.0458497554063797, 0.041048672050237656, -0.0352543406188488, 0.01459626853466034, 0.05532356724143028, -0.09692104905843735, -0.09543778747320175, -0.02925814501941204, 0.030814502388238907, -0.06933917105197906, 0.04543793946504593, -0.06927277892827988, 0.062243204563856125, 0.026836328208446503, 0.004909222479909658, -0.0766163244843483, -0.07396743446588516, 0.019175387918949127, -0.004069487098604441, -0.05302499234676361, 0.03530529886484146, -0.008480715565383434, 0.03846118971705437, 0.03318934142589569, -0.02044241689145565, -0.04642524570226669, -0.0966673195362091, 0.03302469104528427, -0.04442577436566353, -0.03803695738315582, 0.022099420428276062, 0.020258719101548195, -0.036950550973415375, 0.024686427786946297, 0.027334168553352356, -0.009084749966859818, 0.04582086205482483, -0.09489454329013824, -0.0035805937368422747, -0.015915904194116592, -0.026956578716635704, -0.06848803162574768, -0.04798991605639458, -0.03573264926671982, -0.017042074352502823, 0.027950076386332512, -0.021827494725584984, -0.04471735656261444, -0.030863402411341667, 0.02840130403637886, 0.029398642480373383, -0.07083781808614731, -0.035502541810274124, -0.004062472842633724, -0.05481487140059471, 0.011423276737332344, 0.05533511936664581, 0.015383637510240078, -0.027631046250462532, 0.02235773578286171, 0.03407973051071167, 0.06442779302597046, -0.01727866195142269, -0.09460754692554474, -0.06117695942521095, -0.008353807963430882, -0.07534916698932648, 0.01429557055234909, -0.007910382002592087, 0.03756195306777954, 0.05569526180624962, 0.005152243655174971, 0.04691288247704506, -0.04160735383629799, 0.02790111117064953, -0.02264227531850338, -0.04519392177462578, -0.08293642103672028, -0.009555130265653133, 0.06027078628540039, -0.01229920331388712, -0.05448726564645767, -0.03245854377746582, 0.029972942546010017, -0.033834364265203476, 0.021246962249279022, -0.06957297772169113, 0.046683333814144135, -0.02727356180548668, -0.06191455200314522, -0.0927748754620552, -0.057599987834692, -0.05722776800394058, -0.06301942467689514, -0.06598490476608276, 0.049097564071416855, -0.05263490602374077, -0.08871407061815262, -0.034914884716272354, -0.036461006850004196, 0.0395510159432888, 0.03077852725982666, -0.09645692259073257, -0.0853319764137268, -0.08070632815361023, -0.057249922305345535, -0.09665082395076752, -0.04924820736050606, 0.044288311153650284, -0.037073034793138504, 0.03109053708612919, -0.08084163814783096, -0.0038790078833699226, -0.011769142933189869, -0.07562876492738724, 0.031194690614938736, 0.03057706542313099, -0.041446149349212646, 0.060272328555583954, 0.04372537136077881, -0.07294172793626785, -0.034028057008981705, 0.036972615867853165, -0.08376748859882355, 0.022690558806061745, -0.08391865342855453, -0.046853937208652496, -0.08259231597185135, -0.04533323273062706, 0.011382576078176498, -0.014087892137467861, -0.039537012577056885, -0.07467104494571686, 0.020695094019174576, -0.03023623861372471, -0.01669219695031643, -0.06615976989269257, 0.03200225159525871, -0.03579353541135788, 0.042864102870225906, -0.0672573372721672, 0.04853677749633789, -0.030598361045122147, -0.07074359804391861, -0.07714403420686722, -0.07246938347816467, -0.004299698397517204, -0.0764581710100174, -0.017168818041682243, -0.031058145686984062, -0.03717479854822159, -0.03410566598176956, -0.009249214082956314, 0.04396462440490723, -0.08874349296092987, -0.04463166743516922, -0.0363340899348259, -0.05204116553068161, -0.08016807585954666, -0.06080324947834015, 0.052693527191877365, -0.09121695160865784, -0.09329525381326675, 0.023289883509278297, 0.03877895697951317, 0.05383690446615219, 0.054425306618213654, 0.02849009446799755, -0.021088464185595512, 0.019372109323740005, -0.06590675562620163, -0.02426784858107567, 0.035628482699394226, -0.07494604587554932, 0.043236248195171356, -0.017118869349360466, 0.0019442701013758779, -0.01009609829634428, 0.0604744628071785, -0.09107173979282379, -0.03488601744174957, -0.08073875308036804, -0.07719448953866959, 0.04607868567109108, -0.07705456763505936, -0.004320820327848196, 0.03247033804655075, -0.034350667148828506, -0.07706431299448013, 0.04399975389242172, -0.062771275639534, -0.004623624496161938, 0.04510399326682091, 0.04848124831914902, -0.05978186056017876, -0.05612143874168396, 0.056944020092487335, 0.04334556311368942, -0.03160453215241432, -0.028302520513534546, -0.09518447518348694, 0.05577576532959938, -0.03377081826329231, -0.03381144627928734, -0.06384872645139694, -0.04146768897771835, -0.028804032132029533, -0.011422193609178066, 0.020234132185578346, -0.012834984809160233, -0.019629066810011864, -0.050930947065353394, -0.029160212725400925, -0.005559732671827078, 0.005103542003780603, -0.046626392751932144, -0.01825050078332424, 0.00946287252008915, 0.03185826539993286, -0.019394174218177795, -0.052920714020729065, 0.04656512662768364, 0.03011888824403286, 0.04872779920697212, -0.08909101784229279, -0.029329372569918633, 0.009661137126386166, 0.04845474287867546, -0.04814338684082031, -0.008467085659503937, -0.02484886907041073, -0.04619121551513672, -0.08797971904277802, -0.011731019243597984, -0.09038946777582169, 0.020656699314713478, 0.039796289056539536, -0.02245132252573967, -0.011974913068115711, 0.006677959114313126, 0.02261410839855671, -0.08179229497909546, 0.014556771144270897, 0.05562201887369156, -0.020158620551228523, -0.029391733929514885, 0.03309790417551994, -0.02260003611445427, -0.06324858218431473, -0.078655906021595, 0.03909487649798393, -0.0020002974197268486, -0.03390887752175331, -0.07405637949705124, 0.03917260468006134, -0.07417045533657074, -0.08911678194999695, -0.05586029216647148, -0.060012705624103546, 0.011603567749261856, -0.04118690639734268, -0.028847862035036087, 0.0400303415954113, -0.0722394660115242, -0.04380694776773453, -0.01794237084686756, -0.05636855959892273, -0.07470960170030594, 0.0601697601377964, -0.05351369082927704, -0.046856943517923355, 0.04151192680001259, -0.003964345436543226, -0.04182874783873558, 0.0041880495846271515, 0.044209759682416916, 0.01206223201006651, 0.042299240827560425, -0.038796719163656235, 0.03041236102581024, -0.07317351549863815, -0.009510963223874569, -0.09378135949373245, 0.05691094323992729, 0.05702412873506546, 0.02010180801153183, 0.05425170063972473, -0.009691993705928326, -0.030555369332432747, -0.03468567132949829, 0.03837532177567482, 0.04499916359782219, 0.01903376169502735, -0.07483047991991043, 0.004120443016290665, -0.04631838947534561, -0.051714856177568436, -0.07832063734531403, -0.09358867257833481, -0.05403178930282593, -0.03226696327328682, -0.06855645775794983, 0.03766278550028801, -0.04153776541352272, 0.004670681431889534, 0.031202159821987152, -0.054844945669174194, -0.04250893369317055, -0.04277302697300911, 0.014644562266767025, -0.04721779748797417, 0.0030217545572668314, -0.059270136058330536, 0.0030547992791980505, -0.04540782421827316, -0.005581308621913195, -0.05831589549779892, 0.00695533724501729, -0.03635028377175331, 0.03183476999402046, -0.09402304887771606, -0.029582297429442406, -0.01982460357248783, 0.03546235337853432, 0.006889661308377981, -0.01791292056441307, -0.0028178966604173183, 0.05389297381043434, -0.05577130615711212, -0.010094289667904377, -0.04770081490278244, -0.066084124147892, -0.03821846470236778, 0.049352794885635376, -0.08682379871606827, 0.016457464545965195, 0.05566529929637909, -0.07306689023971558, -0.016946963965892792, -0.03059285692870617, 0.034257303923368454, 0.05496470630168915, -0.0933970957994461, -0.03227245435118675, 0.01360990945249796, 0.019632237032055855, -0.03672090545296669, -0.09046390652656555, -0.04624784737825394, -0.09629815071821213, -0.049409206956624985, -0.052373893558979034, 0.06482508033514023, -0.08707521855831146, -0.08353238552808762, -0.0533636137843132, -0.013801547698676586, 0.037112362682819366, -0.04497810825705528, 0.036357175558805466, -0.05008333548903465, 0.0570463165640831, -0.07050826400518417, -0.033816345036029816, 0.04172773286700249, -0.02819625288248062, -0.05712252855300903, 0.044176697731018066, 0.03705872967839241, -0.041967835277318954, -0.011299637146294117, -0.06310197710990906, -0.02167828567326069, 0.026308972388505936, -0.07906995713710785, -0.015646249055862427, -0.01035261433571577, -0.008337792940437794, -0.022745268419384956, -0.06801729649305344, -0.07631682604551315, 0.00922189187258482, -0.08899398893117905, -0.024699516594409943, -0.07015040516853333, -0.0053964476101100445, -0.008133827708661556, -0.04419109597802162, -0.04656452313065529, 0.016515526920557022, -0.06808207184076309, -0.02445976994931698, 0.042919836938381195, -0.004122703801840544, 0.05118276923894882, 0.008283795788884163, -0.05276880040764809, -0.05769830569624901, -0.0446057952940464, 0.05236119404435158, 0.05992090702056885, -0.09539821743965149, 0.06439974159002304, 0.01837765984237194, -0.08944589644670486, -0.09070709347724915, -0.00017406349070370197, -0.044702935963869095, -0.04642577841877937, -0.022278308868408203, -0.016770251095294952, -0.09389709681272507, -0.04106247052550316, -0.051338400691747665, -0.07150611281394958, 0.0638979896903038, -0.07799381017684937, -0.028465501964092255, -0.022396760061383247, -0.0485057570040226, -0.05758332088589668, -0.010142544284462929, 0.06390824913978577, -0.026559222489595413, -0.019143080338835716, 0.00400363327935338, -0.0623440258204937, 0.022571995854377747, -0.022382525727152824, -0.01824958622455597, 0.039804283529520035, 0.005643262527883053, -0.02229885384440422, 0.04523727670311928, 0.03895406052470207, -0.04313206300139427, -0.05625598877668381, -0.06909599900245667, -0.08429715782403946, 0.022067315876483917, -0.09269364178180695, -0.061267416924238205, -0.0382092110812664, 0.06345441192388535, -0.045922596007585526, -0.05086612328886986, -0.026395775377750397, 0.027066776528954506, 0.03053855150938034, 0.06032793968915939, -0.03928452357649803, -0.003953318111598492, 0.02836092934012413, 0.004741447977721691, 0.029124703258275986, 0.00415260111913085, -0.0948466882109642, -0.05215642973780632, 0.02351405844092369, -0.08842850476503372, 0.03923128545284271, -0.07965825498104095, -0.05346868187189102, -0.026053112000226974, -0.09565392881631851, -0.07784409821033478, 0.057330045849084854, -0.02762337028980255, 0.01589782163500786, -0.019769728183746338, -0.09374760836362839, -0.045787107199430466, -0.006534650921821594, 0.06315454095602036, -0.07109348475933075, -0.07810419052839279, -0.04372091963887215, 0.036514244973659515, -0.08341344445943832, -0.09572750329971313, 0.034410856664180756, -0.01175798662006855, -0.016815179958939552, -0.060325149446725845, -0.09460390359163284, 0.052737943828105927, -0.025516554713249207, -0.041488852351903915, 0.05402161926031113, 0.017998330295085907, -0.014806562103331089, -0.029554737731814384, -0.022278044372797012, 0.05638665333390236, -0.012710717506706715, -0.09253469109535217, -0.03494121506810188, -0.044694263488054276, -0.02753712236881256, -0.08304540812969208, -0.09394057095050812, -0.007141089998185635, 0.006770764011889696, 0.047127123922109604, -0.043400418013334274, -0.0674969032406807, -0.08843683451414108, -0.007041522767394781, -0.025789013132452965, -0.02091359533369541, -0.043588269501924515, -0.017436277121305466, -0.023408619686961174, 0.017888637259602547, -0.025028809905052185, -0.0013598479563370347, -0.08464827388525009, 0.013773472048342228, -0.047540005296468735, 0.05778535455465317, -0.06117028370499611, -0.05865104869008064, 0.01262755785137415, -0.04274884983897209, 0.0444888211786747, 0.052227359265089035, -0.011870115995407104, 0.020999228581786156, -0.08907671272754669, 0.05316620320081711, -0.0850384384393692, -0.06760904937982559, -0.050168585032224655, -0.07803144305944443, -0.09369974583387375, 0.03033205308020115, -0.03564458712935448, -0.09512273967266083, -0.031668394804000854, 0.04521120339632034, -0.0032711911480873823, 0.042332008481025696, 0.022585781291127205, -0.018135901540517807, -0.03449241816997528, -0.011574383825063705, -0.07947230339050293, 0.042856816202402115, -0.03457069396972656, 0.010883682407438755, -0.020629392936825752, -0.0657019317150116, 0.030156847089529037, -0.02088407427072525, 0.06293486058712006, -0.014665489085018635, -0.028475048020482063, -0.0389801450073719, -0.07960086315870285, -0.02497551031410694, -0.08377063274383545, -0.024704255163669586, 0.011566762812435627, -0.008803407661616802, -0.06258919835090637, -0.02348346635699272, -0.09362029284238815, -0.07928108423948288, -0.09502264112234116, -0.05902857333421707, -0.009986226446926594, -0.03453107178211212, 0.029966523870825768, -0.0404418408870697, -0.048021022230386734, -0.037331368774175644, -0.08020920306444168, 0.007064912933856249, -0.06749757379293442, -0.028018495067954063, -0.02509196847677231, 0.008824728429317474, 0.025935271754860878, 0.03369862586259842, 0.06446704268455505, -0.06282803416252136, 0.001837031333707273, 0.014478958211839199, 0.033199530094861984, 0.02846837416291237, 0.032035261392593384, -0.08515278995037079, 0.018928181380033493, -0.003988214768469334, 0.001067628967575729, -0.06953492760658264, -0.05592314153909683, -0.025040680542588234, 0.006445603910833597, -0.04862121120095253, -0.05088081583380699, -0.04992789402604103, -0.006763897370547056, 0.055644504725933075, -0.049791574478149414, 0.04727354273200035, -0.07180387526750565, 0.038747165352106094, -0.026127725839614868, 0.06225436180830002, -0.08508740365505219, 0.049613095819950104, 0.04075716435909271, -0.0497286431491375, -0.02926800586283207, 0.050490863621234894, -0.01565542072057724, 0.05958981066942215, -0.02809152379631996, -0.08816221356391907, -0.003575473092496395, -0.005946771241724491, -0.025392599403858185, 0.02968829683959484, -0.0064081535674631596, 0.05365768447518349, -0.028150908648967743, 0.0005680788890458643, 0.004803909920156002, -0.006288888864219189, -0.03036719560623169, 0.014701343141496181, -0.07976634055376053, 0.00466432748362422, -0.0400531180202961, 0.047215789556503296, -0.0861707255244255, 0.05346476286649704, -0.04056534171104431, -0.09265954047441483, -0.035501908510923386, -0.004076196812093258, -0.09643281251192093, 0.0347195528447628, -0.021250922232866287, 0.0579569935798645, 0.021886955946683884, 0.045805543661117554, 0.0524454340338707, -0.04088766872882843, -0.013497229665517807, 0.007680829148739576, 0.039743874222040176, 0.007891583256423473, 0.06345193088054657, 0.026987595483660698, -0.0894436240196228, 0.047940514981746674, 0.04582501947879791, -0.045811962336301804, -0.029635440558195114, -0.011341601610183716, -0.029187923297286034, -0.009984620846807957, -0.07872827351093292, -0.016078175976872444, 0.02644597925245762, 0.017060335725545883], [0.08471845090389252, 0.025554727762937546, 0.02331743948161602, 0.08474530279636383, 0.10487967729568481, -0.033398449420928955, 0.08643452078104019, -0.02088245004415512, 0.015154971741139889, 0.06714081019163132, -0.03761882334947586, 0.04530990123748779, 0.07580956071615219, 0.01412736065685749, -0.005013702902942896, 0.028503818437457085, 0.019527623429894447, -0.013235250487923622, 0.10605832189321518, 0.10025350749492645, 0.08910782635211945, 0.040200378745794296, -0.004490938037633896, 0.03473520278930664, 0.02880922332406044, 0.05048826336860657, 0.03164849430322647, 0.006342898588627577, 0.0035217858385294676, -0.04450913518667221, 0.06279975920915604, 0.08164072036743164, -0.017911424860358238, -0.04504116252064705, -0.001915599568746984, 0.05987492948770523, -0.039393093436956406, 0.010619809851050377, -0.002847041003406048, 0.1054559126496315, 0.03697725385427475, 0.0804639458656311, 0.07627472281455994, 0.05934599041938782, 0.041202109307050705, -0.05499861761927605, 0.0656740814447403, 0.041232459247112274, 0.03743582218885422, -0.004283227026462555, -0.04200439155101776, 0.0519881546497345, 0.08194994926452637, -0.027927640825510025, -0.04998844116926193, 0.09199649095535278, -0.04748396575450897, 0.006288813427090645, -0.016914185136556625, 0.07282637804746628, 0.034958865493535995, -0.03131129965186119, 0.03861076757311821, -0.010678327642381191, -0.04800985008478165, 0.06901196390390396, 0.006542982999235392, -0.013460328802466393, 0.03243879973888397, 0.05919944867491722, -0.04123695567250252, -0.055284563452005386, 0.035467397421598434, 0.04872957617044449, 0.0925043597817421, 0.02500862628221512, 0.06919889897108078, 0.035340066999197006, 0.020771648734807968, 0.033695824444293976, 0.06815014034509659, 0.012401566840708256, 0.050170961767435074, 0.012905643321573734, 0.0853760838508606, -0.029339686036109924, 0.06648725271224976, 0.03725099936127663, -0.010625487193465233, -0.02224709652364254, 0.0032017503399401903, -0.05186190828680992, 0.09344799816608429, -0.03698641434311867, -0.044161371886730194, 0.057881925255060196, 0.05713279917836189, 0.06409253925085068, 0.03491555154323578, 0.0358610674738884, 0.07291223108768463, 0.09222181141376495, 0.03629819676280022, 0.09691824018955231, 0.000810532714240253, -0.04698403924703598, -0.005826100241392851, 0.028672626242041588, 0.004699085373431444, -0.011921397410333157, -0.01691121980547905, 0.029272641986608505, 0.05685512721538544, -0.01854136772453785, -0.04812377691268921, 0.005089007318019867, -0.019102634862065315, 0.10076101869344711, 0.013996578752994537, 0.08321651816368103, 0.042533617466688156, 0.03676653280854225, 0.043789446353912354, 0.09328442811965942, -0.014692598953843117, 0.0922015979886055, 0.10004220902919769, 0.02966664545238018, -0.041713129729032516, 0.002543895272538066, 0.03498224914073944, -0.003297028597444296, 0.02106652595102787, 0.09816496819257736, 0.023930029943585396, 0.10637250542640686, -0.03480735048651695, -0.02685718983411789, -0.017162200063467026, -0.04040488600730896, -0.012165363878011703, -0.038844309747219086, -0.04488036781549454, 0.08868411183357239, 0.05984879657626152, 0.020053403452038765, -0.021087542176246643, 0.09677200019359589, 0.04677398502826691, -0.02537953108549118, 0.038148947060108185, 0.04615563899278641, 0.021995889022946358, -0.001997578190639615, -0.03768248111009598, 0.07986178994178772, 0.032060764729976654, -0.04027951881289482, 0.05722695216536522, 0.05782672390341759, 0.09016218781471252, 0.018586378544569016, 0.033256981521844864, 0.051287874579429626, 0.09844943135976791, -0.021904809400439262, 0.037640783935785294, 0.035482097417116165, 0.07014219462871552, 0.09914365410804749, 0.0688849538564682, -0.05278719216585159, 0.0476762093603611, 0.018322905525565147, -0.03229145705699921, 0.04268620163202286, 0.0717686265707016, 0.1030808761715889, -0.035056691616773605, 0.08275634795427322, -0.03533424064517021, 0.040109340101480484, -0.05453065410256386, 0.05096188932657242, -0.0228568222373724, 0.08420557528734207, -0.054443299770355225, 0.06827190518379211, -0.01088201068341732, 0.02809939906001091, -0.041724540293216705, -0.000651680224109441, 0.07494805753231049, -0.018688008189201355, -0.04420581832528114, -0.05389343947172165, 0.07391458749771118, 0.0457114577293396, -0.03367353975772858, -0.05178409814834595, -0.029083432629704475, 0.042236559092998505, -0.0023459105286747217, -0.036834780126810074, 0.060525018721818924, -0.012896038591861725, 0.026626884937286377, 0.03179106488823891, -0.04115249589085579, 0.09146477282047272, 0.09718741476535797, -0.04411465302109718, 0.009839986450970173, -0.01832881197333336, 0.04537327215075493, 0.0480617918074131, 0.10056066513061523, 0.0018066870979964733, 0.05932682380080223, -0.029816659167408943, -0.012155735865235329, 0.08611340075731277, -7.17754737706855e-05, 0.04423235356807709, -0.04502203315496445, -0.018983397632837296, 0.09948725998401642, -0.052205976098775864, -0.03525044769048691, 0.0275551900267601, 0.027046330273151398, -0.013994263485074043, 0.068650983273983, 0.07997819036245346, -0.007490615360438824, 0.015163503587245941, 0.017650756984949112, 0.09439206123352051, 0.08159036934375763, -0.012117551639676094, 0.025940176099538803, 0.01850260980427265, 0.07877051830291748, 0.005998803768306971, 0.05808586999773979, 0.10258867591619492, -0.008484997786581516, 0.06635276228189468, -0.052240390330553055, -0.031693704426288605, 0.02593258023262024, -0.018921932205557823, 0.09311163425445557, -0.007381801959127188, 0.029862193390727043, 0.051219627261161804, 0.05655316635966301, 0.05075168237090111, 0.007811341434717178, -0.03960071876645088, -0.05202735960483551, 0.030615363270044327, -0.031555358320474625, 0.042943380773067474, 0.07971683889627457, 0.055947329849004745, -0.027734428644180298, 0.10203365981578827, 0.015561527572572231, 0.000286145688733086, 0.054746903479099274, -0.013534643687307835, 0.060445234179496765, 0.07995390146970749, 0.031135201454162598, 0.09606322646141052, 0.10481710731983185, -0.016191355884075165, 0.08248498290777206, 0.041197165846824646, 0.058133743703365326, 0.03859615698456764, -0.020940253511071205, 0.06342320144176483, 0.1040232926607132, -0.009897347539663315, 0.027495531365275383, -0.012529225088655949, -0.005207404028624296, 0.06723356992006302, -0.026570841670036316, 0.007182235363870859, 0.05652086064219475, -0.04998818784952164, -0.001256595249287784, 0.06245937943458557, -0.03009139560163021, -0.04652613028883934, 0.10109765827655792, 0.018077123910188675, 0.053441379219293594, 0.06670097261667252, -0.05052069574594498, 0.03994385153055191, 0.09011015295982361, 0.1044926792383194, 0.07461385428905487, 0.042218513786792755, -0.010392358526587486, -0.04810541868209839, 0.0263222586363554, 0.10132456570863724, -0.0038675765972584486, 0.07799670845270157, 0.05587664619088173, -0.03302745148539543, -0.00818595476448536, -0.029124580323696136, -0.03281933069229126, -0.04003375396132469, 0.10400956124067307, -0.015865875408053398, 0.07441388815641403, 0.06769194453954697, 0.07098212093114853, 0.06203722953796387, 0.09261498600244522, 0.08494970947504044, 0.0951979011297226, 0.014436445198953152, -0.011246955022215843, 0.0005251692491583526, -0.013303563930094242, -0.006060602609068155, -0.011455679312348366, -0.008539022877812386, -0.054061029106378555, 0.09556324779987335, 0.07119005918502808, -0.02355395071208477, 0.011252546682953835, 0.07644975185394287, 0.00521501200273633, 0.012836426496505737, 0.04797054082155228, 0.028970886021852493, -0.024033915251493454, -0.04337407276034355, -0.01709086447954178, -0.0004139900556765497, -0.013634953647851944, -0.02323189564049244, -0.03883259743452072, 0.09223128855228424, 0.004706278908997774, 0.08002816140651703, 0.08098059892654419, 0.08372044563293457, 0.093861885368824, 0.017086980864405632, 0.03508232906460762, 0.10458900034427643, -0.036100439727306366, 0.011121438816189766, -0.05470048263669014, 0.06630188226699829, 0.041439443826675415, -0.03723916783928871, 0.03129436448216438, -0.031785134226083755, 0.013835309073328972, 0.03450769931077957, 0.08597482740879059, 0.07875341922044754, -0.019031981006264687, -0.038904014974832535, 0.056973692029714584, 0.031246177852153778, 0.035913702100515366, 0.0464312843978405, -0.047479815781116486, 0.035933107137680054, 0.0018149634124711156, -0.024105891585350037, 0.09078993648290634, 0.07513582706451416, 0.03563200309872627, -0.00891788024455309, 0.07544469833374023, 0.07052312046289444, 0.06141901761293411, 0.10246115922927856, -0.0042390101589262486, 0.021817106753587723, 0.08312144130468369, -0.03923346474766731, -0.007768968585878611, 0.01868453249335289, -0.05079319700598717, 0.07569454610347748, 0.02525871992111206, -0.02039329521358013, -0.004496022593230009, -0.021337047219276428, -0.034644704312086105, 0.000426034297561273, -0.026609163731336594, 0.016329621896147728, 0.10240629315376282, -0.034878820180892944, 0.07810849696397781, 0.0674816444516182, 0.028339363634586334, 0.0951659083366394, 0.006809412036091089, -0.027228379622101784, 0.0009573263232596219, 0.06501739472150803, -0.017426276579499245, -0.049036405980587006, 0.06305402517318726, 0.056882455945014954, 0.012896181084215641, 0.09833820909261703, 0.045661602169275284, 0.039795082062482834, 0.0769987553358078, 0.017728177830576897, 0.07897531986236572, -0.009483810514211655, 0.09940192103385925, -0.018914584070444107, 0.04598352685570717, 0.06701259315013885, 0.08573199063539505, 0.04776517674326897, -0.03625676780939102, 0.08676832914352417, 0.021669531241059303, 0.00044352508848533034, 0.10138576477766037, 0.07738047093153, 0.06527351588010788, 0.08015965670347214, 0.07028951495885849, 0.05113118514418602, 0.013962590135633945, 0.09015992283821106, 0.06196945533156395, -0.055050771683454514, 0.1005830243229866, 0.015613026916980743, 0.07927463948726654, 0.06387406587600708, -0.049219630658626556, 0.07796072214841843, 0.042345523834228516, 0.08589963614940643, 0.05459871143102646, 0.036827437579631805, 0.018884185701608658, 0.04212883859872818, -0.05432644858956337, -0.00019973238522652537, -0.012502781115472317, -0.03711516037583351, -0.022460104897618294, -0.03357192873954773, 0.015070341527462006, -0.012206916697323322, 0.06939272582530975, 0.008471053093671799, 0.014266220852732658, 0.09369397163391113, 0.042451128363609314, 0.08321598172187805, -0.03695785999298096, 0.10141181945800781, 0.08767887949943542, -0.024238165467977524, -0.03444044664502144, -0.050085362046957016, 0.01923362910747528, 0.07445141673088074, 0.0878407433629036, -0.04616878181695938, 0.07161133736371994, 0.06715388596057892, 0.02701185829937458, -0.010181840509176254, 0.04255408048629761, 0.09552666544914246, 0.0626503974199295, 0.059263721108436584, 0.04530702531337738, 0.06733167916536331, -0.05489771440625191, -0.0008099542465060949, 0.09421992301940918, -0.02972467988729477, -0.014857122674584389, -0.012029347941279411, -0.04979516565799713, -0.012572811916470528, -0.020386185497045517, -0.02279617451131344, 0.09822370857000351, 0.04677604138851166, 0.04674617946147919, 0.027728179469704628, 0.04060366004705429, 0.001623433781787753, 0.011432169936597347, 0.04805584251880646, 0.04507274925708771, -0.03791666775941849, 0.01895325258374214, 0.059688497334718704, 0.05130961909890175, 0.06851418316364288, -0.04791828244924545, 0.10033683478832245, 0.0575605109333992, 0.0802735984325409, 0.10008762776851654, 0.08624261617660522, -0.0061859614215791225, 0.06535060703754425, 0.05861766263842583, -0.04283212870359421, 0.005614641588181257, -0.054473746567964554, 0.09439200162887573, 0.09764454513788223, 0.018613304942846298, 0.03129361569881439, -0.04273463040590286, -0.03924009948968887, -0.02214096672832966, 0.08386079967021942, 0.025637192651629448, 0.08631117641925812, 0.016951290890574455, 0.07725923508405685, 0.07580571621656418, -0.044284697622060776, -0.022281425073742867, -0.015383229590952396, 0.04081413522362709, 0.08138654381036758, 0.08213618397712708, 0.09797888249158859, 0.0517326220870018, -0.051738809794187546, 0.007976631633937359, 0.04865533113479614, -0.025215083733201027, -0.020691998302936554, 0.017076758667826653, 0.053912416100502014, 0.07380731403827667, 0.05230165272951126, 0.019103368744254112, -0.0031454223208129406, -0.044414881616830826, -0.0172866303473711, 0.10541731119155884, 0.01248988974839449, -0.04215240478515625, 0.040389202535152435, -0.047357868403196335, 0.008120064623653889, 0.016667257994413376, 0.0129998829215765, -0.0077583217062056065, 0.05452461913228035, -0.04659414663910866, -0.004352369345724583, 0.04391342028975487, -0.04906406253576279, -0.003338609589263797, -0.024434782564640045, -0.04332132637500763, 0.02420242875814438, 0.0009613670990802348, 0.09909014403820038, -0.040495071560144424, -0.05073875933885574, -0.019342977553606033, -0.048573993146419525, -0.04365355893969536, 0.07292860001325607, -0.020372845232486725, 0.1017698273062706, -0.005150082521140575, 0.03950194641947746, 0.08469933271408081, 0.1038346141576767, 0.005487150978296995, 0.03458911553025246, -0.04176118224859238, -0.0424407497048378, 0.06889138370752335, 0.059246212244033813, 0.06716518849134445, -0.03950047865509987, 0.08756501972675323, -0.005050276406109333, 0.0916980654001236, 0.014675362966954708, 0.006125221494585276, -0.04933720454573631, 0.04893806204199791, 0.04631352797150612, -0.015323072671890259, 0.06704139709472656, 0.045340217649936676, 0.034474678337574005, 0.06582017242908478, 0.09756874293088913, 0.07630489021539688, -0.04128885269165039, 0.006412446964532137, -0.007689069025218487, -0.04257449880242348, -0.017735768109560013, -0.027579179033637047, 0.10150264948606491, 0.10411523282527924, 0.01285486575216055, -0.04692276194691658, 0.04905789718031883, -0.045430876314640045, -0.05383838340640068, -0.05430792272090912, -0.027390986680984497, 0.09448022395372391, -0.030348585918545723, 0.03720839321613312, 0.0074769360944628716, 0.035090357065200806, 0.07409210503101349, 0.06972820311784744, 0.006605577655136585, -0.015313096344470978, 0.005354093853384256, 0.06333835422992706, 0.09438419342041016, 0.07031691819429398, 0.062366243451833725, 0.103816919028759, 0.04834604263305664, -0.04672139137983322, 0.07226651161909103, 0.09931119531393051, 0.048748817294836044, 0.05482403188943863, 0.10392195731401443, 0.07021162658929825, -0.02687065303325653, 0.10619507730007172, -0.018375881016254425, 0.038775257766246796, -0.017258597537875175, -0.04199990630149841, 0.06625371426343918, -0.03246361017227173, 0.013580678962171078, -0.005330633372068405, 0.06101091951131821, -0.04957544803619385, 0.056371770799160004, 0.08413804322481155, 0.04735396057367325, 0.0029245330952107906, 0.05238327756524086, -0.008463810198009014, -0.02070283517241478, 0.10338056832551956, 0.10449893027544022, -0.005363696254789829, 0.02813885174691677, 0.007150392979383469, 0.08590521663427353, 0.0919535681605339, 0.040842603892087936, 0.06969767808914185, -0.040062494575977325, 0.05097467079758644, -0.027249304577708244, 0.07729194313287735, 0.10116468369960785, 0.03225724399089813, -0.0024372378829866648, 0.07562016695737839, -0.04472650960087776, 0.008209474384784698, -0.044250935316085815, 0.018582386896014214, 0.019100675359368324, -0.04728944972157478, -0.03907681256532669, 0.09447283297777176, 0.08496680110692978, 0.10639502853155136, 0.04491780325770378, 0.009305436164140701, 0.02046339213848114, 0.04329889267683029, -0.02373599074780941, 0.08937505632638931, 0.013395029120147228, 0.051340196281671524, -0.01916009746491909, 0.04578457772731781, -0.010011374950408936, -0.020004790276288986, 0.05572516471147537, 0.04494328796863556, -0.04176891967654228, -0.014410233125090599, 0.09309646487236023, 0.08331969380378723, -0.04423363879323006, -0.0464547835290432, 0.10274063050746918, 0.01773245260119438, 0.026603136211633682, 0.03348340839147568, -0.00733737088739872, 0.05256839469075203, 0.07377542555332184, -0.03405389189720154, 0.08472021669149399, 0.008263388648629189, 0.06023848056793213, -0.009928399696946144, 0.10187814384698868, -0.044976234436035156, 0.07308122515678406, -0.03436924144625664, 0.1046048179268837, 0.042723387479782104, -0.0016918809851631522, 0.0266350619494915, 0.0664253905415535, 0.006170192733407021, -0.046568240970373154, 0.016340486705303192, 0.07032932341098785, 0.004420361947268248, 0.09617780148983002, 0.027464404702186584, 0.07074298709630966, 0.03903813660144806, 0.0005303623038344085, 0.06046115234494209, 0.0987536758184433, 0.05164530500769615, 0.028214847669005394, 0.0012414208613336086, 0.009544188156723976, 0.04739025607705116, 0.019860338419675827, -0.007003122474998236, -0.05004506558179855, 0.07046423107385635, 0.07270733267068863, -0.037012193351984024, 0.07237987965345383, -0.003059112699702382, 0.004370308481156826, 0.05529511719942093, 0.07128627598285675, 0.08492091298103333, 0.06872816383838654, 0.014243843033909798, 0.02544975094497204, 0.020925870165228844, 0.10269588232040405, 0.09594401717185974, 0.04556895047426224, 0.0009038450079970062, 0.0743323341012001], [0.02822745405137539, 0.0489756278693676, 0.034010376781225204, -0.08743534237146378, -0.07393205165863037, 0.06694323569536209, 0.058918677270412445, -0.0029400840867310762, -0.038617201149463654, -0.024118507280945778, 0.0025416845455765724, 0.021394258365035057, -0.00032598490361124277, -0.019518721848726273, 0.0494936965405941, -0.09358137100934982, 0.06310675293207169, 0.0014331162674352527, 0.00372376199811697, 0.0334763266146183, -0.08656716346740723, 0.015601691789925098, 0.026697181165218353, 0.04445336014032364, -0.0077592311426997185, -0.025932781398296356, 0.0180223248898983, -0.01653412915766239, -0.07655549794435501, 0.0661759078502655, -0.05811987817287445, 0.005593332927674055, -0.00020698532171081752, -0.043249793350696564, -0.07372605800628662, 0.00516847986727953, -0.047621626406908035, 0.0013254773803055286, -0.04910506680607796, -0.011971560306847095, 0.011049961671233177, 0.002597175072878599, -0.015546625480055809, -0.04829053208231926, -0.04252900555729866, -0.0017580208368599415, -0.06759051978588104, -0.03471611067652702, -0.05629793182015419, -0.032504353672266006, -0.04336113855242729, 0.028528235852718353, 0.06563510745763779, -0.09012077748775482, -0.05263829603791237, 0.030116483569145203, 0.06365695595741272, -0.047183047980070114, 0.009770180098712444, -0.050931572914123535, 0.038234420120716095, 0.057212430983781815, -0.0522620789706707, 0.007661363575607538, -0.006197850685566664, 0.03568855673074722, -0.010457444936037064, 0.024735115468502045, 0.05519256368279457, 0.02754121646285057, 0.06169173866510391, -0.04168589785695076, -0.02827884815633297, -0.03569004684686661, 0.002789231250062585, -0.09485530108213425, -0.04912790283560753, -0.0349414199590683, 0.017825040966272354, -0.04884113743901253, -0.028807995840907097, -0.06480075418949127, -0.08713271468877792, -0.052248671650886536, -0.028409618884325027, -0.04150449112057686, 0.02792278304696083, 0.001959830056875944, -0.07080940157175064, 0.049295227974653244, -0.08170958608388901, 0.0626852884888649, -0.03244709223508835, -0.07390744984149933, -0.05788116902112961, -0.0008681488689035177, -0.07176133245229721, -0.06602553278207779, 0.031892284750938416, -0.09400397539138794, -0.04468905180692673, 0.02490740269422531, 0.019527914002537727, -0.03595895320177078, 0.046617552638053894, -0.04077088087797165, -0.003529045032337308, 0.046609338372945786, -0.024449776858091354, -0.0746590867638588, 0.03742779418826103, 0.00848997849971056, -0.07449299097061157, 0.006056689657270908, 0.061356279999017715, -0.03003159910440445, -0.01420318242162466, -0.04347115382552147, 0.00379365892149508, -0.04126099869608879, 0.054866958409547806, -0.03780893236398697, -0.05813797563314438, 0.021263863891363144, 0.04774833098053932, -0.008576704189181328, 0.0521276481449604, -0.0480763241648674, 0.03928469121456146, -0.08855512738227844, -0.08362481743097305, -0.034605372697114944, 0.03911561146378517, -0.06283411383628845, 0.062203340232372284, -0.0677560493350029, -0.08696184307336807, -0.03570565953850746, 0.022561663761734962, 0.02668406069278717, -0.08081287890672684, 0.05567915737628937, 0.03804570063948631, -0.021101614460349083, -0.032243430614471436, 0.015387319028377533, 0.053658969700336456, -0.00915533397346735, -0.030604466795921326, 0.011481295339763165, 0.008873730897903442, 0.00872068852186203, -0.042054083198308945, -0.07431745529174805, 0.06581878662109375, -0.04171229526400566, 0.03988884389400482, -0.060163069516420364, 0.004360042046755552, 0.02831915393471718, -0.03992832824587822, 0.05890927463769913, -0.05231159180402756, -0.09419633448123932, 0.02294173277914524, -0.08656828105449677, 0.01819940283894539, -0.09456861764192581, -0.030267395079135895, -0.09420280158519745, 0.017892641946673393, -0.011606773361563683, -0.09274781495332718, -0.021125877276062965, -0.03693415969610214, 0.018355078995227814, 0.05348024144768715, -0.07598227262496948, 0.060468677431344986, -0.04658094421029091, -0.003812297247350216, 0.009222793392837048, -0.03758469596505165, -0.04049280658364296, 0.008932394906878471, 0.012429321184754372, -0.01065145991742611, 0.06447219103574753, 0.008421430364251137, -0.037374477833509445, -0.05130403861403465, 0.028998510912060738, -0.017890458926558495, 0.0299131590873003, 0.046496231108903885, -0.011460473760962486, -0.06464305520057678, -0.010596499778330326, -0.06601569056510925, 0.01128392294049263, -0.0234905406832695, -0.07078944891691208, -0.014301484450697899, -0.07667812705039978, -0.0910581424832344, 0.054184749722480774, 0.013131067156791687, -0.01510078925639391, 0.04879440739750862, 0.026067692786455154, 0.02081715501844883, 0.03938812017440796, -0.03945387527346611, -0.04578280821442604, -0.037035513669252396, -0.06136249378323555, -0.041841696947813034, -0.055995531380176544, -0.07322189956903458, -0.04879794642329216, 0.010166734457015991, 0.05989782512187958, -0.0702466145157814, -0.01230454072356224, -0.02728859893977642, -0.09398261457681656, -0.04284510016441345, -0.08216235786676407, -0.05374031141400337, 0.016160249710083008, 0.04943430423736572, -0.07000180333852768, -0.047762155532836914, -0.005838275421410799, -0.020896973088383675, -0.006155072245746851, -0.08421605080366135, -0.057033468037843704, 0.059339527040719986, 0.0026046468410640955, 0.03376128524541855, -0.0042299386113882065, -0.05702758952975273, -0.08960945159196854, 0.03689541295170784, 0.06520727276802063, 0.04344111308455467, -0.020614420995116234, 0.03348567709326744, 0.007110286504030228, 0.041265979409217834, -0.005320009309798479, 0.013196290470659733, -0.039754778146743774, -0.034343820065259933, 0.06042765825986862, -0.031843967735767365, -0.016538415104150772, -0.0763392448425293, -0.017073536291718483, -0.06298414617776871, 0.004852187819778919, -0.05723453685641289, -0.06885621696710587, -0.0644960105419159, -0.04620053619146347, -0.042696427553892136, -0.06624961644411087, 0.02160908840596676, -0.00198685796931386, 0.05644744262099266, 0.03620012104511261, 0.02010640688240528, 0.054848890751600266, -0.00488177640363574, -0.0034315462689846754, 0.028373336419463158, -0.0930071622133255, -0.07494192570447922, -0.0018123240442946553, -0.0036914919037371874, -0.07368610054254532, -0.06815609335899353, -0.08233794569969177, 0.06504075229167938, -0.057840555906295776, 0.011853642761707306, -0.007330498658120632, -0.036875464022159576, -0.03850094601511955, -0.021114321425557137, 0.011615796945989132, 0.060014765709638596, 0.06380807608366013, -0.07171756774187088, 0.00857075396925211, -0.07139219343662262, -0.08803363144397736, 0.039399053901433945, -0.08061821013689041, 0.042648833245038986, 0.02283349260687828, 0.022641267627477646, -0.008810320869088173, 0.04458748176693916, 0.01249876618385315, 0.012288362719118595, -0.037223901599645615, -0.04188820719718933, 0.06369875371456146, 0.05106881260871887, 0.06325330585241318, -0.08807820081710815, -0.05000154674053192, -0.039464071393013, -0.052809808403253555, 0.03151731193065643, 0.06246614456176758, -0.09250810742378235, -0.07825404405593872, 0.04968056082725525, -0.008653231896460056, 0.04788738861680031, -0.01935831643640995, 0.03788787126541138, -0.047179970890283585, -0.06463297456502914, 0.013353274203836918, 0.023026948794722557, 0.04103586822748184, 0.04486098513007164, -0.0038810851983726025, -0.037400517612695694, 0.024289192631840706, 0.028165850788354874, -0.07962428778409958, -0.03607171028852463, 0.06242627277970314, -0.01831139624118805, -0.0581902340054512, -0.08144576102495193, -0.021203404292464256, -0.05693935602903366, -0.06511833518743515, 0.058704767376184464, -0.07818866521120071, -0.0020796661265194416, -0.09063185006380081, 0.014665316790342331, -0.03296046331524849, 0.012667695060372353, 0.030984511598944664, -0.024916723370552063, 0.02557242102921009, -0.07592113316059113, 0.0134696364402771, 0.06224101409316063, -0.030239401385188103, 0.05833790823817253, 0.026549488306045532, 0.03858938813209534, -0.003948387689888477, 0.017803359776735306, 0.026496844366192818, -0.04772463068366051, 0.00610044552013278, -0.05087003856897354, -0.032878577709198, -0.021290093660354614, 0.010752425529062748, -0.005851927679032087, -0.021941421553492546, -0.09160209447145462, 0.052349187433719635, 0.04130759835243225, 0.03881986811757088, 0.03690998628735542, -0.01804153434932232, 0.0490325465798378, 0.010145971551537514, 0.017704017460346222, 0.014671865850687027, 0.03143203631043434, 0.0055775148794054985, 0.041970379650592804, 0.04222068190574646, -0.04582848399877548, -0.03322799503803253, 0.027491671964526176, -0.05479636788368225, 0.03374370187520981, 0.02624676190316677, -0.06727606803178787, -0.03267805278301239, 0.02245563641190529, -0.0072129336185753345, 0.04365547001361847, 0.0337572880089283, 0.055079154670238495, 0.04408150166273117, 0.0028582916129380465, 0.043282222002744675, -0.019097425043582916, 0.04508815333247185, -0.01990034431219101, 0.05810574069619179, -0.055388666689395905, -0.05200783908367157, -0.04862777888774872, 0.0461866520345211, 0.01548718847334385, 0.06318105012178421, -0.002680945908650756, -0.034943003207445145, -0.07587970793247223, -0.07439549267292023, -0.013374732807278633, 0.012770631350576878, -0.028248127549886703, 0.000765464676078409, -0.0747283324599266, -0.04958214610815048, 0.020181402564048767, -0.019502704963088036, -0.013941687531769276, -0.036953601986169815, 0.008349956944584846, -0.05795484781265259, 0.025361163541674614, -0.09449165314435959, -0.007810722105205059, -0.07724557816982269, 0.0024537337012588978, 0.039303261786699295, -0.0749676302075386, -0.016314147040247917, -0.038345541805028915, -0.03598027676343918, 0.008956518955528736, -0.09368763118982315, 0.0030162190087139606, 0.010927056893706322, -0.030989842489361763, -0.016106996685266495, 0.0646691620349884, -0.022805230692029, -0.011483226902782917, -0.0571649894118309, 0.001904608798213303, -0.01234569400548935, -0.09088589251041412, 0.008309510536491871, -0.047288525849580765, 0.014831368811428547, 0.0359627902507782, -0.022522512823343277, 0.0016204029088839889, -0.03316283971071243, -0.06314624845981598, 0.04437931254506111, -0.048705797642469406, -0.07176853716373444, -0.05711347609758377, -0.061468493193387985, -0.05593464896082878, -0.0781342163681984, -0.09343724697828293, -0.04684001952409744, -0.09191092848777771, -0.01205441914498806, 0.028936419636011124, 0.027250787243247032, -0.0042188395746052265, 0.03084680251777172, -0.01918700523674488, -0.07855481654405594, 0.03686543181538582, -0.014524204656481743, -0.08327744901180267, -0.0865413174033165, 0.06389930844306946, -0.0712260827422142, -0.06880772858858109, -0.03626924753189087, -0.08303231745958328, -0.09018190950155258, -0.017075538635253906, 0.017330404371023178, -0.09138929843902588, 0.013409911654889584, 0.046062812209129333, 0.04213565215468407, 0.013278254307806492, 0.0009114208514802158, -0.027921749278903008, -0.07859582453966141, 0.00933566503226757, 0.015016304329037666, -0.05416754633188248, 0.058366358280181885, 0.03259864076972008, -0.09426622837781906, -0.07911646366119385, -0.07246576994657516, 0.004895410500466824, 0.003608853090554476, -0.020244548097252846, -0.016576267778873444, -0.0322701521217823, 0.0035332131665199995, 0.06328128278255463, 0.06488014757633209, 0.018502572551369667, -0.09024845063686371, -0.005767505615949631, -0.03115645796060562, 0.022211670875549316, -0.04624542221426964, -0.09039455652236938, 0.03350984305143356, -0.026978589594364166, 0.06183619052171707, -0.01721791923046112, -0.05461988225579262, -0.028157616034150124, 0.030063681304454803, -0.0074091944843530655, 0.0028334506787359715, -0.036069873720407486, 0.06660804152488708, 0.01803918369114399, 0.04460496827960014, 0.016117839142680168, -0.008615213446319103, 0.049496229737997055, 0.04895222932100296, 0.06355753540992737, -0.07643613964319229, 0.024325378239154816, -0.0038097084034234285, -0.08817047625780106, 0.05773814022541046, 0.0010596590582281351, 0.03350412845611572, -0.0746997520327568, -0.00900779478251934, 0.0010296176187694073, -0.010714107193052769, -0.07356754690408707, -0.09434618800878525, 0.021578440442681313, -0.017452146857976913, -0.03403415530920029, -0.0023141547571867704, -0.02148478664457798, -0.07081031054258347, 0.06551916897296906, -0.06244422122836113, -0.03486539423465729, -0.07203203439712524, -0.07138440012931824, -0.06646279990673065, -0.02093779668211937, 0.04015788435935974, -0.08228205889463425, 0.050914037972688675, 0.04791203513741493, 0.008150267414748669, -0.032060444355010986, 0.022336868569254875, -0.08418240398168564, -0.09479225426912308, -0.08122896403074265, -0.01743011176586151, -0.07202077656984329, -0.07850819826126099, -0.00522490032017231, 0.0567910261452198, -0.03005850315093994, 0.02483541890978813, -0.011684036813676357, 0.012517394497990608, 0.018357843160629272, -0.0663260966539383, 0.023650549352169037, -0.055293235927820206, -0.06194029375910759, -0.05149386078119278, -0.07798279821872711, -0.07957171648740768, -0.07147318869829178, 0.030363619327545166, 0.020262276753783226, 0.04975636675953865, 0.06607049703598022, 0.0593348853290081, 0.04782163351774216, -0.07889033854007721, -0.047978706657886505, 0.06711215525865555, 6.280204252107069e-05, -0.06583268940448761, -0.09284736216068268, -0.05530523881316185, 0.023549847304821014, -0.05717550218105316, 0.018200095742940903, -0.03797643259167671, -0.08014504611492157, 0.0345219150185585, -0.005444655194878578, -0.061122335493564606, -0.0366569384932518, -0.02661231905221939, -0.08007492125034332, 0.032496389001607895, -0.05628645420074463, -0.0034446408972144127, -0.07210972160100937, -0.05112642049789429, -0.03075353056192398, -0.07877668738365173, -0.08982031047344208, 0.028700102120637894, 0.05110854282975197, -0.07814998179674149, -0.00926888920366764, 0.06462515145540237, -0.04864268749952316, -0.09438427537679672, 0.000656819436699152, 0.061546728014945984, -0.05626780912280083, -0.06854990124702454, 0.061073001474142075, 0.06463020294904709, 0.03663015738129616, 0.015208622440695763, 0.04779690131545067, -0.0666060671210289, -0.032838232815265656, -0.02295679785311222, -0.05998849496245384, 0.0038450509309768677, -0.003721720539033413, 0.06554219871759415, 0.030155004933476448, -0.08109885454177856, -0.07520080357789993, 0.025347193703055382, -0.010215410962700844, -0.02855367586016655, -0.06062980368733406, -0.05333419889211655, 0.00406447472050786, -0.03679939731955528, -0.040002450346946716, 0.03976815566420555, 0.060860466212034225, -0.028852524235844612, 0.004146859981119633, 0.029947100207209587, -0.030499229207634926, -0.055595651268959045, -0.016850419342517853, -0.057573847472667694, -0.08643560111522675, -0.01377648301422596, 0.027097851037979126, -0.04019803926348686, -0.05062076076865196, -0.05311010032892227, -0.0308446753770113, -0.08913733065128326, -0.028774652630090714, -0.07047377526760101, -0.07196926325559616, -0.04401697963476181, -0.07209204137325287, -0.010288354009389877, -0.02727905847132206, 0.048549216240644455, 0.005327950697392225, -0.028142446652054787, -0.015903590247035027, -0.07519166171550751, -0.028358444571495056, 0.04959510639309883, 0.017131827771663666, 0.03399846330285072, 0.05209636315703392, -0.09295053780078888, 0.014311451464891434, -0.08258247375488281, -0.018962018191814423, 0.005200183484703302, 0.0067507619969546795, -0.07723145186901093, 0.01670081727206707, 0.0656263679265976, -0.049720458686351776, -0.0023645821493119, 0.04626666381955147, -0.03802579268813133, 0.042984362691640854, 0.008047607727348804, 0.010716616176068783, 0.013726886361837387, -0.04071580618619919, -0.08789592981338501, 0.028717810288071632, -0.01087206695228815, 0.03573140501976013, 0.009042365476489067, -0.014678435400128365, -0.03781168535351753, -0.0018762174295261502, 0.03324262425303459, 0.00042746757389977574, 0.0409107580780983, -0.02733791247010231, 0.0007543625542894006, 0.03743584081530571, 0.06273649632930756, -0.04871995002031326, 0.002489886712282896, -0.018010353669524193, -0.051164545118808746, -0.0656726211309433, -0.09467776864767075, -0.05052494630217552, 0.03784095495939255, -0.043263714760541916, 0.03453734889626503, -0.056284017860889435, -0.03204864636063576, -0.07981062680482864, -0.09465204924345016, 0.05675974488258362, 0.05238993465900421, 0.023116430267691612, 0.037171587347984314, 0.028373030945658684, -0.03998406603932381, 0.012225328013300896, 0.045974113047122955, 0.01027591247111559, 0.029101992025971413, -0.04553820937871933, 0.04240775108337402, 0.006272800266742706, -0.01870308630168438, 0.013994240202009678, -0.08560531586408615, -0.09440775960683823, -0.0522836409509182, -0.03626643121242523, -0.08088820427656174, -0.015209492295980453, 0.02450600452721119, -0.08913033455610275, -0.0724363848567009, 0.03210410848259926, -0.05078207701444626, -0.09028113633394241, -0.0068106637336313725, -0.06779118627309799, 0.018693948164582253, 0.013658215291798115, 0.03587011992931366, 0.032089073210954666, 0.060773275792598724, -0.020784953609108925, -0.07573186606168747, 0.010038526728749275, -0.03056993894279003, -0.07879126816987991, -0.06443049013614655, 0.048389554023742676, -0.02280837669968605, -0.025097297504544258, 0.040823377668857574, 0.052385639399290085, 0.05566959083080292], [-0.0179075188934803, 0.00892154686152935, -0.039833277463912964, -0.01123070903122425, -0.027499694377183914, 0.016272123903036118, -0.09035398066043854, -0.06863435357809067, -0.06120209023356438, -0.025734880939126015, 0.06898486614227295, 0.06141815707087517, -0.022369666025042534, 0.04643841087818146, -0.07343939691781998, -0.07870776951313019, 0.05014454573392868, 0.06783248484134674, -0.023341841995716095, 0.03943781927227974, -0.08784349262714386, 0.03616148233413696, -0.018745871260762215, -0.08273781090974808, 0.062363188713788986, 0.056764867156744, -0.030310548841953278, -0.030385684221982956, -0.05016312003135681, 0.0633859783411026, -0.03740198165178299, 0.04912334680557251, -0.0409674271941185, -0.06689131259918213, 0.012706308625638485, -0.05001239478588104, -0.018638726323843002, 0.062126707285642624, -0.05240318924188614, 0.05778824910521507, -0.02537054568529129, 0.014700440689921379, 0.05075227841734886, -0.009246460162103176, -0.01582746021449566, -0.012888551689684391, 0.005917700938880444, -0.08843576163053513, -0.06892365217208862, 0.05758579820394516, 0.018667126074433327, -0.01170711312443018, 0.012464423663914204, -0.0395921990275383, 0.04535685479640961, -0.07337946444749832, -0.045791201293468475, -0.07053909450769424, -0.0893632173538208, -0.017977075651288033, -0.004399303812533617, -0.033419862389564514, -0.033405933529138565, -0.08116599917411804, 0.07098182290792465, -0.003433296689763665, 0.037691500037908554, -0.03404063358902931, 0.0656268373131752, 0.025877973064780235, -0.010602092370390892, 0.04625857621431351, -0.08595937490463257, -0.06363852322101593, 0.017676178365945816, 0.009562412276864052, 0.02827439457178116, 0.03077370673418045, -0.043775543570518494, -0.0642399713397026, 0.011648175306618214, -0.05827122554183006, -0.0852290540933609, -0.04039537534117699, -0.023833418264985085, 0.023343676701188087, 0.07102394849061966, 0.009484081529080868, -0.08466091752052307, 0.048878200352191925, -0.05374148488044739, -0.08769632130861282, 0.015919985249638557, 0.06438780575990677, -0.033210910856723785, -0.07535907626152039, 0.030748125165700912, 0.06721252202987671, -0.06625153124332428, 0.058459412306547165, 0.0328078493475914, -0.020002637058496475, -0.08329343795776367, -0.04779137670993805, -0.0735522210597992, -0.029286328703165054, 0.054520998150110245, 0.06804587692022324, -0.07824306190013885, -0.039953429251909256, 0.006101435050368309, 0.0318981371819973, -0.0344490185379982, 0.05674656108021736, 0.0327766053378582, 0.015221282839775085, 0.0474824495613575, -0.009884027764201164, -0.08250516653060913, -0.05870792642235756, -0.0805637389421463, -0.04577653482556343, -0.021167395636439323, -0.052734047174453735, 0.04272561892867088, -0.0034792872611433268, 0.023439818993210793, 0.06672829389572144, -0.08899764716625214, -0.05164054036140442, -0.03844732791185379, -0.0347936674952507, 0.0612822026014328, -0.026095489040017128, -0.0009326853323727846, 0.02950211986899376, 0.03509249910712242, -0.0494089312851429, 0.026035593822598457, 0.021819323301315308, 0.044623516499996185, 0.0609288327395916, -0.005879499949514866, 0.048467349261045456, 0.042486343532800674, 0.02824108488857746, 0.012478742748498917, -0.08214893192052841, -0.05351877585053444, 0.0531800203025341, 0.011951097287237644, -0.017915882170200348, 0.0010325759649276733, -0.01037522591650486, -0.06746245920658112, -0.036616139113903046, -0.043441291898489, -0.05039215087890625, -0.07663983851671219, 0.06122591346502304, -0.004801544360816479, -0.0028465790674090385, 0.025234220549464226, -0.01913120038807392, -0.09000756591558456, -0.08973830938339233, -0.05682108923792839, -0.0455508790910244, -0.009049501270055771, -0.03541358932852745, 0.0470237210392952, 0.03199545666575432, 0.06330327689647675, 0.02736557461321354, -0.044214747846126556, 0.056736066937446594, -0.013851409777998924, -0.06790118664503098, -0.05480242520570755, 0.05196639895439148, 0.017226027324795723, -0.001833200454711914, 0.06703494489192963, -0.028091320767998695, -0.023563440889120102, 0.01101074367761612, -0.06091393157839775, -0.024810101836919785, 0.00689364317804575, 0.05979417264461517, -0.006321829278022051, 0.051032863557338715, 0.04206642881035805, -0.05269065126776695, 0.06473962217569351, 0.06463274359703064, 0.029895709827542305, -0.05896858125925064, -0.04367225989699364, -0.08855687081813812, 0.013433250598609447, -0.03297525271773338, -0.04016665369272232, -0.02434385195374489, -0.08880627155303955, 0.009873481467366219, 0.05415002256631851, -0.007019434589892626, 0.03722182288765907, 0.018222417682409286, 0.04173953831195831, 0.01664058491587639, 0.05934644863009453, 0.02761698327958584, 0.03266982361674309, -0.06901992857456207, 0.008383170701563358, -0.0528903491795063, 0.040595643222332, -0.021052749827504158, -0.011020652949810028, -0.03737286478281021, 0.04557555168867111, -0.08427377790212631, 0.04033457487821579, 0.04119473323225975, -0.016896482557058334, -0.052268918603658676, -0.0022026337683200836, 0.014452710747718811, 0.047999732196331024, 0.05535586550831795, 0.050777070224285126, -0.06745073944330215, 0.0038441207725554705, 0.00026226439513266087, -0.01945122890174389, -0.045857399702072144, -0.04948875680565834, -0.06897678226232529, 0.01578405685722828, -0.03241988271474838, -0.056828733533620834, -0.014054542407393456, 0.06307712197303772, 0.0541171059012413, -0.015281532891094685, -0.07021594792604446, 0.05127726495265961, -0.040983255952596664, 0.04563707858324051, 0.05570662394165993, -0.026156825944781303, 0.031102275475859642, -0.08948203176259995, -0.07500356435775757, -0.05257300287485123, 0.03378622978925705, 0.023582419380545616, -0.022337699308991432, 0.019802063703536987, -0.06276510655879974, -0.03686470165848732, -0.0449516735970974, -0.01824912242591381, -0.05646340548992157, -0.0581844225525856, -0.08866596966981888, -0.04771783947944641, 0.015822846442461014, 0.0009418466361239552, -0.0774812251329422, 0.06609845161437988, 0.0055103725753724575, -0.03297944366931915, 0.05843998119235039, -0.0024190701078623533, -0.027856552973389626, 0.06490864604711533, -0.02781669609248638, -0.08906114101409912, -0.04714253172278404, -0.039633069187402725, -0.004781764466315508, 0.031093982979655266, -0.035652779042720795, -0.05141063034534454, 0.05256568267941475, 0.05177631229162216, 0.004821971990168095, 0.028564749285578728, -0.06282741576433182, 0.06744969636201859, 0.044953085482120514, -0.07364991307258606, 0.018949607387185097, -0.019318712875247, -0.08338379859924316, -0.07312854379415512, 0.07105588167905807, 0.02104562520980835, -0.022761626169085503, -0.034170374274253845, 0.008272625505924225, -0.06861012428998947, 0.013050670735538006, -0.028827829286456108, -0.028592169284820557, 0.03558852896094322, -0.04873419925570488, 0.029908426105976105, 0.00333314947783947, -0.0848693698644638, -0.02577102929353714, 0.048514872789382935, 0.061174921691417694, -0.01051502488553524, 0.0015896237455308437, -0.017815200611948967, 0.06972828507423401, 0.05719117820262909, 0.06000279262661934, 0.02881404012441635, -0.0440511628985405, -0.03773606941103935, -0.08464088290929794, 0.023340482264757156, -0.062130291014909744, 0.024316713213920593, -0.052641611546278, 0.048941582441329956, 0.019562501460313797, 0.05797361209988594, -0.03485656529664993, -0.08960601687431335, 0.015939252451062202, -0.036812663078308105, -0.04451437667012215, -0.030424252152442932, -0.07123613357543945, -0.074207603931427, -0.014208250679075718, 0.016696041449904442, -0.010735523886978626, -0.01264546811580658, -0.08672179281711578, 0.0658479556441307, -0.03843291476368904, -0.03866734355688095, -0.07242992520332336, 0.04847801849246025, -0.03045499511063099, -0.007322596851736307, 0.04614531993865967, 0.06111573800444603, -0.007602119352668524, -0.054560586810112, -0.05844220891594887, 0.015119981952011585, 0.009208236820995808, -0.03346087783575058, -0.0830489918589592, -0.08554602414369583, -0.032620515674352646, 0.0015654097078368068, -0.08667369186878204, 0.03755839541554451, -0.0013875406002625823, 0.05810213461518288, -0.009727243334054947, -0.0666956976056099, 0.06076640263199806, 0.017298897728323936, -0.00757466210052371, -0.0021758130751550198, -0.076320119202137, 0.008250228129327297, 0.06189236044883728, 0.018180834129452705, 0.06941498070955276, -0.0034062436316162348, -0.036747321486473083, 0.03556100279092789, 0.007521437015384436, -0.00011502201959956437, -0.016209974884986877, -0.07176990807056427, -0.00901144091039896, -0.039226021617650986, 0.03296209126710892, 0.0241192989051342, 0.014144756831228733, 0.06474320590496063, 0.049022525548934937, 0.005589737091213465, -0.08414722979068756, -0.020588912069797516, -0.01410697866231203, 0.017644334584474564, 0.0023961812257766724, -0.07324259728193283, 0.012322615832090378, -0.04750826954841614, 0.05488651618361473, 0.04210471361875534, -0.002933840500190854, -0.00109373708255589, -0.08363888412714005, -0.04449140653014183, -0.004686090163886547, -0.004826024640351534, 0.04084734618663788, 0.07052174210548401, -0.030584169551730156, -0.03107413649559021, -0.0034142883960157633, -0.0671624168753624, 0.018067706376314163, -0.036770157516002655, 0.04305489733815193, -0.08518394827842712, 0.01601971872150898, -0.004257864784449339, 0.06365455687046051, 0.002168920822441578, -0.0583006776869297, 0.01480486523360014, -0.030579112470149994, 0.03125794976949692, -0.060436949133872986, 0.013864939101040363, 0.033097557723522186, 0.0465090312063694, -0.025517556816339493, -0.06856885552406311, -0.0302587877959013, 0.026443859562277794, 0.009869909845292568, 0.046600889414548874, -0.0645858645439148, 0.0030517796985805035, -0.08240900188684464, 0.054891012609004974, -0.07386523485183716, 0.05540893226861954, -0.07387395948171616, -0.03780539706349373, 0.01943710818886757, -0.04532956704497337, -0.009563330560922623, -0.04509549215435982, -0.01465594582259655, -0.04269254580140114, -0.03053109347820282, 0.03442683070898056, -0.06973212212324142, 0.03540511056780815, -0.019841253757476807, -0.036906179040670395, -0.00931861624121666, 0.027473794296383858, -0.05921627953648567, -0.006648165639489889, -0.09073562175035477, 0.044091589748859406, -0.04813573136925697, 0.02202567271888256, -0.06373517960309982, 0.001979881664738059, -0.047850608825683594, 0.0619056299328804, -0.0544344000518322, -0.05769626051187515, 0.047650791704654694, 0.03460691496729851, -0.06924572587013245, 0.008777167648077011, 0.06841112673282623, 0.05176858231425285, 0.06678972393274307, 0.010944660753011703, -0.04021688178181648, 0.06738056987524033, -0.0009505825000815094, -0.0819752886891365, -0.016938935965299606, 0.0495421327650547, -0.027418458834290504, 0.05255889892578125, 0.017800429835915565, -0.0465158075094223, 0.05304941162467003, 0.03188848868012428, 0.06186981871724129, -0.020527340471744537, -0.017374055460095406, 0.05187378078699112, 0.009250047616660595, 0.05285542458295822, 0.04732300341129303, -0.07090530544519424, -0.08659809827804565, -0.038341183215379715, -0.06779129803180695, 0.05641984939575195, -0.0604134239256382, 0.040224455296993256, -0.07556077837944031, -0.07027994096279144, 0.03700506314635277, -0.00568201532587409, 0.0110737020149827, -0.08710160106420517, 0.024431657046079636, 0.05583590269088745, 0.008389698341488838, 0.037995755672454834, 0.02967670187354088, -0.06632378697395325, 0.006832102779299021, -0.049627237021923065, -0.07979799062013626, -0.032255981117486954, 0.035959940403699875, 0.045015595853328705, -0.07469665259122849, -0.0379854291677475, 0.044206537306308746, 0.004527219105511904, 0.0024521537125110626, -0.004184142220765352, -0.010324900969862938, 0.0280966404825449, -0.002611749339848757, -0.018354343250393867, 0.035103119909763336, 0.04679344221949577, -0.0051390924490988255, -0.06017688289284706, 0.05175735428929329, -0.02971624955534935, -0.01886787638068199, 0.018426865339279175, -0.052921053022146225, -0.010897944681346416, -0.019768549129366875, -0.026358777657151222, -0.08706057816743851, -0.02760745771229267, -0.026002928614616394, -0.02924375981092453, -0.004140173085033894, 0.02706468291580677, 0.028414202854037285, -0.08341362327337265, -0.06731590628623962, 0.02387714944779873, -0.07961580902338028, 0.05661163106560707, 0.06837732344865799, 0.03773069381713867, 0.019622625783085823, -0.02218683622777462, 0.018490783870220184, -0.023806897923350334, -0.021870242431759834, 0.02719096839427948, 0.03694602847099304, 0.03983712196350098, -0.02991318516433239, 0.05560394749045372, -0.022939303889870644, -0.06703022867441177, -0.030223187059164047, 0.0038950960151851177, -0.008240551687777042, -0.07437891513109207, -0.007462718524038792, 0.06932839751243591, -0.02321872115135193, 0.04796953871846199, 0.045927636325359344, -0.01882101036608219, -0.04200974479317665, -0.06448253244161606, -0.034112587571144104, -0.004991085268557072, -0.06846951693296432, 0.058197155594825745, -0.04387383908033371, 0.02890707552433014, 0.06353755295276642, -0.0722774937748909, -0.04450660198926926, 0.07100323587656021, 0.020432554185390472, 0.032151781022548676, 0.04534105211496353, -0.06594142317771912, -0.06188184395432472, -0.01106225699186325, -0.06223808601498604, -0.05466729402542114, -0.04466412588953972, -0.051865991204977036, 0.05766952782869339, 7.556921627838165e-05, -0.08721339702606201, -0.07417207956314087, -0.06865362077951431, 0.0640668049454689, -0.03248308226466179, -0.03562098369002342, 0.02309446781873703, 0.021638810634613037, 0.041037168353796005, -0.07652083784341812, 0.017746230587363243, -0.08276773989200592, 0.0033646479714661837, -0.03355597332119942, 0.011249089613556862, 0.0671064555644989, 0.06809350103139877, -0.060404010117053986, 0.04357136785984039, -0.03733493387699127, -0.0019619998056441545, -0.08198322355747223, 0.04742896929383278, -0.03381020203232765, 0.0381297804415226, -0.025093605741858482, 0.06316298991441727, -0.03231906518340111, -0.0625813901424408, 0.07015074044466019, -0.01698274351656437, -0.024915097281336784, -0.08299731463193893, -0.03631477430462837, 0.000835784652736038, 0.054758597165346146, -0.06528712064027786, -0.02807042747735977, -0.005737253464758396, 0.04958513751626015, -0.0006087202345952392, -0.005732881836593151, 